[[[-0.5266868843156048, -0.07608942142043869, 0.38986381256894714, -0.5144370319144591, -0.018287252657492613, 0.03583189262042093, -0.1956449066846481, -0.11478202815415399, -0.47888770153239835, -0.7492535866718767, -0.9554084302456557, -2.7292891834411788, -1.6070788428121603, 0.2158697606256573, 0.18463527074645636, 2.137416936118574, 0.05002484351204602, -1.7479817680149812, -0.3982114859155972, 1.810141184389405, -1.0766834996723647, 0.8221590849933045, 0.19955105544511198, -0.6898477914762248, -0.5563807219894552, 0.0040367132977145795, 1.070192423022985, -0.023382499476402148, -0.6826595485269725, 0.6547272067637512, -0.9309869618188834, 2.0567476617479366, 0.1558420039995998, -0.8042541907961267, -0.5382295029558056, 1.5689455227429436, 0.124938774654563, 1.3876929401664517, -0.5751229628668905, 0.4017464912579526, -2.0352565524852975, 0.008085419430520296, -0.4243021074075389, 0.30976910166761523, 0.7267453843869911, -1.0994290302064755, -0.6043829342270215, 0.1527959156790376, 0.09688156803704258, 0.8587339966245306, -0.39105351825080437, -1.1025763753534819, 0.6499161193116999, -1.5186978012364662, 0.49410221200165644, 0.1334164735626204, 0.5201041371044104, -0.3914280570496039, -0.04514246084562536, 0.46720377468089486, 0.812044034821882, -1.4854666397511782, 0.28535447684745424, 1.5006035065081889, -1.004999289501113, 0.33572114351640286, -0.2815550408974395, -0.9116537467571844, -0.4870458363758061, -1.2340897804321418, -0.4367547572905523, 0.6610454677953375, 2.089694091559521, 0.36141704775299344, -0.3409847898421719, -1.5452278508444663, 1.9252730289146762, -0.3008056707381082, -0.5295747242468852, 0.5956673495622744, 0.1028604648521326, 1.9139003249139728, 0.3835974114281081, -0.7390717553640551, -0.724613217921831, -0.21654624098591696, -1.6622453453961088, 1.4289129076746303, -0.13059257689750017, 2.0231253917742142, -1.238499343352432, -0.09757368145725638, -0.2266959544924744, -0.700179476760287, -0.0919076462289322, 1.3182920224690642, 0.21193300411708782, -0.8550051197644254, -1.2901765498315914, 1.8992246948729705, -0.16932775380778228, 0.43578321448975355, 0.355055159564723, 0.07396930449468125, 0.8118706658529597, -0.2600794503696035, -1.0335994280671643, -0.23257449776906627, 1.3648998405556545, -0.5615373413379787, 1.5499864098667655, 1.24248383344688, -2.3515710974032094, -0.04586927378903847, 1.0759100460679467, -1.4009446111187338, 0.7190049259298158, 0.3348905686859828, -1.3433206146086873, -1.0477095065524493, 0.5653045945369534, 1.0084328684381831, -0.5401776652298182, -1.0449171974661768, -0.7475463139415741, 0.7904888848397889, -2.1342297773805226, -0.9247736799583515, -1.1606037175366264, -0.03269351840683478, -0.5587781570654561, 0.07549159855608234, -1.1648940848013276, 2.2436030995879563, 2.5351368680663198, -0.21642881809764478, 0.3920307436905353, 0.1554253368688069, 0.6030091779775534, 0.31882889438894374, -0.1518653597887607, 0.5603960892616501, 1.5367950534148167, 1.014670122279417, 1.213173974145557, -0.3205835566357261, 1.044566701700712, -0.9151166314173811, 0.704228986628106, 1.1895912605502206, -0.02392663347740783, -1.1098192731361862, 0.04574796973894542, 0.4203157626073704, 0.032073097025065236, -0.21556925567014196, -0.3556964214934226, -0.033015152360208674, 0.49176309170515453, 0.8542267676196301, 0.474071026906683, -0.014484576552341479, -1.211671464095084, 1.2624288887014947, -1.5453420773080968, 0.4649867275812165, 1.812154285581471, -0.6390887399197239, -0.2432608485047795, -0.3406531549553733, -0.24987840995001784, -1.2316906248212516, 0.7811310163881892, -0.5404603706823585, -0.5448752122196283, -0.5747717053481853, -0.33232768463281054, 1.1097078474393065, -0.8632385458359416, -1.5442249742770089, 0.19340705693730223, -1.1206985763975026, -0.07161098365542412, -0.9948572517415304, 0.4850565756709837, 1.187434369021674, -1.1170150312544818, 0.9249877061620211, 0.3192106444931734, -0.6758734622770739, -0.878603033378324, -1.7462226288285774, 0.8034832036995614, 0.92046241563461, -0.2871118656829083, -0.34207281467037237, 0.5377010714227967, 0.6108404803119399, -1.6839624228944383, 1.3336227766489834, -0.20595145638411252, -0.936029333405417, 1.1695847361134732, 1.1926105037851231, 2.119407211372044, 0.10699860104908229, -0.5826102786124397, 0.7598268556265453, -0.09799396661045374, 0.22633136982489238, -0.08184376069525977, 0.17112760504664865, 1.052026371931005, -0.33641579048005593, -0.07517853988698586, -2.218046763938841, 0.7354529898858506, -0.9339602620747678, 1.2146349066817133, 0.8016023109285572, 0.5029511640321537, 0.36853377427624423, 0.6538134644727835, -1.0565128075313377, 0.7475344357515873, 0.30670956750732536, -0.8513563219054135, 0.08161786191457891, -0.8457033500933092, 0.7639310247218686, 0.11697444524172287, -1.4496946237084314, -0.1089276255312986, -1.594957175237888, 0.15824429372236318, -0.31700028389719553, -0.3285890700252898, -0.41594219579141206, -0.5068797998628073, 0.7898763332598053, -0.03872277696489305, 0.7455424554724474, 1.0103229198435142, 1.0253975030732965, 1.1821884171522044, 1.8975044738620508, 0.12779121496807633, -1.8553417606604259, -0.8485826808588071, 1.123697054570647, -0.41694423264497016, -1.7230362134773118, 0.3576407320592577, -0.6910358895325699, 0.6517159819327506, -1.3704016215280683, 0.5335622684176128, 0.2208532423281372, -0.9478173514975934, 1.8322270250428159, 0.6070383005580633, 1.1037175875976688, 0.34634481975751524, 0.029987465356155037, -0.6695931307114321, -0.02440682391082799, 1.4174638006279416, 1.6801779975278421, 1.2433760234021998, -0.9306025489007713, -0.27618538503693246, 0.8063215998447425, 1.595098517672294, 0.7740222101742853, -1.6591465137675885, 0.31424002814185825, 0.5703851213132825, -1.2495693561682988, -0.3961677450565998, -0.19739446481936823, -1.7273026412734596, -0.7506810856432865, 1.1999393565796075, -0.3140987492118815, 0.19109461896801397, 1.1788451781922409, 1.502807668051951, -0.6242127049108597, -0.2613234634990916, 0.6274273911541062, 0.6809949086185816, 0.8204621795895386, 1.4812027330845086, 0.5455038349174548, 1.5217897350347656, -0.026081866197327528, 0.8429290458603602, 2.115983995233157, 0.2210230589029309, -0.048278423237610994, 0.42738779361404333, -0.3102280065589868, 1.6692911013610447, -1.0528881243908015, 0.9268956937110767, 0.799075637695896, 0.5195819764509172, 0.40294444457180617, -0.5914761489063051, 0.2608513597493953, 1.0745462929392664, -0.2968188173948627, 0.6866773873313826, -2.029490488722041, 1.0536291603794625, 2.1264358191613018, -1.0594336546053116, -0.5765599830003528, 0.09259077740693544, 1.6771974996808934, -1.5495483339327465, 1.141979518653195, 1.0085734381845368, -0.0030455780065857937, 0.6952507255214916, 0.7728173057668576, 1.1115773035320216, 0.716443853459918, -0.7357163167864744, 1.268230411766125, 0.7769898404288538, 0.23399214759600268, -0.37229276972716907, -0.3463763486472697, -0.7136326446010581, 2.337098164578741, 0.9085600817903332, 0.18714750271448186, 1.026752992125123, 0.6654701716904697, -1.0741395324026295, 0.9168959972587104, 1.7211567898599385, 0.08091895595439669, 0.39736047720614265, 0.953383277079275, -1.0763640281269902, -0.4580336066555974, 0.4451470323384348, -0.47111494306682206, -1.6312988456726074, -2.5656198097944167, -0.8638065013731009, -0.41390401893996265, -0.3773972797936971, -0.6240455789183526, -0.10734751626804104, -0.30692123804350135, 1.0632585862983877, -0.5043115140189851, 0.3781108096920738, -1.591338889843227, -0.9664209349954765, -0.0974434159313496, 0.5366863206062171, -0.9977794334999648, 1.3860109929059417, -0.5407133156590497, -1.6221235093204929, -0.13427330503658239, -0.8108128456231514, -0.9568206181787225, -0.6574730059320191, 0.6225065633615183, 0.2108010867420272, -0.6783090721517088, -0.8678017540722011, -0.746580822826983, 0.2398467557120957, -0.9739024179900957, -0.1504024219042642, 0.2823988519177604, -0.980100080379473, -1.8920184621032183, -0.9963096834185201, -1.8600438750778456, 0.7057806792494805, 0.6663681775179247, -2.8087295566103734, -1.8960548297442827, 0.24824384978429012, -1.492343478416213, 0.4689601897167847, -1.0630155815244229, 0.06501720161433872, 0.003615972670631707, -0.31122871705623006, 0.912292778360092, 0.16863681488764432, 0.9281229782578784, 0.7302899620136549, 0.996421142029826, -0.12631766766337854, -0.3072108501603695, 0.1826169412842631, -1.0353265240505187, -0.7834778115244624, -1.9137975332739219, 0.5968538294061231, -1.514585737695293, 0.11585768365379784, -0.7324056107706091, 0.8495660112679199, -1.153850215362198, 0.26655235517521375, -0.4276430119451353, -0.3124119113351862, -0.06399463020997839, 1.3045134789304704, 0.5553982128745618, -1.4551095717657905, 1.0105497556291159, 0.3408602577216484, 0.3382236968323172, -1.0110355357367053, 2.4268735439326217, 2.3510469927737523, -0.2974752992515323, -2.230141595121848, 0.11878162742427059, -0.8097935716261303, -0.05560493275560294, -1.5823479651440135, -1.5646498348958495, -1.2097414909148596, -0.5005230848486548, -0.20140875383491794, 0.10367782737441508, 0.07531950343110802, 0.38152189566118877, -0.5719663719201781, -1.5205864639395954, 0.4180399431505771, 0.9813035947827343, -0.9125182936154257, -1.340123135484457, 0.16039947290020065, -0.5360663091134567, -0.36147020999096846, 1.849281546857708, -1.9268256110579898, 1.246347531647007, 0.20099827596911934, 0.170228460808862, -1.2543669245984943, -0.12907640099427092, 0.2628459575500674, -0.7538167033464604, -0.3336057423790205, -0.6283231704144641, -1.2676746356801263, 0.11707023113987831, -1.0288956774228875, -1.9347970132072247, -0.5366205887052807, -0.5651749609034018, 0.0054219426878467005, -1.0764837249477104, -0.8419977510994601, 0.6464888659511198, -1.1099364802851697, 1.4601789515285184, 0.15416810061147695, -0.1557063692524018, 0.7234481172755889, -0.5311377936870062, -0.9534262145368828, -1.3347057143611691, 1.1655107719694995, -2.2028172104405566, 0.5986680599805319, -1.6424363517343534, -0.13352336267946419, -1.8778875766123324, -1.1981264731954262, 0.684949936428319, 0.015005947772984165, -0.5264084889606451, -1.69720258417649, -1.6560204375875898, 0.0634704378375538, -1.5248101211491403, -1.53762632009505, 0.3278299803812543, -2.2211127592866213, 0.6833416364656532, -0.19137102148323087, 0.7425505336031009, 0.0031389610516396405, -1.0775593658778162, -0.6989287502485764, -0.928417711323496, -0.7304580054890981, -0.32967139802115647, -1.5125477976697566, -0.46597498773403584, 0.9602341480444635, 0.8003164487259324, 0.49525549135009095, 0.06895053496993422, -3.2624711066960317, 0.6338204984098225, 1.2559214991143044, 0.779265292456127, -0.05123854539894369, -1.7972134340007686, -0.9133548593844576, 0.3158847191616429, -0.6218646078872836, 0.1132969515942631, 0.8624983924985345, -0.278633985758399, 0.9485209770816359, 0.1085697586818102, 1.1220784753511999, 1.3231847382593203, 0.6213637605951032, 0.4189095511786501, 0.22976144457311126, -2.831154090385759, -0.5570908856704443, 0.9471479447977712, -0.01877310279438041, 1.1218132181012561, -0.07368909969770633, 0.9404713649156292, -0.1232049713775377, -1.3530062921802928, 0.7106402004760249, -1.2211153688284209, 0.6544406606149312, 0.053948774887574664, 2.21783232139367, 0.01961110103068185, -0.772900597697382, 0.27915618743310744, 0.3407150062896979, 0.48927614217209453, -0.2929836118390823, 1.4655436312895578, -1.2865393826362532, -1.9373696257475879, -0.7794392635641371, -0.01620357036386331, -1.9307467860663539, -1.1084228601014072, 0.5820283761767807, 0.41339070447189014, 0.056897304947392056, 1.6943372372288783, 1.414798554203806, 0.9394073911438595, -0.6219355136992761, -0.8654575416035472, -0.7748084384393397, -1.7936261272542278, 0.45355625587125525, 0.6145404260221586, 1.1277378710438513, 0.057505148954046306, -0.24081347051128887, 0.6193504268114743, 1.092030658866018, 0.7903205347249589, 0.6739762011164729, 0.5331594673133557, -1.1945685053947501, 0.11899961656153685, -0.7025656440856497, -0.9351936306031771, -0.5030285945857467, 0.878462372646108, -1.6791577458888474, -2.1363767896460635, 0.7099520187736335, 0.23577863354168324, 1.4756967052025944, -1.8768701554849094, 0.6110532364013592, 1.3377403267011654, 0.3951527669306075, -0.3495953828004266, -0.9199496454071598, 0.5246950466653166, 1.2787928455449706, 0.044618643160071324, 0.34664647481020855, 2.1776640836353116, 0.5207455467880563, 0.5368597702427802, 0.7814105424033784, 0.06058588015240539, -0.7729034685297917, -0.25302336120872176, 0.3192815783764367, -0.052958977388373504, -1.5867191765415565, 0.38998132557075116, -1.8797539423789038, 0.44361553113539515, -0.3258912931438794, -0.08141765490758665, 1.4211854872327176, 0.43728775045062346, -1.3309822240250901, -0.017389971166998024, -0.7224552550921222, 1.3385165055404333, 1.294740723924778, 0.1209533224227527, -0.5461486614249138, 1.3068707386429732, 2.223602475119554, 0.5633132528051107, 0.20057559692214394, 0.5652259226934059, 0.9385529740743264, 1.4032765259745075, 0.05050329369949139, 2.1458746921694836, 1.7598791713681163, 0.9762223327598352, -0.5092476898454014, 0.624605529987028, -0.6301684766822356, -0.01840627337344302, -0.7628017675192569, -1.3726540660860886, -0.25838481910138994, 0.015730445195335327, -1.1908924235357288, -1.4038119397445419, 0.8694401435101466, 0.7892247713633072, 2.598103798668696, -0.5175773025450423, 0.7080721771642823, 0.1949723490993833, 0.721183976063465, 1.4038866076916674, 0.5063020036173164, 0.8367734348018444, 0.14812342310204946, 0.18076379511977084, -0.7083881052586861, -0.9699234437470555, 0.19183726948860677, -2.5541636000601677, -0.45212680488084395, 0.06975198753818375, 0.8261099408414809, 0.7114363165730162, 1.396149296040711, -0.8196034897726413, 0.8551523710497794, -1.7250948117817428, 1.879937130429466, 0.7468640752622351, 0.4426015610394199, -1.7325915188762115, -0.4040573353508448, 1.1220856872034035, -0.0005249306190839852, -0.46613013240690104, 0.1406615095161941, 0.5495085315947488, 0.8456355816091299, -0.46245073375669393, -1.554427339391933, -1.8862251674579529, -0.44006660105782996, -0.04372447882585895, -1.0095948199898404, -0.9085359411961282, -0.24415158781077095, 1.2717387546147356, 1.2467537113639193, -1.1127398054195357, -1.4101010126184004, -0.7346875229369811, -1.7120885524872704, -0.22582613605176893, -0.3473530440557531, 0.3086866284493951, 2.538581179739603, 0.49951791299568243, 0.6299422512898136, 1.153856205849108, 0.7219578177015156, -0.9244170188157719, -0.9016653954341433, -1.534076318464581, -0.11442288931397063, 1.4363040385822685, -1.4289592053806828, 0.09086169895723066, -2.3497052631849216, 2.3976087223667686, -0.5277164148306107, -0.11149697700795748, 1.1655702131720593, 0.10020435653553911, 0.20874751582609025, -0.3706458076177012, -0.5845143271552216, 1.6507111648631714, -0.880989585073746, 0.32827713155862015, -0.23197636314212933, -0.3238807558270787, -1.3582590954232183, 0.677772902346169, 0.7098965506257856, -1.029608583326846, -0.07293993438249224, -0.3319729909996623, -0.22300483702049795, -0.49786476106464334, 0.8035574687047603, -0.9922631534698115, -0.544543386856857, -0.521739479238749, 0.4573810030349547, 0.31842120063197266, -0.550252629535213, 0.4005193281209904, -0.6992064837268425, 0.28510925644644164, 0.3354955125008662, -1.1077769669036501, -1.1003820042225807, -1.146323518674386, -1.0898870267998824, -1.5094627230034332, 1.308448072094225, -1.0918020516439753, -1.0545715604987431, -0.6808175807197911, -1.1147543231188977, -1.6912819989925982, 1.1424293917764832, 0.635551544504016, 2.3752739508289644, 0.18805701473314537, 0.7621699198813089, -0.21546347812159292, 0.7353072000365091, -0.48901889296763873, -0.24268870490168404, -1.5333289492017315, 1.1901982751901654, -1.1759846045453035, 1.5305795335797945, 0.41558291633836986, -0.10998098608930185, -1.2664880619193295, -1.8731612875962922, 0.2599488758903268, -0.19542964338462143, 0.8164509743850442, -0.3250302613014117, -0.11344808013418357, 0.10609010127053732, -0.266042835090136, -0.2439914411922401, -0.19124486444616176, 0.3351740155294387, 0.08009123640012733, 0.0780660397908933, 1.936036425825259, 0.7775430429919559, 0.07934709141375908, -0.17281952094270916, -1.780332709155159], [-2.2200731628510573, 0.08100456661530236, -0.7447325997055528, 0.0306513029551259, 0.4941345828140382, 0.6649225380463647, -0.6188741782348113, 0.07836507244592286, 1.1489677083757743, -0.9401149057167121, 0.03345336776715924, -0.4295465669565435, -0.13096888668263187, -0.43463998691661565, -1.2130409529571446, -0.6324415250090398, 0.40211940797166085, 0.40066757793222735, 0.7592131014341067, 0.16609932674130404, 0.9335008115223093, 0.4781393153189087, -2.0213369364110467, -0.21622123789883688, -0.343380492602431, 1.449561131802101, -1.1314185716404228, 0.24721633009263624, 0.1381388848844531, -0.8194304503865603, -0.7751193143904346, -0.6886253693692853, -0.22721073047627785, 0.014011651610596358, 0.9854332990137903, -1.4291955750398089, -0.7561914471903474, -0.23181233117146552, 0.7484132317152086, 0.6343158938785465, 0.7261286746396101, 0.6982774069061609, -0.6138820947157535, -0.9378677741048194, 0.48416504998880955, -0.10298390662112, -0.6912863977953231, -0.9544174153884712, 2.1704164791820206, 0.47380795669094394, 0.3095023780270425, 0.1822423652910728, -0.012071429200207992, -0.7922670264216077, -0.11104605846820793, -0.36423912175058787, -0.38901304060805286, -0.1514171935102616, -0.6808809778753478, 0.0005637734870061235, -0.3307931878240207, -0.45633336494715154, 0.07166905361532991, -1.2661999632287413, -0.6543061641431008, 0.028172625376729196, -2.25515348549498, 1.2917999866087693, -0.16942725668357264, -0.8984449261596603, -1.4593104415623912, 0.9673880527158502, 0.19573814597205874, 0.6649829782227319, 0.7125346773634046, -0.1482479650730303, 0.5974539823998356, 0.7294782563635033, -0.04139872104385938, 1.222414198830168, -1.1479124820256401, 0.12890112543202492, -0.392339519047269, 0.27159423694377777, 0.04218611328812374, -0.18186852888900706, 0.3707432696793521, 1.0513592908388687, -2.3859998701327174, 0.15972504364953563, -0.9157872506787004, 0.7199719418914889, -0.9157470048866451, 1.683705913389723, -1.6773666847704438, -1.0434815863078652, -0.047240871016457874, 0.6660230901040994, 0.3840548368848505, -0.6256080446955503, 1.0631770807799035, 2.2252227254505446, 0.13423631643509465, -0.5485762231405911, 0.9926431341787675, -0.6209016801218467, -2.023131937778001, 0.2613587304538847, -0.06789538813997176, 0.3901947786308642, 0.8881084544190558, -0.3136450888595949, -2.6165829929024347, -0.2079330298935182, -1.1284956007484053, 0.02510683048688766, 1.569033989223702, -0.19891030389093867, 0.28150242532263164, -1.0597831963422104, 1.4637718106561755, -1.8810228498982582, -1.4891593544989332, 1.0168801219789467, -0.9404674043613716, -1.0134645209036528, -0.1558149774610151, -1.3161818074253961, -0.7260808271111582, -1.0710367367831248, -0.2810423620536554, -1.7268291442608517, -0.4304578190228706, 0.023952866666197264, -0.32716215917474184, -1.778544071215033, 0.7509261543638235, 1.1488872447684229, 0.10040083252909357, -0.17130355188286214, 1.0167938899782691, 0.6606401491683931, -0.9491136143659222, -0.009054526800014458, -1.0078671838408206, 2.636229194490519, -0.6713151209747539, 0.20818247497794895, -1.3069639414702499, -0.7371408728013746, 0.14235278679336222, -1.1902695355531083, 0.42569740839310727, 1.6141497929501691, -1.5445771509573762, 1.1759968914135976, -0.21706435933568688, -0.08335740092307799, -0.03360634819687842, -0.12303022820972345, -0.386225139807368, -0.9690900547468938, 0.5588422446594539, 1.6854933355742812, -0.08676196707101515, 1.2348115885585431, 0.24017143997127563, -0.25337574256738804, -0.3304277125333083, 0.205399620524499, -0.6929519353163542, 0.051341408127002226, 0.01157733199116975, -0.018367422322668362, 0.9371175245696557, -1.1137400913371223, 0.5758464444308123, 0.7610187311620209, 1.642124009723945, 1.6470516952841237, -1.4870787123512055, 0.7798252097859301, 0.18381595786444, -1.955849770040859, 0.5608502303836262, -0.01195942957569609, -0.2422044187339787, -0.18598208531198354, 0.4653385969074528, -2.4872593994511796, -0.6102320140160439, 0.7112677748315265, -0.14933545947018972, 0.7046317168426591, -0.8160147617199035, -0.048296877392082355, -0.38263013780018845, -1.0103315862251234, 2.0232931540054624, -0.02848092983327157, 0.46573354844121706, -0.23419573417258988, -0.35065219558614535, -0.22131501919764474, -0.3176039067865907, -0.16438777455517126, 1.522950131886587, -2.2150345517604677, -0.2139911115316467, 0.43734990106187943, -0.1747813946189677, 0.022128151668732478, -0.7229296038107547, 1.2539255131643294, -0.5549862082067296, -0.3672712515839305, 1.8671772818445382, 0.5514552335513047, -0.4277629555881075, 0.2960707669962474, -0.11554361043151731, 0.019863288146806574, -0.34799135794185004, -0.06512516293247343, -0.29279370613920225, 1.584734857491573, -0.07473266928709986, 0.002360010008308361, -0.7965521749179677, -1.3989776935414324, -0.9093455806029752, 0.20088399794672998, -1.5234485241428017, -1.4626259760390632, 0.02142311372671834, 0.8412230058128952, 0.3328654414365777, 1.6331431131761907, 1.3426996480990652, 0.4611030193484973, 0.7725412680151384, -0.595208033025711, 0.15232190777573593, -0.117604761086424, 0.7668232617153036, -1.1153115744479054, -1.3595805857824836, -0.08059991896226769, -0.827543958899801, -1.0562297225547774, -0.8478787782167587, 0.9278217800786025, 0.4733166674498683, -0.29939413011821936, 0.789585197616189, 0.28220374859323466, -0.2901328107528918, -0.1335234217513912, 1.1573585917686873, -1.9378865658668616, -0.07954547669966575, -1.0544819296689245, 0.23167882111800583, 0.956139717664558, 2.1397539963894605, -1.2018703933362698, -2.8173169805997063, 0.8041069376325137, -0.08250919716510899, 1.9879593061206797, 1.0470960998618626, -0.33157430333133125, -0.48493884301439977, -1.0743541997152362, -0.5998131440789308, -1.1140598481706168, 0.6369868331761517, 0.775177292986345, -0.5151350053324191, -0.4042810088892622, 0.22510501019502854, -0.27655168258366525, -1.277287457819312, -0.049398812912677684, -0.0734151156290374, 0.4528809350111954, 0.32878199205240893, -1.5334703800585985, 0.7552379058996918, -1.2968129758192044, -0.21372369541699396, -0.6857613793093058, -0.2882326725476337, -0.32373582893584085, 0.9984769974054069, -1.4332930790057814, 1.2352680110975705, -0.25860923584720547, 0.14885905231636226, 1.2468452187927346, 0.32886032908661633, -0.4125865165858409, -0.5155645931599939, 0.16697203353610665, -0.1177880976476559, 0.8833964700233942, -0.7163273963345405, 0.3329565184908337, 1.4855277549702317, 0.43768307008019885, -0.4997538356960172, -0.025877614892654905, -0.12195347698767131, 0.7600216395063432, 0.4006236261820331, 2.69543107375443, -0.8875139017102549, 0.4664665994510551, 0.1938946468709504, -1.6902803462983331, -0.9494607467899315, 0.08615458432407132, -0.11166567217819577, -0.28962313628196085, 0.2565683115445449, -0.6838243861402065, -1.7191176602473819, 0.1792651569449834, -0.34665729739927903, 0.5507138576813768, 0.6277411326005702, -1.10265018091778, 1.4197252346700124, 0.0956688066367551, 0.18819297851822747, -0.7180245956836189, 0.9921846358688654, -0.3080747261777742, -2.1330193974452074, -0.6390039725646804, 0.45460314794638584, 0.8886722362452621, 0.10267289215881657, 0.07453433290132394, -0.09932530547550267, -0.7110811604999335, 0.6105626167646021, 1.0559469745157342, -1.0665923513949265, -0.9772681684866809, -2.243351854338747, -0.4589209330594001, -0.6183496016505531, 0.8876151491468212, -0.9549203626385951, -1.2273229178786667, -1.1715956450856693, -0.4456685855099274, 1.9156074324678551, 0.11946899458944378, 0.30274082526434815, -0.3630904200983777, 1.8257649300034846, -1.3935612481819852, -1.881946249540962, 0.8438296995479885, 0.5719638696240963, -0.9443513872596618, 0.499699098439841, 0.9929164432418094, -0.21909808051338617, 1.8739658292952763, 1.6985354486869666, 1.3358056550405335, 2.3682027748118974, -0.9187614541981871, -1.0855563749469768, 2.4768865289657787, 0.11081799384486062, 0.8846590563053737, -1.4396523326879225, -0.2533092458448239, -0.8269005485486844, 1.5264409970638808, -1.1314426227878465, -1.3420186048167728, 0.5485523334599055, 0.29056049324959915, 0.6091431138753648, 1.5461742914178565, 0.8924443316744958, -0.9185419791907912, 2.173710123342674, 1.2158028356596509, 0.7437434375312754, 0.4105442948513726, -0.8585329403258214, -0.9166295641802781, 2.0632452928506404, 0.4991038401444655, -1.1710838019134802, -0.0259416846875882, -1.8568036715309342, -2.0944381021457645, 0.23900730010250867, -0.5278141484006782, 1.3948936663030904, -0.6136636233782746, 0.9611070925270915, -0.6108174591660672, -0.3637670604169635, 0.745915356814893, -0.985235473637703, -0.15978469749205565, -0.18650449677431205, -2.7318838191289396, -0.6853138907494823, 0.28571687992474165, -0.8109955244209721, -0.16826450545174793, -0.7902009153566586, 0.595881254595235, 2.4605606226280505, -0.021565392867076073, -0.7767102929012384, 0.07558274672434198, 1.3124442439492428, 0.8517300480784072, -1.0349580124985773, -0.48761437134560354, -0.6470670628217909, -0.28952954002799963, 0.6068094866548774, -0.19509280840560134, -1.0125945918830446, -0.5754227242072926, -0.3523269916807524, -1.5354313901574808, -2.4923872307011607, 1.332931225468367, 0.16824528683449774, -0.7607528194457793, -0.32918660795374716, -0.47425456374244207, -0.40372178204597825, -0.8428549783309625, -1.5860514787958515, 0.2194281951373169, -0.03682909860228846, -1.1286877848317314, 0.1177684291003955, -0.6557285758892387, 1.636580087754929, 1.124196753626219, -1.3615234493086426, 1.0638658452432295, 0.7531955026407012, -0.2275810143834451, -0.38461673107489663, 0.3805737425971883, 1.3091545237912563, 0.6228747132261603, -0.9202429590377383, 0.34685273340979617, -1.292118387645242, 1.5013887011965832, 0.6392964086068458, 0.1347586159113794, 0.6066492102513489, -0.217249217480831, 0.8624156673082691, 0.23500195540731034, -0.21231784759015743, 0.20205338797650138, -0.5871177898135692, 0.9415467499415586, -0.8108114315709269, 1.096573644172275, 1.0472320790409333, 0.2031534701508681, 0.3694118941283142, 1.2246678845343395, 0.2404321284590245, -1.3443282291074055, 0.190509085685227, 1.0610945062220274, 1.8256347654686524, -0.3504136373308199, -0.17693930689495002, -1.3650332508724576, 0.4350298748072461, -1.675885533603431, -0.38372563653881586, 0.21014913676380695, 2.341289144818001, -0.21037571895850532, 1.06333651519332, -2.072471390457798, 0.23623095071425204, 0.3617745598133759, -1.100087910159222, -0.7704624282288453, 1.5153196914748417, -0.9034992683903732, 0.9065032991560451, -0.40605228838993873, -0.7098358055318679, -0.02235397047583783, 0.031120306692254168, -1.890561762497397, -0.0735309899316166, -0.2469732982376534, 1.176358271627416, -1.3696540923720655, 0.1296933163088232, 0.7270219345294713, -1.1244701935232368, -0.7848900705943606, -0.5614865858425434, -1.5783888852592607, -2.161895325855106, -0.7586235793011014, 0.4764651485598535, 0.4286187622200388, 1.5253893671275096, 0.21115286115645138, -2.1540187770436527, 1.6848729121294541, -0.16048431038292776, -1.7783432138273079, -0.4278246210141596, 0.15369932242530782, -0.7787008526430459, -0.5193269365012734, -2.0121001832737226, 0.642977980427112, -0.030395129324317847, 0.9738819277136666, 1.484982520586329, -1.387522567458213, 0.9267354699976568, -0.688150008134016, 0.8523118899108542, 0.37158360887257036, -0.573853346423778, 0.6344618395982942, -1.2385381384176442, -0.09155023182558396, -0.30975552680871193, -0.1853610379634492, 0.027744628223638993, 1.279212162521843, -0.2923202771333059, 0.4519734667322079, -0.18699135670471564, 1.2903761796086683, 0.13662396750652545, -1.4657680117890488, -0.9922641374730934, -2.7827709510750447, -1.2887771019886707, -0.29486775198678045, 0.6221422287158973, 1.4305349937655234, -1.0078900066120513, 1.1318780081447497, 0.5237729369033023, 0.5284397925569967, -1.1396322074997665, 0.6938632595858724, 1.686815266375087, -0.3904391564481818, 0.5682869631665312, -1.6629482904484256, -2.2228676947795445, 0.16804684882102466, 1.4317930736967983, -0.7603934459204967, -0.3669331122749088, 1.3346574052775693, 2.7703460751544964, -0.09197706827082007, 2.332074176293111, 0.6100938379432017, -1.5415734760275057, -2.311561858829347, 0.38553911785170564, 1.0878184035323304, 1.8106820167678004, 0.17491251745064318, -0.6183993763448364, -0.7165188505510348, 0.3866718058103738, -0.8494715044426923, -0.4844792466715502, -0.12763124850812727, -0.05459382634149148, -1.0345997808382086, -0.06179939948750121, -1.0447997756562553, -1.4443177781899557, -0.28252752297180067, 0.4875989380977418, 0.9259532874523138, 0.14329527900284342, 0.824188550357997, 0.6665288993743582, 0.5568038436656146, -0.0620015013237772, 0.025854847517663135, -0.6291550466797178, -1.0166294039240926, -1.063849206554293, -0.8220615078672499, -1.613168367767411, 0.9290781727732104, -0.46470689360263046, -1.5184540010400795, 0.2876357620176361, -1.0073896324914355, -0.17544784879256398, -2.1243115100579133, -0.32569651165909735, -1.0583654215591354, -0.5866990176997837, 0.5659870558025526, 0.79413128179441, -0.39734310047332, -1.1706913526047598, -0.4011884226199997, 0.8439212984808672, 1.0842233500226839, -0.0070980137951998385, 0.028780982707926655, 1.3329573352907116, 1.3631262408226212, -0.7226260834657371, -0.3972090682943486, -0.06830573389086032, -1.1565540610118021, 0.0009853573910855772, -0.9895815825043496, -0.3739590088250414, 0.8584508332140899, -1.4017333405573307, 0.7312111782970661, 0.348974666090001, 0.5992440844710222, -0.3770146450390965, 0.4283720334819831, -0.29347052158266723, -0.05943114967766774, 1.1800495579942827, 0.8856533527116093, 0.6602479759060177, 0.520126297308119, 0.21361779246630885, -0.2569350492819135, 1.4178286290175288, 0.10909957800574123, 1.3194296470513363, 0.9401369282174358, 0.5880323840378018, 0.9604859455122987, 1.0467547739146579, -1.382408162810411, -0.024060235010094213, -0.9742056123789747, 0.9068968560454506, -0.8779117789903889, 0.05237228885502282, 1.4238928241697009, 1.0741474196881176, -0.4173144778957894, -0.8601119081734098, -0.2809550600146153, 0.2645923858354903, -0.9699254206000416, -0.2740823729675026, 0.08065757373302662, 1.0727397240737735, -0.4316427724843133, 0.35170592704729586, -1.0824556706256148, 0.5764511584571297, 0.6421088000265732, 0.8535269562914051, 1.2762983151706122, -0.020462157720434766, 0.5097159291932187, 0.6523326981329143, 1.2414516736047525, -1.166815497377848, 0.33672947005016457, 0.2763081926953934, -1.0604708304447699, -1.2986577053159176, 0.35353779553262216, 0.1374083772663827, -1.3168048295645243, -0.7824972178134225, 0.43313134366708483, 0.7103092906269312, 1.3286319287750077, -0.11404976018180472, 1.6121474074407596, 1.5345899912118284, -1.9685098745123033, 1.059134973175517, 1.033229014003774, 0.496212215725168, 0.32848918920242903, -0.48888550876890446, 0.7522235689841001, 0.7040886399250217, -0.5060319174555535, -0.6131839170633411, -1.528820041359289, 0.3589885037426015, 0.5967452785303877, 0.48359392603999873, -2.03102234890134, 0.4115351795055771, -1.017881636766663, -0.9948761298667791, -0.16120855961160993, 1.1790773136186052, -0.28980068359438904, -1.1336678942216742, -1.356694466871309, 0.628401437565635, -0.5352195509762888, 0.2919550855939483, 0.3111244336621971, 0.05655394475857267, 1.749927593333864, -0.35211353950108065, -0.514876484234315, 0.1541749955241593, 1.571927588132092, -0.7400306943950189, 0.7638358751833777, -0.36339494555595403, 1.2907067013726903, -0.13800442371407723, 0.03896236146930626, -0.06885334862612236, 0.06850314233233187, 1.9109198952786535, 0.9562222858370051, -1.7354313440695601, -0.8292127410099895, -0.37870178340031874, -0.5847974738597458, -0.21005288078565768, 0.3539384821531977, 1.2658620588687055, 1.5037262540833252, -1.1512473639601557, -1.9374156623750747, 0.45405226504368024, 0.24422758218482193, -0.1997803176806587, -0.339306669908851, -0.788801189685402, -1.664052860274273, -0.6368732776859564, 1.7978419863274457, -0.34326723457870845, 0.8518750655687513, 0.6088457625871104, 2.044715172262097, 0.6123950039837728, -0.28957066665433545, 0.6776787551779787, 0.02520517614233972, -0.7599658642981647, -0.8476196143848406, -1.025638267901561, 0.7063956901473671, 0.29476128070536856, 0.49202019633115085, -0.7101992575480105, 0.8576650248982106], [-0.6066118541088755, 0.8229582405326277, -0.7079231299781439, -0.19549947439144982, -1.4023877849203177, -1.103937517436939, -0.3659690765390011, -1.4145486320854745, -0.5764576385490235, 0.15371786066694004, 0.27513366111180565, 1.5766352473439058, 1.8107806504818855, 0.6751087562259, 0.817977157107393, 0.9151908668100105, -0.31727887465867044, -0.6294698115028194, -1.8069082811337929, -0.7405556470396133, -0.7630501168034226, -2.489489469864636, -0.13936977653311608, 0.47055326619961174, 1.1173924265307127, -1.2566091332305367, -0.09760537100165348, 1.0182637097712588, 0.8356217829393037, -0.20122905831810287, 0.33794655135798624, -0.3796306318963166, -1.1488199269356238, 0.12531659856037194, -0.3254711692521862, 0.12065318406065777, -0.05335987486156462, 1.28656568527419, 1.6841253253749429, -1.6134706302463675, 0.28595218671359246, -0.5851672595919121, 1.16113303448938, -0.17605121809365779, 0.780068801796179, -0.2380195889747962, 0.07407253281239444, -0.4870147575962904, 1.2404926455386962, 0.9929128922720728, -1.0192131553761303, 0.27572726369307593, 0.6989941362757958, 1.4547624554991627, 0.3871582588627019, -2.120338103245468, 1.3455541189656137, -1.0848060444738616, -1.2060006810541684, -1.0130860192379971, -0.04146359740552978, -1.5972021061618213, 0.14686518853569996, 0.9296127652231828, 0.28590048048434724, -0.5484371537307305, 0.5088913383650077, -0.659821353083923, -0.7325469225549996, -0.34727362697500835, 0.5799948290858634, -0.1969171581601572, 0.22772549577630685, 0.6891423665550521, -0.1885744144679536, 0.3875220437747882, 1.510484627321267, 1.4341201338830383, 0.5328492078797745, 1.9408681581336433, 0.6749819107445477, -0.38868172716992727, 1.5434300554327252, -1.5312434813203666, -0.5223932960719498, 0.3810857497770785, -0.7691000572134982, -1.1013538504445892, 0.08479104074475902, 0.050254743831571226, -1.639261314980327, 1.4865780084071447, -0.32358017785856047, -0.4910315961530185, 1.2266396338271741, 0.33042398507177745, 0.9006180636779906, 0.17888279301897655, -0.35916165306962505, 1.7136792415398838, -1.7674996610454292, 0.7988954493082793, 0.26098868868897895, 0.5581876732263564, -1.0001404224008137, -1.004680330015595, -1.445158022949982, 0.5358340595934866, -0.8283373765093464, -0.49226306934593267, 1.9154283305439241, -1.3707137404216, 0.5518398357140599, 0.23979723770570022, 0.9331801400202858, 0.9888794636087914, -0.28638786713407405, -0.7880336108681644, 0.028076252799269393, -2.635519750539908, -0.38349629187453854, 0.6559481848722248, 0.4437568768642029, 0.35673748004147915, -1.7992388588361714, -1.014545048744281, -0.9171239166506484, 1.8616821564244201, 2.8604620684012243, 0.09145108861882587, -1.1485697591739128, 0.05277066315870605, -0.6885706847183055, -0.4186491174071548, -0.0027094872047378066, 1.25001609962505, -1.189063714979406, 0.7969097009744613, -1.6725855869720292, 0.5125130323257104, -0.1382983913052966, 0.07314248875754543, 0.5504674799317792, -2.0562272326998436, 1.4497355614102432, 0.7451506720549567, -1.2012673761343085, -1.2755928240239585, 1.344767181265974, -0.5204767937909364, 0.4403615930822886, -1.2282268655594926, 0.08879998675365224, -0.8145694860800167, -1.0652629532274165, -0.15985609347552307, -0.4165764196157256, 0.4389820358854231, 0.02559226664521139, -1.7340012853613875, -0.13149856238554378, -0.09214037375171037, -1.2931835093477912, 0.652079263272336, 0.04651984102244685, -0.2479309901519893, 0.23452595168188636, 0.014201823994203167, -0.16384414489605723, 0.004638913474456805, -0.3748027352742966, 2.471134908663627, -1.236096999462523, -0.9586426602133089, -0.6382624325720674, -0.5849502760375254, 1.0375106047432279, 0.36244720099454497, 0.29306785776611827, -0.27444483414811705, -0.969593241876382, -0.9662655971156558, 0.47482573753044904, -0.9916708888886483, -0.6306064470258507, 1.079642502333263, -0.5234157662399294, 0.05382843226673687, 1.6428477682005003, 0.5693086804541677, 0.1761712356886848, -0.7400457098531635, 1.0789496653547945, -1.0116725368083619, 2.2390839027635034, -0.851748617195999, 1.6426178868030017, 0.8044485657015805, 1.2052325355692137, -0.20048854964887608, -2.1956616176290975, 0.6309861384114176, 1.3995361155729404, -0.43025923081006134, 0.2982234921890562, -1.2762316736475618, -0.16385070292943177, -0.5103404184330638, 0.5088334657656659, -0.7912761061948309, -1.0207664799435967, -0.06935070705477711, 2.3880094788271022, -1.4751297478505563, -1.1003601748129408, -0.7155712060204347, -0.9364581232491143, 0.2545899709960414, -0.361603567116765, -0.15118755708028933, 0.3609765615065922, 0.6177805028881835, 0.17071967738772134, -2.484401261965702, -1.1773676447045895, 0.28383652741774207, -1.5115907621093156, -0.03930516490478126, 1.0127970479203299, 0.14831841889500305, -1.4366296544667314, -0.7985741253746524, 0.10786688258862093, -0.17181382473865303, -0.5434143330090829, 0.12991075015005843, -0.49373505731960393, -1.4907539904773268, 0.16768479881113355, 0.3846693972956934, -1.5926540127644417, -0.09007577685005322, 0.6248354061495252, -1.0203933600890398, 2.187145763792798, 0.4537836749398276, 0.08953027610191674, -1.2190280748299147, -0.3041522773603655, 1.0011317166669087, 0.5017688292289068, 0.5093283046289387, -0.5850820995557159, 1.9409251183130702, -1.5965342261722595, 0.09214928521409003, -0.7864150506239042, 0.9758813951900686, -0.33241709270914493, 1.0864777011934335, -0.3679399796129076, -0.036074701486908944, 1.1285057800581169, 0.8933536131213667, 0.20519154850208218, -0.1766061081412777, -0.6157270205372457, -2.449361243961692, 0.5774158366694271, 0.8484896254362876, -0.36948406742602846, -0.9286450278927297, -0.5668931100793368, 0.984109911852155, 1.035525802602623, 0.7641637542522868, -0.04160112784949449, -0.399155265394015, -1.0841460994228724, -0.9881313861373705, 1.10907089112303, -1.0220686006068864, 1.127425277435639, -0.19559418263031167, 1.241680777099308, -0.3862158360351445, 0.5407770154717753, 1.1231336201011426, 0.8228485997113179, 0.29016204724436623, -0.20259708008917202, 1.0282434725211842, -0.16236334929110247, -0.17310158594144076, -0.243960107122768, 0.8241806154885403, -1.8378633266545836, -0.8028854090789603, -0.31291601517661366, -0.35795814503001333, 0.6239848095463009, -1.329463022289509, 0.6544028635633503, -0.4984159174088372, -1.1087375064890843, -0.14779218809214428, -1.2832213806167667, 1.62725335009269, -0.8816927313955806, 0.3340091693290461, 1.2317137155539541, -0.7400133941493724, -0.8428039004645803, -0.9931447404320949, 0.265337032774388, 1.5465134981805388, -0.879712159435304, -0.21625547703547726, -0.042767747595115604, 1.5596110218448471, 1.2900868615421588, -0.30799846370386136, -0.9251949283248614, 0.7425240850095788, 2.0302938685620444, -0.18900768666031087, 0.004705267847117973, 0.26757098027546394, 0.6311282961174665, 1.4122738695106654, 1.2136893897889418, 0.3869549449032712, -0.9227953948581485, -0.7620653989484643, 0.12923816365519525, -0.19710170540432034, -0.45156111683786104, -0.13774424509074235, -0.46342370222172125, -1.8856215507751852, 2.401304124507312, 0.7766071513539888, 1.3083703452477673, -0.027218301024578336, 0.0320458169029909, 1.8554552690236767, 0.6749459422720391, -1.0646994364107671, 0.4151932100747497, -0.960238460793383, -0.8463229348071507, -1.0058374429738965, -0.20150198430353322, -0.6667377651687989, -0.34048812957985647, -0.7292895050450665, 2.3891207149392923, 2.5898570150318023, -1.4841252196431, -0.8995551497054066, 1.0175112487007745, 0.2480253576975642, 0.6969638366953936, 0.5886994872881536, -0.6540041745707955, -0.48864110703856317, -1.8934174322488975, -0.8346203144138841, 1.2971845756675628, 0.4860133437141689, -3.0809035444775192, -0.8801015704649966, 2.1593100905118643, -1.282647726028373, 0.6526284553880289, -0.5221725167110685, -0.10115130832529114, -0.8918693339945927, -0.07051302772188993, 1.1153164243258866, 0.34329810381550796, 0.6392134070840084, -0.9385634970726193, -0.24511187661625972, -0.24055128320427327, 0.6263809729871088, 0.7754803403765033, -0.15173510045538902, 0.089755511927529, -0.37823873559286836, 1.5789548399042217, 0.22251117930969877, 1.003467306745987, 1.0500315336862793, -0.7174602169369696, 1.9943535539868402, 0.8801237726513813, 2.991341252384118, -0.24376524377567796, 1.4280248392148356, 0.5916502983239563, 0.17752374321854758, -1.1523584809232084, 1.23036029011186, 1.1008546976034155, -0.3609355109200229, -2.0658450630059955, -0.5426437538462637, 0.1898866116678145, -0.1626799915076324, -0.1739347160370981, 0.10584291498468149, 0.38262442196369156, 0.12024424978597016, -1.8433554992358607, -1.376000380862054, -0.9779483944595928, -0.8824570212196147, -0.6062272717200536, -0.17715368442741003, -2.4636320735539456, -0.8340611849586507, 0.12288415377272191, 1.1830337643554591, 0.6899031598800787, -1.1272123473266484, 0.13150017730952052, -0.5490958408206746, 0.47203395330691506, 1.3509802710787777, 1.867739531458059, 1.0570208385220683, -1.0168431182988193, 0.9041787819497592, 0.979889880320073, -1.1383965239512936, 0.7816351227165768, -1.3977749774131953, 0.07698227764899268, -0.6386529812848268, -0.4459534127620349, 0.49827697204362015, 0.511355600172829, 0.15902358240424178, 0.5083513117067452, -0.9032519146382435, 1.0339922780198059, 0.20544614373422934, 1.1283245884827715, -0.9686600018686994, -0.3556203723395009, 0.9583714479666542, 1.2588507879076933, 0.6452762259048571, 0.4774306756426708, 0.4415975185001357, 0.5105556766505913, -1.301222672240628, -0.6643542850063073, -2.0300395762614607, -0.9882993590698651, -1.109814520446455, -0.2577279117870991, -1.587298937764053, -2.002130449501866, -0.9538001811144681, 0.477425482154044, -0.3294617328775757, 0.35069273538603773, 0.31121184163656646, -0.26068171763237163, -2.18872316061577, -2.147244051537957, 0.29616381889151794, -0.37714310621940317, -0.12253267034557697, 0.42184168922654486, -0.2400051265355341, -0.38769014655243117, -0.06822891157581511, 0.7619636077955811, -0.10614474479516148, -1.3066651314985431, -1.1379219294912317, -1.0391135485201952, 0.891341145779555, -0.1361925967003253, -0.04515044471863719, 1.1772675868520548, -0.5673610103960404, -0.81481331121834, 0.1839191105747497, -0.2313390298892055, -1.3330910941232583, 1.5489821198453373, 0.5431089906250078, -0.11283082654575069, -1.2354538283948455, 1.2191287635622696, -0.22593021983068412, 0.5387725527522954, 0.015340611084093325, -1.757911788775631, -0.2543204402317846, -0.6383072526767364, -0.019579900553223017, -0.8836410386948288, 0.03361074233672504, 0.4710163687150218, 0.8264484468555391, -1.2724814996666602, -1.0216869794757841, -0.975933131602837, -0.791972399668831, 0.9207515089562847, -2.129147690876727, 0.41310638717542847, -1.781595906470724, -0.5501493663196431, -0.3183922340628353, -0.682154600866593, -2.1688640550986054, 0.48206802757695394, -0.30128960933570004, 0.9320184384678439, -0.8771460414368212, 1.5652958041632399, 1.1970793826314476, 1.5764081472224731, 1.5169426654609501, 0.9634538513344824, -0.1820964691990098, -0.5828038367284228, -0.01326355773849896, -0.9700163646136691, 0.1626033248075021, -0.9551143046203302, 0.9090239948432627, -0.6483296976144524, 0.041880583170671, -0.25503496983683066, -1.7916129825992386, 0.1955801697736043, 1.3797099731754134, 0.8475468768704107, -1.25332879813282, -0.4141842099333255, 0.8030863574806869, 0.3094780177629868, -0.4659071520477098, -0.7713740033598742, 0.29979570957877366, 0.674553726926996, -1.0923399153021562, -0.5388449560681267, -1.0864585297819316, -0.7263491360265338, 0.12125985680385397, -0.5504385633798893, -1.0492605710515797, 0.5046157706384552, 0.44070106226686184, 0.1680714087585756, -0.7435146242365448, -0.5962620683541958, 0.18344167441214404, -0.5970426751961115, -0.7961036030581065, -0.4437139452681604, -1.8533859045760563, -1.1787695876458495, 0.7079138301769691, -0.3583140012705692, 0.14748510755189223, 1.2671629299026932, -1.541381068063319, -0.4040079147260559, -0.5608011961789526, -0.5274412916023485, 0.14487208634019264, -0.4356492761499343, 0.07795044264745968, 1.9247262187512264, -2.6693553285561573, -0.5486631216371353, 1.5870735325930772, -1.8151587753926153, -1.406638574731472, -0.29654416921197163, 0.579056536741895, 0.03846422737175059, -1.524669376718271, 1.2338474115390574, -2.2309589758785906, 1.8963204564826575, -0.2002341149676934, 1.0637048253868586, 0.5325724096019909, 1.9531787801949332, -0.8581425182004707, -1.1951361905173383, 0.8120713484215833, -0.8810482667891583, -0.5561821672128724, -0.6086998649249716, -0.5995382405537835, -0.14443809264785606, -0.9216818713498958, 1.2180870287514047, 1.7070026485449339, 0.5298837906475085, 0.18931899759901566, 0.8077105293134742, 0.056692546352893954, -0.8795173489963674, -0.8080360833560666, -0.9335219848656193, 0.31244991818270934, -0.6777254206364256, 0.5247849899903523, -1.9977858078433697, 0.935927804807402, -0.2177573071191828, -0.7406608021153952, -0.2038149855355893, 0.5409106915696171, -1.1781049288260819, -0.5494864390525446, -0.8820619167477618, -1.3021158509586817, 1.8265875797516664, 0.0410892720563442, -0.08079340377885035, -0.1404421187088717, 0.5297997392570643, 0.27861629183558745, -0.007399557471487412, 0.5805459762001539, -1.1205514254912579, 0.08242733684563391, -1.8799343998798483, 1.7928139454535772, -0.30578768827820535, -0.6745237942165033, 1.5085056136410213, -1.1291080523570771, 0.7642477445813919, -1.7939191384424873, -0.8920198544618054, -0.23578760671223264, 0.41142934489947375, -0.3116515249847796, -0.1542997931083416, -1.3622450259229806, 0.26630530718412915, -1.5175320162435293, -0.46918351889873056, -0.3885786309539877, 0.420305945639204, 0.17054407500001667, -0.5567215972824042, -0.09345916900219685, -1.0091649791269162, 1.6767465468173757, -1.3877069978875851, 2.430356300268363, -0.48158888416073914, -0.6559493816054145, -1.1563607318253544, -1.116785639865701, -0.33441820149779733, -0.37800227854816854, 1.2335038202256992, 0.18285821135837396, 0.4143865425237742, 0.4108510821711247, -0.1728568822667518, -0.7223525639206022, -0.6164534100965461, -1.4421178933771357, -0.037834227104318954, 0.9199262029015101, -0.19784693363524775, -0.6910148419016896, -0.3436981225098749, 0.27988201701730137, 0.053519539249681676, -0.6082774810156517, -0.598089406407763, 1.9661182860257305, 1.9990594325670519, -0.23090326470437386, -0.003969802000465699, -0.11722696257096538, -0.5271664765976481, -1.056708896773938, -0.8184734657053747, 0.2967915266383046, 0.8432408676683545, -0.11992279577722496, 0.6647163289308549, -0.7935753495085643, 0.3271155513051537, -0.436800267846933, 1.0154055578069334, 0.45904729156969454, -0.2656094744851272, 0.5508582032097462, 0.07188180302315247, -1.431036172265258, -0.3059555461832657, -0.7348426322001536, 1.1223386464706742, -0.5203467696026576, -0.36719519947831436, 0.0029148224110495335, -1.9653129940711973, -0.9726107470370039, 1.6129397285022669, 1.210704330678775, 0.400538088270124, -0.15207325298418606, -0.21823761324795787, 0.1841700531875071, 0.17640148126273317, 0.7156339571066561, 0.0880682682674476, -0.742545827955838, 0.45740303525280296, -2.3265759256335152, -0.5974932630147131, -0.11729141977112892, -0.05093618119968634, -1.3618773992407178, 1.4995279544557205, -0.8494812429718425, 0.49412648254569613, -1.0987150794981428, -1.0443011690164696, 1.2906355163667176, 0.6120076282516163, 0.2660014932938334, 0.9218882342150199, -0.6693932370403793, -1.3607899970648878, 1.4074132456275137, -0.7327673537757274, -0.016802847034347698, -0.2839975980882382, 1.3892209130062527, -0.2930617778242592, 0.3341628693324562, -0.3226269657209953, 0.33264758689761686, 0.9800825508318186, 0.8095330646337777, 1.5958401222937664, 0.7505058576206765, -0.46534411381141677, -0.6847083473535692, 2.918237731344036, 1.5214773008637659, -0.36898832698032824, 0.53845658342843, -0.5223809170803762, 0.7488828827502343, 1.5958566720886966, -0.09555812162084645, -0.3352873902297346, 0.5279843721259275, -1.2597577238007855, 2.004227666769626, 2.8636956564552465, -0.5736624606726577, 0.6415235580840347, 0.17197513066325376, 0.41121628024448686, 1.192883268879686, 0.8482261014632079, 0.8861580409216012, 1.366860930570826, 0.9149022857401782, 0.5799126478864249, -1.3288285135913174], [-1.3258562030070176, 0.9106157812403225, -0.11323589807730708, 0.2528240615751642, -1.6755383511389166, 0.46228133405955435, 0.3449135409541059, 1.0401217223304493, 1.6223903976605243, 0.7466428479521984, -0.059737873898792405, -0.2603837836678915, 0.7818574458220416, -0.6901424226563748, 0.04224227889038844, -0.3279842331272435, 1.794027855908195, 0.9768145443834982, 0.6702527288258194, 0.6662159407853633, -0.014973941415919047, -1.4489828683905013, 0.3345047066174399, -0.8112270387782956, -0.2720316529290367, -0.9078393346809901, 0.2269106170507998, -1.5082435220762098, 0.0727163054994844, 0.5960290241072245, -1.5021154878972556, -0.1734485797524905, -0.4857836144027738, 0.3473961288822777, 0.6716155192726552, 0.7710047408065609, -0.3316145306422568, 1.6522295871251544, 0.11521457646141758, -0.22621458197051575, 0.7361365862365774, -0.1517403809992011, 0.07941972127529455, 0.21425057070963002, 2.036162394693154, 0.01674059917121733, 0.5506852075409158, 0.3473030408960667, 1.4598729991158952, 0.20921331460912965, 0.3091668774750478, 0.7572483172474945, 0.38465901402787145, 1.411850705921884, 1.3150903605815472, -0.16551306891219753, 0.05740545249386957, -1.20508191312503, -1.6698603946502326, -0.5690201110984697, -0.39144098339935124, -0.22931783001607173, 2.1565743654620295, -0.2155441002588817, 0.13934449022537326, -1.3177545108447914, 2.2488968028521628, 1.265034808511635, -0.04409101808398285, -1.1523359829029596, 1.363120358433183, 0.9314145475197971, 1.376436287345023, -1.0220479910667535, -0.030733545120109257, -0.48085443877408435, 0.47984310352469806, -0.27025428354951303, -0.9190236348999414, 1.0518317693510704, -0.8800433981814916, 0.5185484145345444, -0.7550014083575166, -0.08345729267443516, -0.7642445078262284, 1.2037677682124328, -0.08078198659163534, -0.6392672705408693, 0.27977155069198284, 0.9708174816660732, 0.12875247234239473, 0.05865606273959845, 0.7079447939707929, 0.4018862672465399, 1.425800312568737, -0.41984592306593066, -0.49603423556146453, 0.22321840822464858, -0.12196093868357587, -0.3039937235945337, 0.8404089527763305, 0.39034579189289187, 0.6210460671007022, 0.9607616668856339, 0.0470942925105767, -0.17142039979013496, -1.0860653114642662, 0.24398117152839807, -1.5782917178290723, 0.833908467168162, 0.009730055762795838, 2.0393385043539856, 0.26000570653724697, -1.1395071482950727, 0.9964092720717732, 0.6794208411527943, -0.6845346500670699, -1.3702622370059199, 0.28198573292828927, 0.07179363061530467, 0.6047658274982333, 1.1374956834813637, 0.26386838596152457, 1.8833099747132438, -1.4418131878108675, 0.06345856616469568, 0.9193326713246653, 1.6253352120255158, -0.4630609417461277, -0.1402155255253812, -1.1212534394377174, -1.2339742425620808, -1.394926550670084, -0.9116841168124102, -0.22482002699354683, 1.1593914630551223, 0.5614774298780129, -0.8839283786942056, -0.10289856149836434, 1.333204007317456, 0.8507640813555951, -0.9756549401478567, -0.73003788691671, 0.937231727383669, 1.5678340752990239, 0.36562296091030344, 0.2609045525094468, 0.4008516283460347, -0.8555820514952313, 0.3324824273154275, -0.8022582835251575, -0.707700943838699, 0.16775974225885795, 0.7865703376901627, 0.829725329548091, -0.8843073268318642, 1.0564230372326378, -0.6663914424818901, 1.0550355372041165, 2.3664776846383897, -1.7592972657624022, -0.8432424067858358, 1.0255946664814943, 0.048147021500930524, 1.8235392506132915, -0.444979437515587, -1.0928746828198421, -0.6616626543601585, -0.7554667102504496, 1.6156938330795774, -1.2095828841115015, 0.21712479585245115, 2.6974443211007517, -0.5753823434665838, -1.6550494540348049, 0.44888026086739075, -0.8812028485206427, -2.2096567200026658, -1.5713260943860952, 0.08058797704172699, 1.661227804533913, 0.47831366230581734, 0.3448133283720397, 0.224007480484158, -1.4660901632033905, -0.28459449974504464, -0.11865232617913464, -0.9796419162166159, -0.8062156101170649, -1.6296059556137503, -0.9315276200158557, -0.2852777305803643, -0.3395485138504463, -1.5394253853392288, -0.7655790778121844, 0.38049306449461906, -0.18718059469642018, 0.5795490897323792, 0.33244823180102184, 3.092141920980112, -1.9125490447458031, 0.27222956963473643, 0.10741516135677501, -1.354324457649264, 0.07308068385196928, 0.34957938919266884, 0.5735165915324705, 0.7021953858802245, -0.879226262982787, 0.5498333956033525, -1.0736501744447178, -1.6394497028660957, -0.45671749695745467, 1.112618823703124, -0.7560179134007395, 0.26952130932736307, 0.12032533341536648, 0.4207908706193915, -1.2638510945261816, 2.746067146130457, -2.04126633077885, 1.7983679296856097, 1.2086733827183858, -1.7172981430412506, 1.4276585021401602, -1.2102992800861165, -1.9588737569157277, -0.7392147022191516, 0.7937290077316964, 0.23815038784948522, 0.00035958656386026746, -0.30782782693474514, -0.24999863213116424, 1.3921345175742248, -0.4872821655105254, 0.47983734460613103, 1.7859045447953148, -0.4432039789321555, 1.0701640675810162, -0.545672190581886, -0.1916418653953035, -1.057939497352062, -1.2933873546767836, -1.1331812596572886, -0.4111971290831681, 0.3922858795135826, 1.808599809503308, -0.779081974768652, 0.45664506058385396, -0.5495992154949336, -0.24136793722409708, 0.06383986453427519, -2.3190228404717006, -0.5398353370313884, 1.453311595220496, -0.667645210829048, 1.1599467664259095, -1.0774993209593948, -2.2001091965545623, -0.06207503337083979, 0.9893518971193963, -0.4100098301487405, 0.4814472836042317, -0.3548505725718432, -0.0662218873172072, 0.33879765498883424, 1.3743846240034618, 0.4806178160443729, -0.9236588533273239, 0.18867541133971544, -0.9476700775955765, 0.5208556044902243, -0.8537909453040612, 1.9641496825028353, -0.4680890638909586, -1.273691570177069, -2.306088260866681, 0.571575201995465, 0.5870840689721007, 1.2049168691681456, 0.7407218602068222, -1.0218923416214496, 1.0225505087864053, -0.19954707173590375, 0.3331628523782623, 0.07465426312209066, 1.732593019431808, -1.6689032241248665, -0.18072464393771498, 0.42872500245273265, -1.222540380905074, 1.7770667768584163, 0.250719508765058, 0.38872301861607256, 0.25238094353428076, -1.2856838294430528, 0.9216813217782021, -1.324015174530999, -0.6925689226585307, -0.9408319610440838, 0.017767274945536055, 2.7518597656800114, 1.4300423140112326, -0.09781942399671736, -1.3612235110813837, -0.3561221875327529, -0.8552751970437266, 0.8693555247337275, 0.09280309780118323, 0.12933183648638266, -0.16661574121692704, -0.8570786544090901, 0.3497985123485932, -0.9028362546889938, 0.8100530959285643, -0.20892993036413904, 0.28059020519308725, -0.9935279123853923, 1.0757788652272986, 0.06667328519429086, -1.1932330272220373, 0.9899145334118367, -0.378036535630467, -0.6176586156687297, -0.8004096330174602, -1.2599916190938096, -1.6682549613575495, -1.169355143019676, 0.43649316422300416, -0.5700975445236032, -0.6727107729377322, -0.4902933391251386, -0.45113070698355656, 1.1472748107181658, 0.7275955175325072, 2.0091834167567573, -0.6107746531418891, -0.9005587465842901, 0.8522633176099588, 0.8504866920392612, 0.12481519496735038, 0.01099070855658916, -1.2035670280591864, -2.1302575240759736, 0.7802323505056247, 0.05765480043059266, -0.19964633918442112, -0.22624815648089966, -1.1301513474480382, 0.4278821496262583, -0.21458192133491868, -0.19172892816930426, 0.45045170801633805, 0.5713096064338594, 0.007288309945784943, -2.111606865978544, 1.1646111948943731, 0.5447519748585322, -0.5355765121821076, 0.04143648986937749, 1.2848632350098148, 0.9756795188055442, -1.2291047562018014, -0.10934272276963586, 0.2547511560232936, -1.0832896008895518, -1.4773683646639275, 0.9268722552231831, -0.9877541136963182, -0.5258224030555269, 0.2719835834900346, -0.4488708794776506, -1.4008215260595767, -1.5897484901179089, 0.2532187499393954, 1.9388374285191807, -0.5627105194431364, -0.453370055758806, 0.850209880756348, -1.1736901217927724, 0.009831305514363438, -0.9551954575120739, -0.7628010853233779, 1.4466288267456582, -1.7037527313564904, 0.20820981112228418, 0.3828566233081221, -0.19575432750780777, 0.9006536645767362, 1.1036680801389562, 0.5714890008894985, -0.07650698823287876, 1.6348141709602957, 0.7593297251806461, 0.25732730578002594, 0.6004986202777063, -0.9449099777846047, 1.5915989516588214, 0.2662606483387375, 1.1903861607638382, -0.8333777431563721, -0.47097023220683587, -1.8781377306254146, -0.750855826208973, 0.49712417643713336, -0.9068541471690906, 0.12270363742085198, -0.12993306413421613, -0.6161672102360114, -0.3583921921459737, -0.19219076924086412, -0.35826545971990453, -0.47202318595815335, -1.8023885587570203, 1.2395651659870983, 0.6969920191794959, 0.03183539103664898, -0.27030014254697116, -0.8666834941389593, -0.14757801787293973, -0.5896577612490136, 0.1176598307573057, 0.7224955511582019, 1.5708780614194455, -0.04670388274590442, -0.7710148878231725, -0.8562882794479603, -0.22434566507457604, -0.5969411928721653, -0.27519360191035713, -0.09401965394985157, -0.16473158133926513, -0.2413544895068748, 0.36944208265305206, -0.8257928540149827, 0.9714040120338079, -0.27984853307265267, -1.3592452033552163, 0.09825943990511588, 2.208085629596264, -0.6350090859698352, -0.44449466223462963, -0.615558081559063, -0.16557596035986896, 0.02154729193107372, -0.8624016442774177, 1.2626534026895901, -0.8932269877014207, -0.8145516780863036, 0.5308244545526696, 0.08116871200335497, -1.4765259565150617, 1.086107555373989, -1.2762458239801655, -0.9216907085171955, 1.0506869691748228, -0.6268263876417622, -0.542097915531519, 1.0191758952343541, -0.23805860231309917, 0.7415011702019418, -0.451406660547332, 1.0863492995280972, 0.8013092595636352, -0.52450206666919, -0.5546533572391454, -0.9463931422972498, 0.17157206484314583, -0.38634479091071505, -1.4820252651493184, 0.21266337597174087, 1.198283152778179, -0.5867825709718578, 0.90456447900263, -2.2465507916699425, -1.2951025881120575, 0.029476893494933355, -1.8637950301359933, -0.08202808630304399, -1.410521995922836, -0.030915174932993644, 1.2399280089016425, 1.2643105526638223, 0.9788872526877537, 0.2881126667535084, -0.20630590683620426, 0.6626310128605181, -1.212656242861037, 0.4045547990389614, -0.22504427744762895, 1.84756648493725, -0.20435765833886135, -0.3491542340700058, -0.6613449016244505, 0.2796778276369805, -0.3153771981075165, -0.25608412155973687, -0.05839186255795825, -0.6311485240974855, 0.6582692759610245, 0.03662863784635497, -0.6532205870731637, 0.3328514411143109, 1.3046004590553653, 0.35867956097605225, 0.9944087488291425, 1.2044465120083139, -1.809864075016553, -1.748928527945691, -0.5004691733433801, -2.28274944767551, -0.8245624735253592, 1.126461240031558, 0.8019691134742216, 1.26456382397971, -0.9576960850499505, -1.887007994680047, -0.27290232425605554, -0.8993860901311909, -1.3824715507557603, -2.3015780666750145, -0.046444564940213186, 0.05748286468622665, -1.5656649788629693, -2.4938262830159243, 1.3599251156612355, -0.37735479960259266, 1.1135108172167372, -0.3825158310550839, -0.3472852686899518, 0.08352880098611871, -1.6716155255632361, 1.1912166101981538, 0.5355461802951037, 1.6582951143351576, -0.08906400191518307, -0.23303250071214182, -0.47028823665807845, -0.34295821158140666, -0.2413265821568287, -0.4956949142281198, -0.6107478978898572, -0.4337865442837554, 0.25771438494300836, 0.4839566840528773, 1.0266324124092756, 0.25173045944535993, 0.8136126944894123, -0.6457483149517145, 1.6943023703065814, -0.6139923203870831, -0.4694216735163905, 0.056359838978140946, 0.23432113199694093, 0.6791877905223542, -0.9886721589396956, -0.10968942774424927, 0.046737383372816466, 2.015709960278948, -0.6941816853757272, -2.4140073415844867, 0.9076557977796501, 1.1414146811547385, 1.3345393756526394, -2.34334359279295, 0.5247896495540826, -0.5560124119869743, 1.4328653650594847, 1.3150796206555246, 0.5594567581080276, -0.49218404235971225, -0.3314298097232264, -0.1629212664784914, -0.4704900696315309, 0.17827060610321757, 1.5233696647465882, 0.9029892807397243, 1.222867460707716, 0.11211541909571565, -1.186848674476882, 0.037071765236546685, 1.031888135574193, -0.6048451245397487, -0.48396232964454405, 2.00487622378115, 0.6821101547447361, -0.9297409735609653, 1.3446559108996234, 0.19824254440793249, -0.3108145080909351, -0.29062525588156535, -1.2962891780680335, 1.1819717711730355, 0.3187239343180517, 2.483378879013754, 0.2104789809442813, 0.1774735366564247, -1.0668691491782567, -0.4643162849184141, 0.21182786939469497, 1.0296593729674268, -0.719761691974257, -0.6429240032500909, -0.1521524739028854, 0.9607436422963177, 0.771145529630458, -0.6575071321612903, 0.13177216114217505, 0.626465444823805, -2.0409631578142786, 1.3746562751643074, -0.5256966845657859, 1.2325020875195072, 1.0402715284994695, 0.8978078674834284, 0.1756023905314368, 0.30245096349540807, -0.37425203669181695, 0.0015227407704538698, 0.9480363824359699, -2.231704315479732, 0.14807823742219128, 1.6801637346119525, -0.864116399224625, 2.082275897181464, -0.6596417667367837, -0.1557079066627234, -0.2727856399901162, -0.45355124384322004, -0.8591830577387305, 1.02979689155679, -0.33572319148280694, -0.6852497472476733, 1.1894172099214615, 0.9968033278254022, 0.2486534264325794, -0.4270427477249014, 0.3803168949434613, -1.6978381095708586, 0.06599811129078667, 0.2131561534253065, 1.826362352528077, 1.192133517136326, 2.5897246754663366, -0.4827881707703462, 0.04572767662024576, 0.7196635566997683, 0.3410502540832563, 1.619266662437591, 0.6606849643620022, -0.4595018473167924, -0.020834747532038934, 1.0717953239511384, -0.46567930895749177, 0.25326795173420186, -0.8917815668985914, 0.2941410909290948, -0.20107589721523328, -1.165594538862914, -0.0665468602225498, 1.009536281600181, 0.2945625020337632, 0.026565093145493993, -0.7107267428417361, 0.7784297739853338, -0.6041065597453192, 1.3688686669331491, -0.20476607036007685, -0.05694318572715764, 0.20546685649717164, 1.0594877621582728, -1.244801811311656, -0.3490620681142906, 0.2039971426199538, 1.4777694584750827, 0.6014389889287383, 0.41887682906132595, -0.008534675319218962, -0.006738221269991357, 1.7919309994718862, -0.07957178265577101, -0.5600478043362175, 1.5261431237369678, 0.002337601849563583, -0.24480393462763061, -0.13244495021812155, 2.09608234408825, -0.30909394286934344, -0.7527706070812485, -0.08146920053239311, 0.4991909992085894, -0.23309181235619086, 1.3101905443708879, 1.1757040121972135, 1.0786481602472573, -1.4134856221232872, 0.1306614929731086, -1.092804249922936, -0.09249630311319275, -0.20887454524656165, 0.6565487363778469, -0.1264604988217721, 0.3801432394554894, -1.2171146163492672, 0.022519614531234952, 0.9469117812094032, 0.9683409973879217, -0.7046571693258578, -0.4696044608193402, -0.48608379288260645, -0.36448019420817773, -1.5789270271839488, 0.6910526685033096, 0.41134482830955177, -0.8905451202211481, 0.3047646452164398, -0.1475068764573905, -1.5785397892578799, 0.5771189713795768, -0.7565929261109798, -1.0381413333816583, -1.527783382833926, -0.2512146945192053, 0.29060896911011413, 0.8701277731675205, -0.6049878487650885, -0.15836180046321274, 0.10300549810498434, 0.16070058116297925, 1.246223163830012, 1.839895430012764, 0.5304616593845242, -0.7583768512897748, -1.1286537358164372, -0.5393229255122542, -0.9488359849803994, 0.23375561957892282, -0.4926265218424321, 0.2941748069416022, -1.371847436162258, -0.49739611003660494, -0.610221010396198, -0.578687392935905, -1.536602653904875, -1.0993597483625752, -1.6299195179046422, -1.4423776595692992, 2.7640242345314587, 1.4965015849855683, 1.1447208539351925, -1.3559789283167123, 0.4769844543552365, -0.7969442786105694, -1.8980771633508275, -0.33348973335317716, 0.6281447564579853, -0.7916969437417367, -0.07715932858789758, -0.8827819293497112, 1.8757546551213637, -0.5256459725925589, 0.40247008397310907, 2.2369786644121654, 0.2601116186173484, -0.1736389813554622, -0.6277121149084022, 2.8658414579795677, -2.122665006040819, 0.22461523167593683, 0.08263311503467895, 0.718601456387934, 1.1422592053137162, -0.5894692834717208, 0.018176757573449838, 0.7814047453974006, 0.029434072039114474, 0.5616774859529778, 1.0219625027853705, 0.7399364951636134, -0.5356192256608308, 1.1916016486863783, 0.9399784019115601, -0.6757455557934955, -0.3505063603257178], [-2.136079116910947, 0.612390896831502, 0.3393627884175533, -0.20576431344994867, -1.6545586914284494, 0.32883983027554, -0.38352257979916116, 1.4979221756063197, -0.5952091643820425, 0.8757795073459351, 0.4419365013138716, 0.7683160577086209, -0.4529500752130317, 0.6552600592476509, 1.3382807457484676, 1.6877200960188352, -0.4027216590843107, 0.6034522682533193, 1.2429391138627586, -0.22611733481674395, -0.6584032552815613, -0.11696306765352331, 1.1114069577038164, -0.1399062232548434, -0.6854474243317557, -0.23171085890093437, 0.6520087805997923, 0.9004357278528211, 0.5256197813097356, 0.11434290470523055, 0.19710216256377278, 2.2519183831147473, -0.4011139826892706, 0.4220583504148024, -0.8682593985471098, -0.5145932695330283, 1.7177305630656168, 1.1067038361000257, -0.49440777526374724, -0.18292928921952115, 0.1574491013368787, 0.31115606478995833, -0.11868686799678696, 0.8328215353739578, -0.3994238973360253, -0.10842887237994668, 0.5917696502384582, 1.7086712722593216, 0.5189147421497214, -0.11003905986722852, 0.3637903454753546, 0.18621631295717578, -0.16122294196730222, -0.6886181903234713, 0.8336099490479966, 0.46657441396292487, 0.3005218507737745, -0.33518485304105977, -0.43912943534638643, -0.4852668356028197, 1.0424987759735163, 1.1210274745351572, -0.06495505908909989, 1.0221894144214725, 0.26027378198758616, -0.2584731908477164, -0.046797695181972986, 1.4772375736616767, -0.6448986500375099, 0.5183495019523496, 0.7114624602435304, -1.6308480326949417, -1.7164294859177232, -1.0934553767523294, -0.056251316767268, -1.5237418453198548, 1.0966839629794176, -0.6411057559403566, 1.1429579828225758, 0.49278113967048315, 1.9117087308699243, 0.9025752223145255, 1.6607466572642973, 0.25198952702451594, -0.7120329610816012, 0.19407015838083727, -0.4050887845791331, 0.46251837667306517, 0.07424337033730671, 0.7086974518750379, -0.8904558531654204, 0.7021392282863692, 0.060864402506019225, -2.8570158744947407, -0.9703548976013301, 1.3114158285515474, 0.28728415596770585, -0.5897490215999357, 1.3480525913463353, 0.30699538334643134, 1.4405359188785172, -0.5494491627042672, -0.6594984173600493, -1.10195210380276, 0.4082748340110118, -0.033322573539065696, 1.0792299444009223, 0.2682694891844163, 0.6634597967405198, -0.3571548889943391, 0.11468149058289688, -0.9732265196879921, -0.29792123445695917, 1.8661833726837118, 0.24703473009691798, 0.14346994692697432, 0.21960059844407812, -0.47963768541164664, -0.4193306528444437, 0.5220174349387057, -0.6139143722969066, -0.1139727307974044, -0.6807607478309424, -0.03922830745031797, 1.8589602544460944, -0.37006535307694177, 2.224350619876633, 0.6678026432029052, -1.1977425566682904, 1.0529385703479415, -1.852657461713975, -0.42111534530896905, 0.18247532759612836, -0.5426932722799009, 0.9667423537447787, -0.8305735075443642, -1.2641490908933573, -0.5983196925143073, 0.1773441887184599, 0.42580517655612404, 0.18909840896062824, -1.4405600710649007, -0.8710657709203202, -0.4014769933172482, 0.07450539861253291, 0.10596898232112999, -0.471656388620038, 0.43524932118805815, 0.4121951342200359, 0.6403286620268334, 0.7585339701210507, 0.34342821212846514, 0.08969178335295575, -0.16048187932869598, -0.014338406199468088, -0.009269614965100172, -0.5388071456386414, -0.9503153089946591, 1.1229243735108605, 0.267244596235556, -0.7219692393101479, -1.905178224955347, 1.574834082692568, 0.8941987908056249, 0.08096427690527516, 0.3270080607146506, 1.109686381924711, -0.05473853434580808, -0.12026350577572364, -1.3287550016112528, -0.14674375860857114, -0.34322689815943563, -0.5530023990749638, 0.20600771919106112, -2.2603123175985442, -0.6688901657578665, 0.5417058811503651, 0.14429846430998944, -0.6864802731413606, -0.5127820868953706, 2.0861843925699315, -0.5412657878442569, 1.9869550011037131, 1.5955254595726485, -0.8505635037793258, -0.022382558587050596, 0.4277586480844492, -0.11757427870359835, -0.2827609697879633, -0.9569808334411126, -1.2167539952081716, -1.4417368635423826, -0.6839571076834621, -0.5292161836486985, 0.2627488532931921, 0.6727098112167078, 0.15615836439807035, -0.5699705702751706, 1.124552772073564, -2.136172166381347, -1.8346567910217548, -1.6468206024989853, 0.7900957443167299, 0.26570073496529323, 0.1978138533596815, -0.6766233736205469, 1.0098348376221544, 2.945231176619093, -0.2328057154350922, 0.8793643331722353, 1.451167855053845, 1.5235760224836066, 2.5098310063745255, -0.32617287236530945, 0.7495055048454081, -0.9032788040964725, 1.8819205165746802, 0.5247358989811152, 0.13529024983847238, -0.28336359534016864, -0.7336322074653184, -2.0767256718854186, -0.7341052842511024, 0.4232796137699718, -0.38795743853065373, -0.06739849139851627, -0.4413505560000086, -0.9440496190676773, 1.26013954078755, -0.433992176441782, 1.4565734999126476, -1.2675073401615222, -0.028736266565458, 0.23773359072754194, 1.0094908764737578, -0.34141373289691956, 0.15578445928662996, 0.9645159964669822, 0.5460599315820054, 0.960465492729879, 0.7011297647337642, 0.9522828400762356, 1.4752784909314944, -0.2227906838038605, 0.47758418810283604, 0.8968793072862319, -0.5049821304191549, -0.10166061697398085, -0.15641874015887652, -0.021757493142068873, -2.0091923991070937, 1.4050238043888859, -0.1204808305783546, -0.02747461196319626, -1.264622529925671, -0.053183510953456005, 1.764447826469728, -1.8437000755328534, 0.6580718038436041, -0.14258683207487868, -0.9024172825592679, 0.42563036888436573, 2.523425992641489, -0.5138414730579394, -2.7082705563926854, 0.8146502044402961, -0.24425080102912197, 0.8177334216629719, 0.326985767557135, 1.4355025746396386, 1.0354802258336322, 1.0521694054381894, 1.0871370679772294, 0.8303762774344752, -0.5768527254381475, 0.18139087759261863, 0.45133964290123707, 0.7716622321114279, 0.09339888325032054, 1.051079102188782, -0.44856857895374075, 1.5964057697781113, 1.1565418362551223, 1.4688239047267295, 1.5977458028196652, 0.02612848727682488, 0.8158041743720419, 0.7344962693849758, -0.10832561499709123, -0.15895801021905726, -0.03010169734868603, 0.35225372446786224, -0.5224774838683554, 0.3257839975711424, 0.10288656439504182, 0.06602230240206977, -1.4622818042253547, -0.9101149251533439, -0.14962889531511686, 0.14827952341298375, 0.260761751554268, 0.06529729090002398, -0.2769491340533179, -0.6308845785941843, 0.10843827933300115, -0.1974673047944045, -0.19567556279267237, -1.1241379466589914, -0.0049643914482840525, -0.3970544117391882, 1.3630575934896392, 0.5869308084986881, -1.0806747118048923, -0.1689170990633173, 1.1596413873668994, 0.1597962480652615, -0.7153411499303025, -1.4357009077743155, 0.4062493721667716, 0.6684814115887744, 1.029608649859641, 0.48950098144263077, -0.4556772586923617, 0.08846573014928859, -0.8544812670105991, 0.29070277729301836, 0.638901958534068, 0.26816965367930057, 0.43663588468768527, -0.47540696562635126, 1.8694425478941077, 0.41306222216626065, 1.9709262153559006, 0.12814808449641316, -0.9364005355543099, 1.238514876411858, 1.0446599075101703, -0.9767065712508439, -1.048704625348691, -0.13618815111451707, 1.027193805955424, -0.3451840682939973, -0.7412635761124152, -0.21348326542115867, 0.09487440913978239, 0.9758364564011306, -0.2315885642887872, -0.8670968764382416, -1.2533917686671427, -0.4215349066941106, 1.391723439271157, 0.1855484041550636, -2.235187359809199, -0.0702998261153402, 0.3911879945824791, -0.19208822924524094, -0.5164806877456696, 0.6607644419846187, -0.24645890488057112, -2.748087166640704, 0.5931137177938604, 1.0389506948558982, -1.590659181452201, -1.8525124901286416, 0.2645793717310461, 0.750093600607863, -0.06600644149710935, 0.6579693986645873, -0.3568623155841878, -0.26839266215751234, -1.1887510151251448, -1.2100996427835506, -0.7330870603282997, -0.650738062383612, -0.8230151097661135, -0.714205560531198, -0.6109453064513948, 0.24362955153730143, -2.727468297053436, 0.4532276875043527, 0.529337702750154, -1.6772968152793022, 1.2593406246851464, -1.4590593134401746, -0.6682216473777467, -2.597601854780426, 0.05140536399667227, -0.07497227886445425, 0.40634638032852355, -0.18493133039676496, -0.1532268037825147, 1.127502660720211, -1.5437497193116374, -1.442768028901327, 0.15198458255907207, 1.037860219020991, 0.6530814498024747, -0.9431873893949531, 1.0317723118463074, -2.58118501738759, -0.7914792665386954, -0.7145011083261759, 1.458617381628093, -0.3730060777486731, 1.2989377376032616, 1.3608851678470169, -0.029567264728031385, 0.8698458223248179, -0.9025825121501374, -1.7913472607539906, -1.013715776006379, 0.3151350935421847, 0.3397478431892275, 1.254559404153078, 1.2039657612480206, 0.7283154716778106, 0.8795470795752689, -0.27932587423723454, 0.46777815541946416, 0.03532957968612085, 0.5841200151685084, -0.9416373259085115, 0.4364837098694739, 0.3208644906059741, -1.2598642082136315, 0.4343690353689084, -0.20986817554743928, -0.2947111808549632, -0.6476700704892036, -2.365624941181237, -0.3265616503124873, 0.2421665481650929, 0.44316329485308587, 0.3305521574474521, -1.8042772370667044, 1.9930120827416606, -2.135843620251633, -1.1929119282650285, -0.7883892305923088, -1.027551908229966, -0.18323294220681913, -1.5926357868783563, 0.15005112749263616, 0.9112639092131896, -0.47173434883557547, -0.440009557112788, -0.0689493335935556, 0.20702948700780385, -0.65990238960075, -0.5014987252318511, 0.4847495180466784, -0.5761620131386429, -2.2863513661468113, 0.5948417652503073, -0.913494423891589, 0.9571129704508717, 1.9235001213267178, 0.36214842327057634, 0.17425586619328262, -0.6989614102262157, -0.6244960046248498, 1.6798543225121678, -1.165689989835803, 0.0499919360824712, -1.1093807012586463, 0.5042762701984773, -0.0704419289415084, 0.46167726794982805, 0.8713432762449641, -1.2903223810903566, 1.486293750934391, -1.376650616492289, -1.76369424131532, -0.5608237375071017, 1.0024144397420114, 0.5858412529893436, -1.6641508365157578, -1.3315148383364066, 1.0310066461167484, 2.3617653383550126, 1.3080688370903386, -0.6925975416911296, -1.4685628701297628, -0.16424325229192188, -0.7087507039859451, -1.0929397192962207, -0.8136964776646398, -0.11713786134020628, 0.1310505590612082, -0.9191103988513826, 0.8248422380669459, 0.28333615306587817, 0.5202058943279826, 0.12794937425444428, 0.16814355887267057, 1.516827973967612, -1.2449609435690512, -1.5459528929818762, 0.7190322665803082, 0.1307237843779528, -0.22261342186985497, 2.299365581635934, -1.3598890557067653, 0.5569978476516101, -1.070178650773571, 0.3107884924839788, 0.5572153428472765, -0.12677017423615813, 0.41336585342991006, 1.3397918984195563, 0.8848229660803285, 1.204689984126558, -0.06629907728533961, 2.0276589278954655, 2.2208603331733276, 0.3071145300135223, -0.8813694904561632, 0.43404493292924995, 0.7482190731734607, -0.10097958125053534, 1.6954555448110553, 1.2385734128089867, -1.3627583393204368, -0.5619933895290953, -2.1315651401399927, -1.019290485042837, 0.10767315687104224, 0.048729748113871055, -1.3075134851399013, -0.4899411744566972, -1.639277823979096, 0.2513824396357069, -0.7607139809758053, -0.016405445169224816, -0.33646181287586396, 1.4449621121204135, 1.0722665408346337, 0.933620992477983, 1.3684835146745196, 0.11821178280768094, 1.7289531844053094, 0.02239488700990849, 2.0685497026155195, 0.020650491035883903, -0.5721646444749604, -0.3649704495015032, 1.6066321018562504, 0.4683495752393274, -1.8902575994917366, 0.3594787707577644, -1.8697730643185178, -1.7599482397735722, -0.35293128831335374, -1.1240002836713954, -0.06065228507774658, -0.5881464234093211, -2.3071446423161603, -2.6623601599092828, -0.7738564100211462, 1.1193562773440107, -1.0648680074432195, -0.7245559516711698, 0.46605057607031936, 1.1558238857701706, 0.08310092885724193, -0.6079086973003939, -0.4301865122189886, -0.23627343666430786, -0.563291862261598, 0.7195600532183511, 0.5976477453669352, -0.24692707345201936, -0.4163922775238787, 0.3999927480994746, 0.39050222808278345, 0.10135752665249187, -0.20646169920630117, 0.5357401965354615, 0.752281728728062, -0.31900152537186865, -0.9390182843402638, 2.242219378070298, 0.19369951740100488, 0.11777918974720598, 0.37282645910125506, -0.5080468128757288, 0.049397354704638234, -0.29827429315982307, -2.119344103725434, 0.11355740627598432, 0.8954524805318416, 0.7373819191651181, -0.7833569431838515, -1.3219205585428886, -1.0019042526700723, 0.7149329681417672, -0.38602085834973277, 0.4162789953068328, 0.9529655422990965, 0.244826682406615, -0.9863600303318127, 0.11397487198869674, -0.5977501297265786, -0.7225891106004282, -1.8887043804554582, 0.6804381722378006, 0.8553304348329874, -1.7940936132277345, 0.22432048099811083, -1.4470136397084405, 0.6764728608910326, 0.8816952996784604, 1.7342652343181402, 1.321668639966922, -1.1296472861471671, -0.6763594220014315, 0.16646751525995773, -1.9366082236253517, 1.012945465110175, -1.349294417472361, -0.5068259398916939, -0.3140809261693674, -0.663216387389572, 0.23879807141244958, 0.8991609689266514, 0.678133788779027, -0.1278610969812837, -0.3529389182319534, -1.0951578909347144, -1.3972603247549602, 0.09287120425644345, 0.24662219069473842, -0.8585963513332922, -0.7730466177335316, -1.2045911000860445, -0.7874102014710564, -0.903185606119506, 0.48122306294888395, 0.9515647636001604, 1.4143710263535478, -0.3315790164481331, -0.6407291653926154, -1.581943061340616, -0.32124189775025386, -1.4398510928610462, 0.5818877397489317, 0.7420370676248733, -0.5446198899583333, 0.9492906808280245, -0.4161642720019694, 0.5830695314276421, -0.8870184261828096, -1.1389040684312048, 1.6680914841766912, 0.9851058980795508, -0.08224793225886433, 1.4614438068039255, -1.3641171423694487, 0.6256342538929235, -1.0826579715183244, -1.0151037815895363, -0.6310607041272831, 0.7645599820804914, -0.28813102952277647, 0.31585805139687917, 0.3915004973733293, -1.133246204060135, 1.6027539021270611, 0.20197462290555684, 2.215164249036401, -1.174835496276326, 1.4145639147202043, -0.4254069553313992, 0.834570233926088, 0.7485344843194368, 1.1806707406871637, 0.95687082361561, 0.5972708935684647, 0.40740321667911267, 0.6737701457084567, -0.13045055637684683, 1.2876425581254975, -0.6385511056740285, 0.790282026603057, -1.8865645648396714, 0.6183244605357764, 1.0410487003559261, 1.0816767147608848, 0.60587473451703, -0.6458477841483936, 0.2935084182261575, -0.9332730637963383, 2.056730470390726, 0.7076631975973946, -1.2651316632113088, 0.3142860157543561, 0.011891148839778425, 1.5112410902687943, 0.4514820404066831, 0.3781160601843177, -0.3352748729639978, -0.24804475100287865, -0.6061602620223193, -1.0672517040357643, -0.4680234385432221, -0.015253690964573, 0.23469246824121404, -0.03604530491282117, 1.6605058681309028, -0.963617205532693, -2.051233308543296, 1.9701156400427362, 0.2663648771177254, 1.4265033433600958, -0.16906429793256425, 0.9373990502501189, 2.6288680472527437, 1.276090903201679, -1.6506468758968609, 0.6673123904928533, 1.5162052951300262, -0.9589572698441177, 0.9150671483761816, 1.3830914585265794, 0.07415767955828421, -1.809267001530136, -0.05642008125063593, -1.123858834492281, 2.4960790972418088, 0.1597917696674669, 0.4483472520718471, -1.5458859807364724, 1.6100010418220525, -0.8630019614085052, 0.6276583687787762, -0.5749273120633595, 0.20489947497293248, 0.13536095857478264, -0.3143832549950733, 1.7093344932454153, 0.7830614491517393, 0.6644155614149639, -1.3368443959955516, -0.19847108790886384, 0.08892589671523335, -0.01241843691251478, -1.6107977636442854, -0.7709756319837797, -0.020626219482780494, 1.0787498785576088, -1.8639227716081754, 0.8610254691901992, -0.08988528077490575, 0.3630757961781346, 2.516654943849796, 0.4415058413693207, 0.502879778637719, -0.4226331018359228, 0.4687733919279065, 0.08820733766263954, 0.8754574405867006, 0.06133979750289499, -0.9062933767057906, 1.4093715954384722, -0.8066623694956309, 0.24084463915384868, 0.2548194095999483, -0.7571399763462432, -0.8981983175864272, 0.7336468009962644, 0.15922178181716104, 0.016582934626209637, -0.539882518459188, -1.0866149716022686, 2.6426631174812076, -0.992017966336849, -1.1346077184740093, -0.13437946913316895, -1.368104354038288, -2.159514825959062, 0.8310951801553262, 0.1267469224466701, -1.0139480944838326, -0.916344610050858], [-0.15966076305839744, 0.24305332798394802, -0.6838563286013063, 0.8288937536406795, 0.354503825744719, 0.5166752061933658, -2.002976885927178, 0.34879277722534907, -0.3405726699167393, -0.12283077368695598, -1.1003050140322799, -0.31557047182715825, 0.21077000575385516, 0.13060475682962, -0.4518615790922505, 0.9770742255440836, -0.16231774549904088, 0.39995634052169277, 0.8410345320598526, 0.3381790037484145, 0.1310977413470734, -0.435908464329298, 0.08271076261117401, 1.2815486127780382, 0.5280007823649497, 2.6103468649378976, -1.7656931280788153, -2.299480990780852, -0.01241913061454319, -0.5840392938834297, 0.9290022238233049, 0.4150109981763392, 0.32619161719291273, -0.6700576374937997, -1.311068662276388, 0.5397401729207478, 2.1767959768549217, 1.2860111464795103, 0.22104348382071864, 1.1950104781504276, -0.3314743740445947, 0.9400780389064035, -1.829551523909217, 0.8180583929137785, -0.18677824502842955, 1.0664649291051254, -0.8308442824656589, -0.7418523065510859, 1.2264343089546301, -0.5905852230443926, -1.553791110700572, -1.566610588624992, 1.093341213314615, -0.7758607879544148, -1.0662540838488153, -0.4578096294752554, 0.26825320940190167, 1.04702665657276, -0.36815221704765067, -2.2825238091872393, -0.8069581603364554, 2.3357416240034596, 0.9987529958148648, 1.481475398616318, 0.3946890532252414, -1.3440894200759954, 0.0033211211524438178, 0.9500347791202501, -2.6736987088335376, -0.08391247729023982, 0.4674469213306451, -0.13277514817349648, -1.1592403636773865, 0.6987358791351492, 0.013415010087343256, -1.5763571083283057, -1.7587123110331597, -1.1846728613870665, -0.40045633163307276, 1.9483417582024005, -1.7660520973017508, -0.1200481445571996, -0.4633111492954062, -0.5081179090705444, 1.598894462870667, -1.1553933946280615, -0.9426144642350274, 0.6722508846535549, -1.0021400792492092, 0.3431588238679969, -1.3068424014248918, -0.08370128844390504, 1.6270967084758183, 1.3701679192457108, -0.8080021301180527, -1.3592193504714518, -0.4804202363189261, -0.8584612686660827, 1.5934073856593816, 0.37477920340396054, -0.5685233686605498, -0.9457860807347134, 3.0766106729474343, -1.8306445839329724, 0.47201129585657975, 0.03381498242533024, 0.6728518142753108, -0.10100316153135623, -2.0979614231699952, 1.0196243053562628, 1.0991152013647172, 0.440229808092002, -0.46550581501684063, 0.054135437093229155, 0.16741080238361222, -1.3526482711745522, -0.879615748939627, -1.535452527158495, -1.0004603167892525, -0.3711990361136089, -1.9191564667675092, -0.35354556941807813, -0.4867259955588205, 0.4773903643384923, -0.33772669917622433, 0.667375518610487, -1.185306099073981, 0.7573776465609439, 1.1195508137365418, 0.8761577923302635, -1.2315089488302202, 0.8571088533862556, -0.5375504549397602, -0.08863414833155092, -0.6532075268606814, 0.6124961494072205, 1.2841424241318364, 0.4354696256399796, 1.4909994644823206, 0.13121325584143678, 0.07933779149035779, 0.27175740527273995, 2.219197165460383, 0.11852089080283189, -0.14038833071371812, -0.7816768880579267, -1.3446942163136573, -0.8286638973783473, 1.156528147432878, -0.2367765103787634, -0.04711813776975514, 0.29296258122779983, -0.8087877048053755, 0.4167973627151363, -1.1683803610502632, -0.6350132778105421, -0.03979111591845188, 1.2900853100589635, 0.7919037598243499, -0.5115891657991326, -0.5443561817420297, -0.26674889535875607, -0.5406465788280926, -0.41093685506092986, -0.3710094248312475, -1.0740275860483408, 1.263812070248742, 0.853543978465356, -0.895369395022443, -1.2798477588479185, 1.1700253851884792, 0.1238888720730972, 1.0842240048556055, 0.8329038314738889, -0.8021350984589316, 0.6762165230841549, 0.5543347872831897, 1.4865548956180477, 1.4758522378647911, 1.4623082181362113, 0.3499295423175718, 1.4499216584148846, 2.4113063087222053, 0.37600222211301354, 1.662145344948554, -0.5403036292574994, 1.520815293050379, 1.0594843050817564, 1.0200138700913324, 2.0661833395325697, 0.2995921698883961, 1.1698445201274148, 1.3136591556460842, -0.7477290991878665, -0.367944771454628, -0.012194614468006184, -0.9298058247858493, -0.5532435146731869, 1.3352914698406844, 0.986476101777731, 0.8128232036285157, -0.9332073899463437, 0.714445005940297, 0.5273720835385607, 0.9483835306657216, 0.33914911710734486, 1.9818622576835143, 1.1092207461256456, 1.7219790775130808, 0.9888457494856079, -1.0582019106944613, 0.2692934202289873, 0.792326413865748, 1.1719279009944752, 2.496229927103469, 0.25897753750704744, 0.24060325782084602, 0.820895146189656, -1.1546859725712013, 1.0194923112213392, -0.0410168120999325, 1.0207403688896597, -1.8432791114071814, -0.057063237312053476, 0.4454390660412422, 3.4388075137438046, 1.1297225876054526, 0.262150761184411, -0.49315026550363855, 0.32073706517577616, -0.7039636431335031, 1.768477801424672, -0.42078319390123364, -0.4976825786622291, 0.007124031175993359, -0.9341220891650773, 0.5672551552810146, 0.602683953047094, -1.822471039885135, -1.418045657991708, -1.0566017751612413, -0.45679492045847325, -0.020637663204691084, -0.8395816196190343, 1.0725838535219632, -0.0845230690681654, 0.44742613294758177, 1.1368318259344108, -1.6719883000486224, 1.4746496670906482, -0.3046960667358517, -0.34326084502409104, 1.1559233209642952, 0.8612056248045222, 0.12298033366770247, 0.7224338949601715, -0.6921962735244073, -1.7607810473321952, -0.22989325091198973, 0.2101803342292042, 0.9439631680169603, 0.18433562203641632, -1.4227678201487102, -0.19340660688352204, -1.144575634157741, -0.12298290511049884, 0.3262684853615751, -0.29062784350670035, 0.08068714831467927, 1.4153079628548582, 1.666111254413613, -0.3458156549614326, 0.8630269750608233, -1.0481144899457835, 1.8812015168178988, -0.22885126808203288, -0.28403990029558895, 0.2548669186509004, -0.5191195716211923, -1.116475021778285, 0.19321449284558398, -2.1710252377870143, -0.2744155319491399, -1.6369558944657545, -1.0028465392528705, -0.039428345581965854, -0.32607909653482975, -0.5790130194375385, 0.6931745034119389, -0.10133130897058185, 1.0910740378642756, -1.3662179428704264, -0.891191129710525, 0.058435354735396315, -0.7092005764098122, -0.30796120496297713, 1.2571676914911134, 0.41834456257332736, -0.38461175454257146, -0.007424204428725663, 0.2879162469537038, 0.35266867833398496, 0.7076831605365427, 0.23349689771274812, -1.1299349282430764, -0.11318880036262545, -1.3150350597683547, 0.9946855649898978, -0.049761800471886275, 0.454107768128389, 0.17894377187714935, -0.5538151853119704, 0.8698104097341065, 1.1791645083116127, 0.22850187306405337, 0.5944657112148842, -0.03993630873966102, 0.3452545177662704, -0.7485749712777264, -0.5094382259444215, -0.5760229078215999, 0.5773848829838397, -1.9526573173765935, -0.10399872284126206, -0.011897283993311938, 0.36768254180254367, 1.4167660331237986, 0.09596139981434167, -1.013582520256591, -0.22440957538399176, -0.5827475811977334, -2.945527047629368, 0.6277244079095476, 0.9063326809444082, -0.3392132065507727, -0.7378585963519105, 1.6156751829396387, -0.6203531953841587, 0.02682766223667943, 1.2761073368712377, -0.951557698345428, 0.24385165858640664, -1.0122251675515355, 0.5129813788919917, -0.4989339441877259, 1.2180781328393988, -0.9682503500944374, -0.6302871460350655, -0.7554376807678441, -0.5062750905360945, 0.46550493516267677, 0.45197531299052834, -0.7866524142171935, 0.7840587125726546, 0.983045655241144, -0.30932458333179247, -1.2002336534148499, -0.14256845040815053, -0.23737694113287716, -0.43965641977737024, -0.15825090982311457, -0.48780905920449114, 0.30643196042510923, 0.5727306502549588, -0.8123659252474594, -0.6249580306081104, -1.7520047913385781, -0.3702002292000901, -1.4050315239749862, 0.038787341467776994, -0.014423766232562129, -1.3511632910677844, -0.648627476079948, -0.42818552583398345, 0.8598442704290397, 0.19837013061615177, 1.7481386713801026, 1.4640075783367295, 0.04221547154953584, -1.468918207101601, 0.16769607708434436, -0.87772315609758, 1.3448219003264978, 0.4408166793724587, -0.737254654232598, 0.37514168641269596, 0.26686181671223014, -0.0021075843674818236, 0.5027104229187604, -1.067513910985222, 0.5070006206820458, -0.047467099269617515, 0.1441732625546366, -1.026656958123172, -0.2701704004497435, -1.0768230516457051, 0.2513886261858003, 0.60239311803529, 0.9440225533111596, 0.039145602831266266, -0.16847997133695986, -0.2665539953378867, -1.6906267966640427, 0.04441972656069592, -1.956408488148654, 0.38833463168301696, -0.6001779514229005, 0.8355636011750052, -1.1349592888860995, 1.1617350983916566, 0.0902406468459949, -0.23101350757404837, -0.06163133637973455, 0.7346089467762591, -1.6648227669796938, 0.7712015403724967, -1.8292578917418956, 0.156915272153221, -0.868510030483795, 0.15431371849793413, 0.08177952824628147, -0.9820316384540343, 0.14399741383366438, -0.3765686706268329, -0.3450808935473312, 0.3087138994974518, -0.8532722331811777, 0.4954271349600926, 0.32005936238167015, -1.6144052177811927, 0.1258048004377097, 1.5545798034937877, 2.2773340807070617, 1.0894236406472477, 1.6137366903714274, -0.9408829553224132, -0.21748159687485977, -0.770592698418488, 0.6280487341482182, 0.8495981616118614, -0.6601146464296295, -0.008160112535951636, -1.5335610408106541, -1.2240409953359301, -2.0440227402114437, 0.061455507116664726, 0.32279434856668715, 1.8506153877995386, -0.8265680921156532, -0.5936909966324525, -0.8395917876390472, -0.01895034345525432, -0.12478902911067014, 0.36196164922209556, -0.23849284464285456, -0.25290066355678903, 0.5754081054760181, -2.048660105166256, -0.4576420469298236, 0.9723650461891454, 0.6377465109244348, -0.13499758347672913, -0.9590096468895845, 0.52537652290046, 0.17888985426328755, -0.9109682129071773, -0.6067845395823046, -0.2880638474985317, 0.4146570162983188, 1.9059601150075514, -1.9537700137504999, 1.4331375271695008, -0.9334065602871694, -1.1851197670335498, 1.1561747012051438, -0.9563293082598993, 0.8825399858564305, -0.9050865188777841, 0.7524993813317896, 0.1408726485373603, -0.3375869653624779, -1.0744590682177644, 0.2183646790979119, -0.5197443835095173, -2.0917449620543533, 0.10552854969518738, -0.7025496002638352, -1.3370492921789903, 0.1137687990921028, 0.42138895662764797, -0.5026806922158377, -0.7719361263483958, 0.06767752216727861, 0.4170887143752949, -0.864697616716923, -1.3937047368911928, 0.39217170737264884, 0.7319946902611638, 0.6839084821456828, 0.29173467989845336, 0.6606141697060017, 1.5114296515971775, -0.17487948349568197, -1.1804912764215794, 0.06132366807683288, -0.3847826418079419, -1.0163911467878741, 0.2319124393108918, -0.6764046065677245, 0.9823824884396483, -0.868919327433363, 0.6045380993590271, -1.3961694987083384, -0.7199685901899139, -0.5497528653025565, 0.8243870431542231, -0.04819323560685626, -0.8153666985538663, 0.16293758688603727, -0.0468385360994626, 0.7516250196043546, -0.3132492068985231, 0.19053667191306164, -0.716858596247248, -0.6304549719885609, 1.4592801325333207, -1.3938302206347677, -0.18188327053958306, 0.3279828029962963, 0.9760438078882981, -1.0313210890619646, 0.16228077379653316, -0.5729597385605417, -0.6090487202143363, -0.013525463468031235, 0.04413877419987732, 0.9475464199839514, -0.31087504608774996, -1.8375397122209673, 1.7175146282495424, -0.7967776089848817, -0.8149949057515464, 0.22871083505950252, 0.49965260416226015, -1.0497933962913197, -0.826048515449066, -2.8033744261403766, -0.10134305241068205, 0.03558052876285503, -0.31138432259085636, 1.8021996457363667, 1.0952508167744657, -0.39493841167157157, -0.6684507035544879, -0.0061634367406282935, -0.47907641154691255, -0.16407501207084338, 0.4326148129947425, -0.07972278461510517, 0.7834453525608004, -0.05748572747530062, -0.9823128328943221, -1.3571306519859647, 1.9657017465648936, 1.2274230530964179, -0.7103743436986808, 0.3999789251319368, 1.9491897133387814, -1.4007813940012146, 1.2316158980299585, -0.19061261497760573, -2.1376992761379032, -0.6146654058538091, -0.09227224897058571, -1.255453189071943, -0.31734067087744394, 0.30507961289080465, 1.352001532452701, -0.447445712590061, 0.6695979858081553, -0.20938773113297915, 0.8506278346153907, 0.014955039357144016, 1.6851082052024293, 0.43328101268813984, -0.9515215837141292, 0.07711147848845396, -1.5715193159441891, -1.6367997956412377, -0.8320773041919342, -0.26719693880794987, -1.032115751616201, -0.8560344157230757, 1.6423576901478236, -0.3089115216681748, 1.143301209079848, 0.0330531458631253, -0.23006693483904309, 0.17721360501083297, -0.47095254860428837, 0.28079503434227493, -1.751467772127911, 0.5968797914426748, -1.3639876560448538, -0.12272791621833612, 1.1047020017158675, 0.5661203491015563, 0.13873432977629002, 1.0659296662832638, -0.10214381791681351, -0.9306747992463142, 0.16006378649985162, 0.4960162148015609, -0.1505743483270902, 0.45999617589915087, -0.11758996616139146, -1.8223791119921589, -1.249256178044967, -0.5380493150004254, 0.8501380703849926, -1.5795927924847122, -0.0956852102529044, 0.0691687072767562, 0.8502108893349628, 2.1821927696373207, 0.0705834297797195, 1.4110919388973366, 0.43525406558636726, -0.36957409738936764, 1.471923652848771, 0.5883395886622378, 0.4007154718900098, -0.8254818505419675, -0.09297824370404183, -1.8783600478535183, 1.3987454156356296, -0.9956039074399841, 0.5220996123491476, -0.8042474527145532, 0.3875413362340793, -1.368317762221953, -0.8238573807165773, -1.1855754541179044, -0.2532432591374514, 1.38055949229638, 2.669242350271983, -2.937996305516323, -1.3825238359990046, 0.9772435240859867, 1.1990139017647612, -0.4542353419494281, 2.1001122201698967, 0.28087690031783064, 1.1351975133452106, -0.6510139213313728, -0.9832472566138195, 0.6892998260506293, 1.0721101384355258, -0.8593938752703136, -0.003323196950477048, -0.40227121390433973, -0.3396631526605436, -0.8089584013648574, 1.731364474850202, 1.4156377633629147, 1.3534196257359616, -0.5348348441954734, -0.7031779542968022, 1.4115467924264467, 0.47955220165245155, -0.6311765823163856, -0.007766770775432123, -0.5048768938522851, 0.7554809291550082, 0.8353093991123852, -3.4982157113182217, -1.2724124732158022, -1.0054898266010643, 0.5439680395796463, 0.6833118356282227, -1.9954919859608389, -0.2463936528168855, 0.39561317091281434, 1.1156791586079804, 0.14519174221563352, 1.074625243870893, -0.7565146981616845, -0.48085893019347425, 0.4610570216438316, -0.11369427698569529, 1.1053195547610113, -1.9656119622846209, -0.7685765429415782, -0.9059325903100643, -1.3959664642998686, -0.15070099607883414, 0.679416089791114, -0.80017969970336, -0.3390619490549245, -1.9920242414645135, -1.1318526098379373, -0.25454889753810694, 1.1228945918709567, 0.009932778948700524, -1.166468737957418, -0.22720021763362183, 0.5267207989629648, -0.9618510926646191, 2.264600708024046, 0.37420004170439725, 0.99194918922575, 0.4001510987256615, -2.027071781427916, 0.1618065993662574, 1.9332069180058478, 1.8568902428382994, 1.5539697030377264, -0.6325468367603958, -0.7860010455452751, 0.013751287481737037, -0.2725732395934138, 0.6572551346453713, 0.13023301266275503, -0.3834570485513925, 1.0936435078674915, 0.2944811141698469, 0.13069762229322537, -0.8828659779182007, -1.8321847246046712, 1.0668144006136107, 0.18589003301720766, 0.23284791421555448, 1.5230392296329118, 0.012406732395842182, 0.7769359211849833, 0.1221985503124061, -1.4045312730974584, -0.506754250212303, -0.3686454724109676, 0.03426996589654604, 0.52153945980372, 0.1264407804036303, -0.22050283284184838, -0.3360851830371779, -0.6369635262289762, 0.0015327035182578436, 0.6221329837808074, -0.5050365936349032, -1.2853842322444675, 0.8330482198713336, 2.4212491713419872, -0.02924947737487854, -0.4005848750737508, 0.3324966011417804, -0.8157464947821527, 1.1499361172974132, 0.24202410678357494, -0.36563997378609986, -0.09941345059544862, -0.4951068656993075, -0.9580365559111677, -1.476560144823342, -0.5030199103605848, -1.2349526501144064, -1.7492411993858612, -1.5315780216805577, 0.7525636946679072, -0.47591798489884196, -1.6490173277339746, -1.1982614364483974, -0.19989495013891365, -0.22058658464884415, -0.048911919049308805, 0.06558124754480664, -0.05730139895976686, -0.5494075284682431, 1.136577945647488, -0.518436149153018, 0.5179432871505885, 0.0481367363180579, -0.034389568509971394, 0.4858670467982827, -0.44100651332648405, -0.9557426325128747], [-1.7549580119034893, -1.1698497838584538, 0.9683980205204845, -1.5773452075528982, 0.7311026116924092, 0.20487672810767354, -0.8356339383629208, 1.256556941131264, -0.3911108905828755, -1.3648469566203805, -0.81804416843315, 0.8106984357719672, 0.18717010562147912, 0.8454913879897372, -0.30228546216918273, -0.006209158455453825, -0.35701448511853734, 1.9783183062560372, -0.5505879659894203, -1.3369637557075216, 0.5751961291600274, -0.0088933243755339, 1.5423288655351695, -1.2359003074708166, 0.942263988400658, -0.4258482287306322, -0.9796394516055266, -1.0623722420142532, -0.6099667262136513, 0.6503892378104678, 0.6812469343972547, 0.45964146123258137, 0.17567802574135474, -1.4553345040153385, 0.394624046674166, -0.4386199119052136, 0.5507752643018101, 0.35822137353563016, 0.6138182552857192, 1.3051010921368837, -0.016457917706770117, 0.2775367033630648, 0.9618497691961451, 1.426511711737109, -0.38263873727449316, 0.6253664391516867, 1.5285780082366456, 0.5978683283956181, -0.3345089355476555, -0.17707033292620564, 1.9740374160595082, -1.9854343530909646, 1.143118427971261, -1.4181562787134365, -0.5459193204234927, -0.7282350491214881, -0.6062136146765471, 0.4039510377137059, 0.9314964694532145, 0.1831199782338889, -0.43788084461111054, -0.4357028278584704, -0.07202988315276396, 1.5258583557971679, 1.1413375634519376, -0.5009585640538373, -0.9411460145944357, -0.9914407687924784, 0.3676120483030912, -2.0988247520583574, -0.7175541760157736, 1.534673078661678, 0.2579441179241169, -0.8634171660788461, -0.011356574557672711, 0.2426438601326863, -0.6415104054308927, -1.7844676034094544, 0.25623796579644187, -0.8178892318184048, 0.12228626932080533, -0.08104360401079967, 0.7214394200874132, 0.18780307526494466, -0.029629562071611763, 0.49062948603813317, 1.9585527145414072, 1.031932588522195, -1.1482229317687247, 1.1583736152850466, 0.8374850553047675, -0.6394575928761004, 0.32319190624519645, 1.5324830207787397, 0.1556716428874488, 0.9948376936435667, -0.09210213066821168, 0.4978146317397999, -0.7095483454912925, -0.6426860342656694, 0.8477762186245897, -0.4971906578497392, -0.5685363312250103, -1.412395111932951, 0.38661364579748425, -0.6558039504789425, 0.7720003478589658, 1.808753706152437, 0.8642349094243799, 0.3027649332203748, -0.9125441848420242, -1.8578291348614355, 0.07519227316790106, 0.3222469062822669, 0.4129675096590501, -0.06800648392103448, 0.2397604454186123, 0.04250834278543834, 0.31431533575545084, 0.5658535936121808, 0.26472779966392823, -1.70425618905574, -0.3949312498175313, -2.262742164400954, 0.8791310662918231, 0.0566954399210841, 0.5453567659557276, 1.0065887913460068, 1.4544733205844937, 1.5986917594564298, 0.334582306777254, -1.2133516549891454, -1.7507053701612119, 