[[[-1.507901511526795, -0.701838464186518, 1.4638550809273105, 0.12419306425798485, 1.0233190574032045, 1.4915265135048041, 0.592880715684574, 2.1703464433582274, -0.2749296979093459, 1.2154970538789849, 0.7107127391361228, 0.5530864059065627, 0.4857030010902126, 1.054525521221162, -0.9312895370132013, 0.8648664113656099, 0.8987406279299606, 0.003033267342582815, 0.5179118302255841, -1.5079770265228671, -1.12054020854098, 1.1374755435589767, 0.10397088074314108, -0.2798592503129964, -0.5888452255772134, -0.07598624814794017, 0.6418887233932502, -1.3929355966612524, -0.9531001909450139, 0.1549160093653481, -0.7569552791882073, -1.1595727135067337, -0.0934289965634978, -1.0280592184210704, -0.5875439747197619, -1.5871598654579628, 0.9346972474557036, 0.5589905716182795, -0.510323681858227, 1.9187146602089502, -0.437141526310577, 0.25182608562619463, -1.0530214261644952, 0.512922403093595, -1.2023691258143605, -0.9445928597332568, -0.23629456424649997, -1.1310838117061086, -0.529831386873371, -0.14979671244304324, -0.007069441500919497, -0.7673144639644475, 1.0016959852118608, -0.7119403471217652, 0.3267947572367915, -1.4557309383665746, 1.3363739815496205, 0.03226876084365938, 1.0170182439418336, 1.367056907754238, -0.6557206320075701, 1.3826048315487875, 1.276326555591153, -0.6669242906877405, 2.26121441102535, -1.4067380432542298, -1.262863402777759, -1.1473014169250593, -0.2594509191997078, -1.0119752294712872, 1.7904945348675414, 0.4914961595514677, -1.5743673116517563, -0.6367159236507165, 1.2501746261646547, 1.0096846500723293, 1.4060215517131731, 0.4184039321034831, 0.775216573180061, 0.16996129724908693, 1.1391506646192802, 0.5663892780906555, -1.4500902208016229, 0.3943594480887915, -0.31404451349549367, 1.6027396801339542, -1.0898819657663856, 1.5332732478081765, -0.12631532029379858, -2.4050946842361283, 0.877340476027356, 0.6385324709511996, -2.229378255673868, -0.2204694516656434, -1.403792066064372, -0.06533718867248918, -2.0519224845072443, 0.8085545916977888, 0.3706582751830152, -1.605234510096947, -0.4094274479332714, 0.18512374236787757, -1.443478921837062, 0.513502500888494, 0.2630116997898704, 1.7178837616177849, -0.5275338230505653, 1.2984720605438713, 1.0518948449507597, -1.6180955501014083, 0.12118365410483008, 0.5379222581544948, 0.4243242058114127, 0.807147719856353, -1.215455619898891, -0.8172051052114335, 0.0716249305013948, -0.3107880159618321, -0.7901090515791283, -0.20001118372606405, -2.165685271852481, -0.6187966871513539, 1.8025632571275816, -0.674863789087978, 0.7328759517489131, -0.7079715310120683, 1.6385879542400288, 0.730135281042279, 0.35808574111080016, 0.3203001686268396, -0.40190035319282924, -1.0931753500894612, -0.9695093487576368, 0.704949369059624, -0.24041637142790262, -0.13952703091979066, -0.7208582884471798, 0.016729985075080195, -0.011338692209194591, 0.3994386856028826, -1.907382875444464, 0.16159453221382267, -0.5686362137275358, -0.21462122366240702, 1.2425914512682588, 2.309817215594479, -0.11030882151727155, -2.3515226485302154, 1.1583458572172165, 0.3446112348427139, 0.4695613734026521, -2.8926960463921767, 0.07675432609501444, -0.3238207278426261, 1.3793162505876388, -0.24035082709248387, 0.27435192244847606, 0.43570838381894084, -0.8425293537678525, 0.24626140048340392, -0.9730534982001471, -0.9599376097704985, -0.5444341415019202, 1.5175288033822636, -0.625684250060288, -0.6732228619337403, -0.22174118219314123, 0.5582375178270947, 0.3708144504042916, -1.2761258272918798, 0.7899235305957472, -1.2169958920573807, 0.2800208370072623, 0.5326287060124442, 0.5840360817769353, 0.32112314646383733, 0.9600471906780838, -1.1426580074353205, -1.3665853581430019, -1.3931428403187502, 2.636514532196921, 1.054216743041032, -0.8422177489373737, 2.140809801527874, -1.793160797683551, 0.7899749723051432, 2.7455408847705205, 0.4559701763928872, -0.7957591933599882, -1.8522016214322412, 0.4840661423137856, -0.6840874215054061, 0.6043202937612728, 1.4396370430266983, 1.747347605064011, 0.21897446810910326, -0.10708315846782583, -0.2467512346613772, 1.5479904915220917, -2.042827522644508, 0.18293214633637048, 1.689891177971946, 0.42926625603741203, 1.5244954922596954, -1.9530377779653363, -1.2001452606655718, 1.1194672269434098, -2.3077238115224548, 0.08934357849135291, -0.06906100305003098, 0.5435960433089883, 0.6785696686608085, -0.05687506312659248, 1.0071925645440578, -0.12824090115403902, -0.38273073218931314, -0.2759999034067191, 0.06316401351512309, 0.09401866493159794, 0.6666017703708107, -1.0271182997398929, -0.6678877733427916, 0.501662013675194, 1.7475942099115707, 0.8367595523796081, 0.22069301116489434, -1.8793036716467426, -1.2149032828581905, 1.8625100688762763, -0.5960147012735768, -0.2203148829908365, 1.1125252084970576, -0.26684194851583143, 0.9796320873253671, 0.5456819306631285, -1.6497223284758058, -1.0399126768878681, 0.32483305708894056, 2.0378053559777207, -1.5099638016943866, -1.0927417986145964, -1.8081837178198257, 1.3060339303899242, 0.13093281336905452, 1.2540438368671292, 0.5875010471698175, -1.9695969679336733, 1.737903482732211, 0.7990496903183786, -2.1721298102354702, -1.6677631316911514, 1.8467494487693057, -0.5016606791277234, -1.0377822160627643, 0.15037984431224702, -0.37756484762765713, 0.9716756263366261, -1.2192647332998585, -0.23008004501669183, 1.7956259702891135, -1.9335733745312027, -0.9611766918062996, -0.6715167598439277, 0.2115698335321226, 0.5035259866757947, -1.3518569457700147, 0.3897066430607389, 0.3126110792366574, -0.8854917323492472, -0.5104579121961856, -0.7469409498246085, 0.14207997162337382, -1.834962635589551, -0.06466493507568671, -0.5616534871071311, -1.0187606223825223, -0.24884337886384653, 0.6380041529037596, 0.04421468240083115, -0.6279857727286566, 2.039208027525782, -0.759100239180739, -0.7391327034292624, -0.06326851048089092, 0.4402060031475785, -0.3540171452325773, -0.9846267501834529, -1.2988425675904043, 0.02762969382315564, -0.685904581818944, 0.27274237717400307, 0.5405331280709543, -0.5420562235789979, -0.4449192264214762, -1.0846917919867063, 0.11802201308738486, -0.9487589993795849, 0.13337033886558522, 1.9280936339071748, 0.11125521248749592, -0.2971312864443007, 0.9514877388024032, 0.15432310038740013, -0.9496632831874442, -1.8522230884172635, -0.49504305869172915, -0.13763059663900812, -0.9369757254654572, -1.0755166281686488, 0.43734296209955176, -1.1773537191408827, 0.45739132460194837, 0.26907121872844253, 0.07342996189862495, -1.5704982272909518, -0.3109292449663827, 0.5743302679906899, 2.220033560121432, 1.0358682856439156, -1.1544553824575774, 0.9706402491079469, 1.071091099610353, -0.2618692649998775, 0.9885366268966224, 1.263143687052123, -0.9576253556957994, 0.9899805835454719, -1.3480434111358113, 0.6207431109831378, 0.9475952064471695, -1.1026416493737967, 1.535696895209387, 0.9492451049435081, 0.07903018028407174, -0.8186234635143569, 2.6888327743885965, -0.02751426097393797, 0.594816338860066, -0.11924159972407074, -0.7872450750474581, -1.069440042467135, -1.2028214666926973, -0.7411764592495254, -1.6555069627320083, 1.7769837885102486, -2.0913808331634742, 0.40145008437449475, -0.6153089940892585, -1.0419411896629815, -0.6662657048736318, 0.6499816879964084, 0.8003729121895606, -0.07956987481135497, 0.10018817723740839, 1.9766295119616797, -0.9923240131219966, 1.4827304962028296, 1.3735731308516241, 0.36269838260799125, -0.47692930897159674, 0.58476358063249, -0.8510855317644157, -1.3477092559759671, 1.111205983572611, -0.5087417402429198, -1.227963916366691, 0.35917367619671997, 1.4035180903833135, -0.9702799068775994, 2.31906506506504, -0.5632845081830968, 0.4127072045792373, -0.5937039780724787, -1.0437415303961308, -0.08183895800781599, -0.4322784816728109, -0.504236268757753, 0.5984773234719595, 0.6121839014231916, -0.8975523024948424, -0.16840426778924045, -1.288129157091807, -0.16673036078015246, 0.03221045123102187, -0.07628625399268608, -3.0184596773736985, -0.10214195269480891, 0.32228621410190866, 0.11034190810939087, -0.08505087356215657, -0.4721050218376042, -0.34629313249977706, 0.18793362909688469, 0.8829847717243517, -1.642557087002475, -0.0195401212505648, 1.1605663815063516, -1.555862609842015, 0.7737186544252007, -0.554009435677342, -0.0806252344473621, 0.01066079076179808, 1.8911259668402063, 0.45381691432257437, 0.289562607390707, 0.25016273996190447, 0.1993070108879622, -2.323897819858558, 0.9589119064662063, 1.3040138939230326, -0.5787971558736807, 0.7720270252170458, 0.1563359651963959, 2.7558100035460975, 2.33631726585059, -1.0334010742354625, -1.531218476699626, 1.1299352526389197, -0.1948640846214475, 0.21546514635531466, 0.37009460349671336, 1.8721341870541524, -0.5307356150535698, -0.23547093655980217, 1.19323471044282, -0.7975316638329282, -0.9776885409464102, 0.872611784991561, -0.22005439849887742, -0.436491686985297, -0.8716216251516613, -1.197219777503248, -0.336915342221284, -0.4016320188942871, -0.9504683978189953, -1.4159066954733808, 0.635726743942457, -2.2186900438222463, -1.3420573920881003, -0.7645935943585636, 0.7165183666363192, -0.08908032854017536, -0.9899253920667039, 0.20182426706963386, 0.8137225134255904, 1.2875960405502718, -0.28291626223237265, -1.5736775401391834, -1.0007106209821353, -0.02296863710613821, -0.16691654309833, 1.3981811349651005, -1.7872630044019273, 0.27768523863640815, 1.6234550647781438, 0.3195241319290963, 0.5103025759995345, 0.08248740957295911, 1.8548204253629714, 0.14832681152734614, 0.7534351995208967, -0.22931419745142034, -2.3982115594141113, 1.7088939044898455, 1.6155252439824153, -0.4661770041831055, -0.27117820493081213, 0.6775161658362301, -1.1363588568540737, 0.2605452302285894, -1.8274406403169101, 0.1550460233972474, -1.5502367276520626, -0.21409956200608493, 0.35462278984750695, -0.5829732401550516, -1.131720689675945, -0.6746634599081103, 0.20755728942741458, -0.30852616333651894, -0.9864055670419518, 0.7583979451600773, 0.46609668429628964, 0.19789516618097192, -0.39876057244780666, 1.4056494857457795, 2.3926763315502133, -0.579932587054396, -1.7936688526742568, -0.8503116017757986, -0.4499429383860285, -0.15306805329459583, 0.4344663267835207, -0.6272057942041811, -1.8790669767181831, -0.1469283716485941, -0.07102025489671054, -0.931718664776064, -0.7621712616266549, -0.1556468806306651, -2.2163359644187377, 0.18172738888260093, 0.5843033621821004, -1.282547981802645, -1.3345586193628147, -1.1976679730687279, 0.4688942849659793, -0.48852401618710173, -0.2620763663810813, 0.5898800345770756, -0.9323153647634476, 1.0235576435268179, 0.8904739594119369, 1.2761177123201566, 1.60118979098099, -1.1691430015069877, -1.2015306927276386, 0.40759889945443367, 0.9538997324566567, 0.40415949496770204, -1.0321071111214364, -1.7972510429962596, 0.013314457701321149, -1.4728507376795714, 0.7118738428608133, 0.16257567878461454, 0.9322137018616233, 0.5873266533318174, -0.1329099731279897, -1.2121898427398696, 0.11368030132173614, -0.9343986653783433, 0.7461726249573076, -0.462842013890489, -0.5663677451326522, 0.49395804361035817, -0.3341561714194294, 1.243120467640697, 0.947090965316037, 0.37366601676999395, 1.187405641366903, -0.5446692886009037, 2.0373578400548995, -0.633914560055098, -1.218243791470495, 0.7812225429795088, -0.9817581772151673, -0.0036969359009367667, -1.3557635094284992, -0.645121675547878, -0.863467794245568, 0.5390819308288273, -0.3671803021082818, 0.7721276183184022, -0.72883592972836, 0.23994722602035876, -1.17859065593326, -1.8829029090371665, 0.5109367126686065, 0.9842329596395009, -0.906631961451926, -1.5373998263407807, 0.8752515664922789, 1.0396926540980045, 0.8839098780714907, -1.5677005408916567, 0.7478623759475763, 0.7540120723798042, -0.920185793065221, -0.10688733519068638, -0.19024204899999245, -0.6798972048082123, 0.05070028553278762, -0.04594577947528518, -0.9910938238292644, 0.24813135670198194, -0.9759466097555832, -0.17990786978976225, 0.12032608675863028, 0.8265798744299067, -2.5503972007440607, 0.13362822300569943, 0.8557316663260507, 0.019156620314026467, 0.07637109770516272, 0.5685990784381865, -1.6152331670085371, 0.6381843204186286, -0.16511713588109847, 0.6890388977323896, 0.21159735014752565, -0.0339804228302833, 0.744978267469755, -0.15437513767090455, -0.43003267267245726, -0.5053744289871964, -1.4066109250179673, -1.9435103053387444, 0.03331382117383265, -0.7342287688481267, 0.6873807233237107, 0.6487571748657829, -0.11536745943499567, -0.25364153968213105, 0.20410938839373557, 0.2588750468753455, 0.15317285578421252, 0.5260555885639137, -1.6859839537029995, -1.2025655924213827, -1.7211044264916737, -0.7758586762167993, 0.627800404864513, 0.16785074090354654, -0.09156698579643588, -1.2337366987724177, 0.406004703770646, 0.3613220849071168, -0.18606639445535733, 0.01787699724042732, -0.5086943976157313, -0.3329499789473848, -0.4467599766224348, -0.3775158012188694, -0.9674977124620037, -0.3674531934501058, 0.07393099495538098, -1.3660567913970758, -0.17139950817140873, -1.4191079212849473, -1.8624339815608901, 0.01645038061150771, -0.18236518840965676, -1.1368492675301207, 1.33738363241933, -0.32202708698603977, 0.6352018820720144, 0.6586393682409114, 0.6065563095473933, 1.6871168399914862, 1.3952495562295202, -1.2082585002083595, -1.1043992513614187, -0.41680361708316427, -1.00370136812466, -2.2258590035814225, -0.2093740507404063, -0.6416661674757816, 1.833332615941043, -0.28399611718053563, 1.0153259968111819, 0.8170066321029317, 1.3542295315095156, -0.02347802602137381, 0.012928504864186867, 0.8745577132019395, 0.4248200770772264, 1.090018525253823, -0.34380834765533647, -1.1603838255837138, 1.1493343563320817, -2.452582539440458, -0.2285536344592361, 0.5077482275985394, 0.12958046956322716, -0.5863591631034799, -0.8100411614076721, -1.368293842321694, -0.034728733686138935, 0.6889064751187732, 0.0907618859103943, 1.6513232353233007, -0.7082698165502654, -0.7479971432198136, -0.8060358376233604, 0.004944052539589891, -0.4708989390023085, 2.1298954935779584, -0.4217752029132892, 0.5390429700473106, 1.5383777808666543, -0.049602086927306166, 1.4833090090388985, 1.049522614203694, 0.00808222294329684, -0.5526149022957761, 1.3628530626021482, -1.3173100725041733, -0.33255086280713797, -0.02964342647457211, -1.2106140898836928, -0.24194959091251408, -1.1396626161713606, 1.4773417995698161, -0.5309677873517006, -0.9643501982935888, -0.12691743219182897, -1.1825912335913087, -0.1334735228162248, -0.34436783199303966, -1.6729298063926938, 0.16948246610375214, -0.3471678798953578, -1.4414397354205217, -0.36404256694884696, 0.456844529166245, 0.3454182499975184, -1.3372566369792531, 1.7176209269512828, -0.23954527984027923, 2.176384201252902, 0.5703996513116397, 0.8306954310758863, 0.5557142721239656, 0.7181464379113931, -0.31205182967977985, 0.12026553739329146, 1.3230542804786694, 0.37688733752746856, 0.9090969265648046, -0.7623171295248202, 0.37065607290095887, 0.74605474816776, -0.5456891239777827, 1.0470033691151621, 0.5396588899939794, 0.1544057279071599, -0.3204726357628068, 1.1863401123860853, 1.7972779420727618, 0.6980563031091225, -0.5568987619604312, 0.7505015585435356, -1.113900338421251, -0.6541859746093228, 1.4351349303173455, 0.5134374412898983, -0.0013772083277061272, -1.482990632564327, -0.6445521222585175, 1.4204412198406933, 0.30917558555687225, -0.1886644265180108, -1.4504991488041628, 1.2985331252683026, 1.0475431249119902, 1.3870683809433886, -1.4837757550852242, 1.3348913303183094, 1.0431647725589024, 0.07014487853818092, 0.25987882858224765, 1.5152697798494381, -0.5546659135915203, -1.473441548030174, 0.0865079544933255, 0.7784990235591843, -1.0291135514601606, 0.10798046033568204, -0.8487861248003771, 0.4308037488869367, -0.1984793156077605, -0.04165463910944446, -1.5573079971328763, 0.4533337195004814, -0.5989629591490357, -0.7706275460016981, 0.4134768594698567, -2.9601827354211863, -1.5501085073490035, 0.608218228723104, -1.5309645161601904, -0.352144285060764, -0.3712498306639512, 0.2914016289511662, 1.3725775908861564, -0.909751002387247, -0.18781586763729474, 0.31078381523767695, 0.6680635066007524, -0.9925620709895032, -1.7634873175311965, 1.0076468211836023, 0.8634111982752983], [-1.0450716917032403, 0.38361873790205936, 1.660309621720537, 0.95871514473597, -0.11950623234324545, 1.3586391896561374, -0.47207277778414086, 0.8255836529306744, 0.8978912491479375, -0.43794775849525086, 0.24583075134756882, -0.6759050981082285, -0.09906819878974693, -0.26780608884809004, -0.30590367599285484, 2.3682866111857255, -1.730707463379988, 0.8937610048866997, 0.04299221774259295, 0.48980660780598223, 0.10180282345973125, -0.6478287668990413, -1.2905202958792743, -0.7834933834539827, 0.299478171954015, -0.7767973329074556, 0.051481217898244294, 0.5405399774508328, -0.34032580964773146, -0.053153835409360896, 0.523472657246536, 0.34074343602767215, 1.1119101645563347, -0.1921848188596413, 0.4954002184193726, 0.8519250265702536, 0.3842500726894524, -0.3310282282402251, -0.05233579219244583, -1.2558477059536977, -0.1375554024829547, 0.03701273335168331, 1.4322946267755245, 0.657648923223048, 0.21675288458036013, 0.08744140224251762, 0.7350449957992238, 0.5531393403937258, -0.6226318633664442, 0.22539623344036924, -0.8271103063595746, 0.30290961346763207, 0.9898357633798688, -1.1916085703368058, 1.0848047042050941, -0.8671514251812666, -0.25598954467024526, 0.17821775788618854, 2.4457740189888693, 0.05286477607921826, -1.0235861560664594, 0.4738567736020332, 2.9844155253462037, -0.46367738703708156, -1.0335087397326521, 0.46496654922989383, -0.16657980928437313, -0.5805722023416611, 0.6671631294478398, -0.8092688740110557, -0.39167285705219884, -1.077684740314294, -0.48687533881581263, 0.39226790062842426, 1.1986939669806989, -0.13847511772229967, -1.6045042845463005, 0.6816196336743289, 2.1457952794355917, 0.8167694021549722, -0.837950573090225, 0.29513948532952183, 0.08078859602735665, 0.19858832357417486, 2.2142614858574596, 0.6200868639072066, -1.4960693706117292, 1.1919274008808807, 0.27366528654974603, -0.23781594960703945, -0.45308967118281573, -0.4615045660569597, 0.7358980953015137, 1.078129713546027, 0.04561528128726971, 0.38470814827126504, -0.7033331654248975, -0.969128590493238, -1.2828784641139768, -0.6666720283294434, -1.1520200592578977, 1.1062389283665295, -0.34345141167885307, 0.4752533080174421, 1.3857239138319881, -0.6399925183006452, -0.2448369921276063, -1.3220270268312253, -0.8131250980519628, -1.8736166820460218, 0.8548739628252993, -0.3948801854230827, -0.5182471495654245, -0.7780701204372603, -0.589078640744806, 1.183118654031094, -0.1034685082157143, 1.4056957673458654, -0.06657665975140539, -1.5020196979967684, -0.7697844585834497, 0.056143223763759846, -1.2778412969552253, -1.3971812892272888, -1.3174071872273905, -2.100225653668288, 0.032611251809578724, -1.1757709679022257, 0.6903484323984229, -1.1970153060483109, 0.48735765011857995, -0.8645633176962644, -0.6765692011543911, 1.1378869428868827, 0.4540417591476776, 0.69004272196123, 0.5220819232215091, -1.4428686945028335, 0.18036981895379461, 0.015745704130704245, 0.16841184078941207, -2.218674786028923, -0.530465535269277, 0.755969234465805, 1.5392202373150077, -0.5142838871205921, 1.968786984506553, 0.03979887765540908, -0.4935139417758397, -0.11238388389852447, -0.06257575694569004, 1.5203660335312124, 0.7111648975051357, -1.1610334810274061, 1.2019201959056192, -0.031269050492720905, -0.41040147151497525, 0.9085516142388006, 1.3168063156274186, 0.6075394485287198, -1.2539973456129974, 1.1882350136453044, 1.2226212736018527, 2.085664003941248, 0.5844200399502752, -0.911170455110986, -0.2650030889732374, -0.3121577889710614, 1.2097089469344766, 0.39587880751973903, -1.52214346290034, -0.9252094165992896, -1.1131465799738682, -0.46219667815533527, -0.49048259061851246, 0.22417940814110704, -0.629860652207878, 0.7135014076578129, 0.5490313902754091, -0.8363339494914875, -0.08998599029495494, 0.6288119983461037, 1.3922234962450495, 0.540504931094954, -0.7365604957020028, 0.16099306311351816, -0.6337524323683909, -0.2553191682547661, 0.9410189530135306, -1.498282925966274, -0.7320888569753798, 0.7974659600702207, 1.609999063847425, 0.9146713857589893, 0.5627386308030972, -0.025655251427058663, -0.03684901954990759, 0.6723032487946347, 0.3330021985202608, 0.42162006701568366, -0.5593074354918848, -0.9766123375391231, -1.140632215373837, 0.8279001598143934, -2.2249013124902786, 0.1988864403760382, -0.0009023816949487622, 0.37362364204922066, -2.048982665833817, 0.122209611011025, 1.863220052789799, 0.9715344993134573, 1.3863725633291766, 2.1323446902061765, -0.7511386584512028, -0.18656086193671692, -0.34493962972426717, -0.47368000513884584, -0.7507792238014365, -1.9859592888900022, 0.2031420806828006, -2.035508312847332, -1.0942454380411015, 0.8783900281053028, 0.47192575963218836, -1.2920100835912864, -0.9072779575716542, -0.5223635762286557, -1.4019812882950027, -0.7790980711033862, 1.6167892990041948, -0.25073955566612866, -0.9175209830060012, -0.07436046591230176, -1.4957317352305086, -0.65011943393263, 1.1449787127388622, 1.0616532361263213, 0.28743901237242603, -0.3361981457011609, -0.20249680644835863, 0.4406504938368477, 0.16591274087589475, 0.4431546267544703, -1.1143733800832005, 0.3194287767417997, -1.8323067923754492, 0.04083370378125763, -1.0276025313444053, -1.7362014085709996, -1.1250405501394802, 1.8287123845646245, -2.1881055482898493, 0.5629741149985834, 1.0271106580873828, -0.9668162404309462, -2.0746632854914244, 0.6391511875181035, -0.36630001960133823, 0.5602004172316842, 0.6894750537190124, -1.088664853741221, 0.7767653633911122, 0.3277537447837607, -0.12841195079388049, -0.7516646984000046, -0.265912058920479, 0.5133992838891585, -0.03761036758635656, -0.2502684881805373, -0.2658320627700132, 0.24033874934516475, 1.311723492226614, 1.239099527579108, -0.2601461851510908, -0.5687832035844248, 0.22761158031724157, -1.0871398543997277, 0.7146632599161036, 0.08967974896389004, 0.33687048175543255, 0.9519131392604688, 2.034114821115742, 0.7728490587393403, 1.3243082692613424, 0.1840908093368303, 0.10783258763379112, -0.10948959378877116, 1.1991563368383646, -0.14904479458190936, 0.8219998868455247, -0.662001551610052, 0.11735804531407072, -0.10514038683580944, 1.9006451945331446, -0.939538791074408, 0.4986703790000455, -0.500766451030951, -1.2010626527145347, -0.31673752377074127, -1.7538799453851064, -0.3504341828141958, 0.8183428491971432, 0.5885659476649628, 0.8800898917569071, -1.4945158575987163, 0.11914000131600315, -1.6331076604569383, 0.5861297091132, 1.0693428449208089, -1.693254881004328, 0.4739395241751642, -0.31521721704201006, -1.108663930472741, 1.2711400396017183, -0.22221793635669107, -0.2700068980333781, -1.612371862099531, 1.1262147835127538, -0.5415700382303261, 1.296621654113132, 1.142217722116088, -0.6230027526910052, 1.7428475264829233, 1.1676070428189491, 0.5685306189679687, 0.11509132169212992, 1.1471803334524997, 0.4400555649667697, 1.564815821449707, -0.555737400721802, -0.3979396592583472, 0.6556175898834105, -0.6562381326774102, 0.010315015490515141, -0.3621994739290376, 0.5136152482201417, 0.43622634825852047, -0.0008814450089152392, -1.8181605225963047, -0.23393345091800388, -0.5751028570471702, 0.13394898838907518, 0.1830577277150091, 1.0983952209568848, 0.4833523114474759, -1.836023990072523, 1.180453335222216, 1.8306151906550954, 0.14475308592070732, 1.9934685071248357, 1.2794687196593395, -0.933154952837906, 0.6679601119061963, 0.3693863447784957, -1.720116893723561, 1.8045503973565067, 0.40756397054262705, 0.6401509985536848, 0.2102656001513254, 0.3591224755006541, -0.428264639978508, 1.2242538793200457, 1.0886628887148944, 1.4249469963346233, 0.6558517310603251, -0.974665134484134, 0.8060583974259438, 0.5752110677784887, -0.09630863273513973, 1.5017808625220894, 0.7060432219492768, -0.016954953565971903, -0.5460317046713747, 1.0888169738427367, -1.185637697340835, 1.838776601062243, 1.6816667331929191, 0.339134553902414, 0.31566963173240487, 0.34523454771356754, -0.8821999638610634, 1.9034385936459672, 1.8676899088995893, -0.38546138359317955, 0.10739417041053255, -0.21920665799250333, 1.6644231545852315, -0.4471685327683694, 1.0145652484946064, 1.0431982080001776, 0.274379098522377, 1.9900647173419441, -1.9111876778409447, 1.8671751185675878, -0.8242557290698259, -0.7980784238019092, -0.10041945476179003, 1.5598882931297229, 0.13820295538263846, -0.06273821436903855, 0.06319542445189935, 2.4283964974223893, -0.5771932337652571, 0.30616708289857836, 0.032409888006558786, -1.3508377420526472, 1.7437219194068656, 0.4536649208996803, 0.5225559613157921, -0.9789873500156379, -1.48888448083045, 0.21989936863669896, 1.6110344864511403, -0.038334254682151986, -0.26915728022755825, 0.800353707921821, 0.4025837436379035, -1.8119182314890554, 0.5855391057951771, -0.26255923727670977, 1.4629326304015635, -0.3813990307422994, -0.46535009308896724, -0.6028904781582584, 0.5102918808211401, 0.7313979415487069, 1.9281976328587236, -1.0135843400987201, 1.8152373734933405, 1.158105653409486, -0.8441868138301363, -1.4557967587937994, -1.5060218935320782, 0.8255590764498494, 0.22182813232313595, -0.13834218282757893, -0.0958894251915504, 1.2961625546013094, 0.3783779834995682, 0.24395868883357139, -0.9549986754230726, 1.1276514270364397, -1.1440812508306746, 0.44618162400646294, 0.4637552196128907, -0.10845715034706974, -1.7663294210931144, 0.03618510348112863, 1.4004413844565227, -0.2429310355919594, 0.36514014887747076, 0.04726381205319005, -0.007547118656161934, 0.22914807313527769, -1.0826901787667913, -2.452004499991804, 0.3395637739452856, 0.04738719878572503, -0.6471501549843103, 0.01585358386817166, -0.10096583225068687, -2.363642339806404, 0.3677335585448654, -0.006673411460684487, -1.7300139038842688, -1.2117403454539577, -0.9274006992570121, 0.5975172972072662, 0.9589791091860732, -1.47230707799188, 0.863492043567486, 0.210981112555781, -0.2386194080254352, -0.8840882630947365, 0.07189583220266418, -0.4170046796878236, -0.9144969680910309, 0.0045537805799800895, 0.04096788106765053, 0.7066819832216386, -1.5038607530703103, -0.13339709119426635, -0.32910575617470705, -0.4101291522274133, 0.724166386265719, 0.7804741775183155, -0.948365461812363, -0.301479734377705, -1.325585665743475, 0.05147874277142276, -0.42260495384178565, -0.20111467424416743, -0.20090604928247738, 0.4943823708788393, -1.0184810842296228, 0.31647675419715376, -0.4041132273635516, 0.5823384025123307, -1.7136414950433274, 1.0119346654711634, -0.061065058457463045, 0.4278117330834209, -0.6363986409874399, -0.06565917066417053, -1.4744563767403298, -1.0208772951576384, -1.516894771495992, 0.2974557091752465, -0.8413117307953715, 0.3034105239230508, 0.027364412559195174, -1.3702285415814401, -0.9385800806494239, 0.866495468843744, 0.8952391886705114, -0.6192284146764998, -0.9650312676291075, -1.7442287563574328, 0.3374316733417712, 0.07391973475210123, -0.18668322478696128, 0.5412254941814792, 1.9336076030212803, -0.021930656932764327, -0.45528855787336814, -0.8411223252883199, 0.21005810384191256, 0.9073433712475995, -1.8630680397869683, -0.6204192351542978, -0.04895125127922727, -0.264480169227919, -0.07442594771130881, 0.07098179997075375, 1.0146056750936954, -0.4332332323689646, 0.4582304040489446, -0.5186749572445812, 0.10400211683831653, -0.47176733937777776, -1.0299578741862359, -0.7413736310976535, 1.177067086649378, -1.158001142627513, -0.46253534085417836, -1.2336205707339984, -0.9449512616056032, 0.04691683936609272, 1.9618975509060748, -0.1638525536120558, 0.053315993942297704, -0.7654545193490062, -1.5919420741668386, -0.07199757758421708, -0.4574329675784261, 2.477797899230282, 1.6068096682690733, 0.6045523904019617, -2.1579723357813583, -0.8787750429105133, 1.126554010547319, 0.5626447734060843, 1.140156839091368, -1.1765586849363612, -0.23435832330778383, -0.6238562604550029, 1.537652868832557, -0.12089046722603204, -0.4818317468159391, -0.39288393914832714, 0.21380613000755788, -0.6463868052959982, 0.7649034565858482, -1.3810595843701254, -0.6971956805097108, 0.9166736975252601, -0.9295694901140525, -0.8349404709605125, -0.7548949109037504, -0.3584720983798233, -1.1395977544460358, 0.501191315752103, -2.0978436049561484, 0.5704512412684074, 0.32110887123151405, -1.3246269981972953, 0.8169301854095979, 0.8722314554217913, -1.0879886950223299, 1.1881768719019088, 1.6771065484076229, -0.4713997352207963, -0.19434184009034824, -1.5500734097129854, -1.0022677891698963, -0.25771071435958326, -0.36472376950844115, -0.5720487140083, 1.0344169500697575, -0.604833343272482, -0.6935027468025817, 0.33994444384067396, 1.519276831061601, -2.4240000333788294, 0.8098134733418539, 0.215188101978105, -0.4843595444709069, -1.8378518710112364, 1.0956001939895472, 0.5575639835644502, -0.6861913526773062, 0.42399538344823595, -0.8589984872884407, 0.16748442305032976, 1.0969025155931786, 0.9869656916976182, -0.5428855766199409, -1.3783621839880191, 1.502659556676795, 0.5064227806917895, 0.5418693000074195, -0.9020048172914202, 0.5335789473039007, 1.7575118675969403, 0.333849137550059, -0.44785950579193046, 0.25883887210176604, 0.09288483833308687, 0.6538112136301557, -0.6299098285326338, -1.115235418990521, -0.6066539510977423, 0.4796519957023758, 0.42924614758941665, -1.0320554114217608, -1.054910333360237, -1.144015217756408, 1.1838329737269362, 0.7297975851056984, 1.1733511686317366, -1.2879143220545284, -2.406073607851474, -0.2176392628513837, -0.7557450284417983, 1.1799294294026543, -0.52492064521822, 0.20375695437291005, 1.9335850354042545, 0.6117779127057879, 1.3714349653947484, 0.3384782509937452, -0.7904574857052453, 1.5001108802415954, 1.114300722698809, -1.536933520619721, -0.8263633026880757, 0.22960763520624383, 0.7084259305652393, -0.841379008870055, -0.22141735659639408, -0.13637960544448854, -0.1856660490412244, 1.1618382259085693, -0.08932031744512589, 0.5518507268921595, 3.297028442782136, 1.7614034321022287, -0.1270205084635068, -0.8258892883117378, -0.3246049802196833, 0.8277955532878012, -0.915590300755592, 0.9247627497303753, 0.1607379058406045, 0.7454850822764542, 0.6802099151616194, 0.18866931311938956, 0.4654720603850781, 0.8598451367043564, -0.3613119596345996, -0.10844615578079156, -0.5357030345715538, 0.9133385653523813, -0.41617329773367473, 0.8381059318744801, -0.47374317288093926, -0.07625479051266441, 0.41626025092454194, -0.3589965372637693, 1.3866750210518206, -0.38238185931792434, 0.3465674195749224, 0.34023458101311793, -0.6342870013193945, 0.46774284708147984, -0.48871741900947985, 0.9208322072215717, -1.4478646949730885, -0.04414633077602238, 0.9373364096860177, 1.8469805363090381, 0.2101322775395552, 0.12159308598346726, -0.46619103008223345, -0.9463442988315776, -1.7522577964981765, 1.64458768464928, -0.6076339940277247, -0.6757737783220547, -1.622174365743892, 1.758105676134696, 0.8100980778936356, -1.1275192863835029, -0.8453846809564111, -0.1423756123645199, 0.5420001632710442, -0.2784335471985602, -0.37439880803465764, -0.8159685017338927, 0.44394162069841564, -0.5909639593580867, 0.15097347619308213, -0.7114954016657858, 1.1941397564333966, -0.09836450266666548, 0.7491652741782178, -0.9120890142468017, 0.26227669887597554, -0.6118916233779239, -0.15261268729590288, -0.5577674066656093, 0.11959630312463569, -0.0498364141472606, 0.7773139707075069, 0.1879896957217175, 0.0618688165488044, -0.9885827482242463, -0.7674321732041034, -0.07778296362871757, 0.23019479173593219, -2.7050374588694432, -0.7213520486620155, 0.10363220035792055, -0.17042071740133546, -0.15998386182324548, -1.6420685191476094, 1.2961514588638505, 0.7273577484519236, 0.5983445528894757, 1.2873424398997746, -0.7643883503034383, 0.2493798312348997, -0.6850904621910477, 0.7535254538571995, 0.08601879145228015, -0.44450041695967957, 0.8824429448842203, -0.8229492368224419, 0.46138319795407773, -0.24465707758151628, -2.081778070206695, 0.848365187032156, -0.8395196538242289, 1.005051607308098, -1.3819904783741876, -1.2756856181581804, 0.5674150795983367, 0.9396301716972453, -1.285738053089008, -1.8706424514512372, -0.8655365736285632, 1.0078218853958432, 0.7979660868931453, 0.7850606304954879, -0.0375226185006346, -0.39012049267910526, 0.8680743874541609, 0.41449653809158116, 0.6981916933274573, 0.016058984005049685, 0.8782803651201921, 0.23189722641703833, -0.35502959060326367], [0.9532110945421365, 1.5355842724739035, -1.1516001647632603, -1.17206246003094, 0.8797835887555788, -1.3969158573800091, -0.8822163499589454, -0.9095485679518568, -1.783941384163647, -0.2033397647547759, 0.19015825063618558, 0.4964940328990689, -1.5068674834496918, 0.8782031168586212, -0.12412445674477161, -0.4834585748629195, 2.3563122309115476, 0.0870253261472397, 0.2385544912750273, 0.6636661639401701, 1.3852250078441997, 0.3246618866072522, -1.2706502455777844, 1.9801216796165089, -1.6287990690233631, -1.6660438221941853, 0.9247473716842456, 0.4085273108653813, 0.8764056518866353, -0.7446500628800081, -0.5466163575166118, 0.23922964164124264, 1.499436781289913, 0.2031381883669507, 0.26294660832316286, -1.4376539725127138, -0.13774238944985226, 0.18105356674513995, -0.4379546785338793, -0.17255661738659694, -1.3077065670711434, 1.4849319515701418, -0.6157807925596699, -0.2050354446810573, 0.7120161639412846, 1.1541329725721248, -0.16291196664720153, 1.3830796154810678, -0.6707956946892862, 2.2226977445780522, -0.1464671023149618, -0.37054017555821045, -0.3936540336839887, -0.8678791878087689, -0.8427069811456326, -0.513634580222461, 0.07137970980115518, -0.9708684241653319, -0.2853300467603251, -1.0341915533439987, -0.20865470740608907, -0.09766242461002297, 0.2648228848462674, -0.8725796675590914, -0.7124333267552179, -1.1793957953791152, 1.808510037149157, 0.1353967981923935, 0.17298166319810332, -0.23594702746682544, -0.5826180613205576, 0.9360180736921483, 1.8353349538206885, 1.2420924064919314, 1.792080275901603, 0.6847163892143557, -2.115641283164196, -0.4111348397254204, -1.8690456478446231, -0.045892379188890046, -0.8257004636562204, -0.46266030327147684, -0.9785832252349335, -0.7861751660868196, -0.13006032477283191, -0.9036215632180785, 0.8884410597101917, -1.5873735900725416, 0.5524825756046199, -0.5043695364644386, 1.1804332183918669, 1.3037164598274495, -0.23674222933130207, -2.1112427376366196, -0.5435840547386093, -0.20199529338004873, -0.4625257988881291, -2.2239871488450236, -0.3784077481862043, 0.9090262758942268, 0.2801404836082998, -1.1844268549123216, -0.593270736971385, -1.2964721467326137, -0.8570247331971756, -0.3237544678061455, 0.003450655659345151, -1.5062217824587754, -0.7450266449960786, 1.857502129649212, 0.4835544198517821, -2.4290497002603972, -0.38923580617287923, 0.37012899185985815, -0.5807518142499047, 0.47232022046969246, -1.7428882292309449, 0.6606671163583169, 0.6200412007643242, 0.052054224707710546, 0.9356125641897448, -0.010178645879661061, 0.27606336846208474, 0.3349634483757733, 0.3956657776145397, -1.1010372738266523, 0.6541929867719828, 0.2085625546408606, -0.07497432649982898, 0.5619279533680167, -0.7568243632906089, 0.2782735413644307, 2.125615173306027, 0.820214811142289, -0.014144629118113877, 2.1217080856101767, -0.5476733729193628, -1.5942602925602885, 1.4822338351486866, 1.565705924069722, -0.6722629383593923, -0.0646868591121056, -0.5815956630880833, -1.7025293021056354, 0.5284251150260374, 1.9992904107031102, 0.3008858726267896, -0.39446373408969265, -1.4926184397358069, -0.5470347515049765, -1.8235741754337995, -0.9938022343669649, -1.7078602081514542, 1.2313691301240792, 1.361827284895013, 1.6738092720673925, 0.28699273286627675, -0.07953571684613973, 0.5435651561029842, 1.2207557789323573, 0.9492837971983276, -1.3217301028756667, 1.8687405251402083, 0.6869256413033693, -0.47359860528075537, -1.3431012806695066, 0.16090575003863736, 1.3260602604059348, 0.17792854621325271, 1.309298057442693, 0.4564209134287542, -0.1948341750371282, 0.16395302875866055, 0.7985159919550661, 0.14760854658982528, 1.127218112826957, -1.1157355389676764, 0.13706061696140268, 0.1622992262625043, -0.8183888038639001, 0.010392947389464245, -0.4437539524044876, 0.23813140226878582, -0.3319303934843188, -0.5250861418203219, 0.04404554938085316, 1.2906482204192877, 0.6066875676770713, -3.301375895028485, -0.2206153989893581, 1.143110043194394, 0.29147352097914353, 0.3829777034054745, -0.8348694832876359, 0.10551727495577608, -1.0184434009051884, -2.4135219672750754, -0.2948825163317222, -0.6064693005621555, 1.0643029832715072, -0.30249458751025726, -1.898933441727799, -1.0522438684401827, 0.5810273812474719, 0.4558533237691622, 1.7963273071302563, 0.4122924648894911, -0.6348937369080281, 0.6283802017338219, -2.1738721145654103, -0.49753962132702917, -0.10816507797106675, 0.1060192522220385, -2.066527263783114, 1.313201206008581, 0.002429486055893176, 0.8530704488382784, 0.14607702457133165, 0.6490968346176711, 0.7076987282283946, 0.03627587570421699, 1.993246995215877, -1.475483214768568, -0.5372824071102553, 1.4482751840958483, -0.7776092185217225, 0.07519856616280632, -1.365404378032885, -0.40083685826379895, 0.7479641037452759, 0.08647022076093035, -0.1275750447331929, 0.8333221763357852, 1.2738343299337522, 0.4146151922085152, -0.8725442875522107, 1.3371660358649227, -1.4062202075193766, -0.03599854746479088, -0.6812802602854706, 0.6019925118033215, 1.0303961417012661, 1.9948514284556476, -1.0074457312302914, 1.27004111270788, -1.4167439558066601, -0.8507912885129778, 1.1365897026401377, -1.36251952217768, -0.682708896217941, -0.5111813137278144, -0.7808990838789706, -0.6213798722863598, 3.269413388817987, 1.4282587787831036, -0.5977138799395556, 0.8119209762572082, 0.7423248416949896, 0.2991397068440149, 0.19921060263428622, -0.2313654135133832, 1.0036007614511382, 1.2564018181903425, -1.0284184967372205, 0.22763861977355762, -0.40440579177103564, 1.5951634811183033, 0.8010643929554342, 0.7461691165810432, -0.0018738806321195417, -0.21574751331899167, -0.9790577401487328, -0.9388415533613341, 2.5949990245834633, -0.8958105707759726, 0.519953593893898, 1.629013678826386, -0.6580862949568178, -1.3625044034845781, 1.5819359821254066, -1.225258807116763, -1.283330728755877, 1.4762411395408963, 0.8960265539268635, 0.12186613690083019, 1.3545651159068393, -0.385084496773716, -0.17806590978852543, -1.0248937070548516, -1.2533169819346817, 0.4285207142083466, -0.1632769317727247, -0.0007533745145928358, -0.8508561785470764, 1.9392271902071365, 0.45579026032960646, -1.1294841438589023, 1.7664885561774035, 1.0338823293856607, 1.0057471968508764, 0.3925569404605467, -0.5369076315328587, 1.6059468235350038, -0.7020928570995596, 0.06125404393974727, 0.6276247297736693, 1.5724121324357991, 0.12868569354210796, -1.1315221400640376, 0.08915900908689378, 0.5452904685803364, 1.153241846592335, -0.4088310269443059, 0.22261878340472463, 0.47510902426224766, 0.34675198044093286, 1.0765769253979875, 0.16277210160318506, -0.22083349707415378, -0.2933728054915281, 1.2426649184486283, -1.0331627800393879, -0.6155063215924205, 0.441936039740792, 1.3023029988102168, 1.2071889539578025, -1.6115848661774788, 2.2072339109944, 0.26605703285116816, -0.7451357307961568, 1.555987968245708, 0.2782919233885419, -0.7004218491040762, 1.7542471145101863, 0.7763921205415089, -0.07488623568520289, 1.500341628439465, 1.6280931614332217, -1.144048642000651, 0.12787579124906484, -0.961766772601172, -0.3864099192004973, 0.4551124402056571, 1.4364750424179804, -1.699894856513233, 0.16222656818509834, -0.202823938298485, -0.11453964830313523, 0.15530047290986093, -0.8017203776213598, -0.6604263274717476, 1.1107840903734545, -0.03434456138293528, -0.030624286370505766, 0.866278731369496, -1.8378673393022633, 0.9358227825723795, 0.9732339539986425, -1.2165613338375163, 1.9000891473722592, 0.05199356229205289, -0.2956503113873235, -0.07273896326569815, 0.3806112349882521, 0.24259753545262672, -0.026886840735089214, 0.055330463398927034, -1.0433456996166224, -0.11730971945457101, -0.16998395391539267, -0.36836129689796354, -0.26092282709632914, -0.9665623641320205, -1.0701858640252047, 0.7859014220655764, -0.8356454346342217, -1.0801596901336552, -1.1150654502520396, 0.2825154588121601, -0.5112159614816127, -0.07713965376092044, -1.157384655368577, 0.7894340681236122, -0.733138167874322, -0.41681443299023346, -0.7792981581292396, 0.5719255617519173, 0.3789321190585745, -0.4372502819647971, -0.23702745891513902, -0.13263600854126548, -0.6833134719330736, -1.083856331522503, 1.0403116305924742, 0.36119730887444573, 1.2966116217903039, -0.07975016618744879, -0.30647848830704083, -0.7486614884139091, -0.12444054459546225, -0.1875477725918354, -0.1264673848591839, -0.8888183941469746, -1.0422911189955586, -0.8639426242898604, -0.3101163699399577, -2.3000231219176293, -0.4776936658521342, 1.0218507410219277, 1.0088267262546076, -0.18695857412198824, 1.3077494666451388, 0.15804265251651012, -1.3943126448673584, -0.14952694380484216, 0.39604301411946585, -1.0277485162178686, -0.5299197938319605, -0.5222167743724132, 1.3647089274471438, -0.6108104614321325, 0.8325420513795135, -0.21492169115079504, -1.0995430035674016, -1.2512912206620899, 1.4647163804447139, -0.2165764767987877, -1.1238635495680611, -0.15509353260829262, -0.8007392605788906, -0.21040896890531968, -1.3286555983949997, -1.788085150078019, 1.6343620890746762, -0.7758622976520374, -0.1487207266758989, -0.008308245588573068, -1.054336199988506, 1.7036554247144622, -0.18173262715509458, 0.3299439985667858, 0.6961546370862027, 0.9635977583502228, -0.25942601963679607, -0.3109702811728272, -1.1923238701649248, -1.280104468932993, -0.7515863961976317, -0.42988592340007076, 2.0992485156055243, 2.6289269071353165, 0.439766670477608, -0.8474616064087688, 0.605352251899515, -0.3355120545826704, -1.0837352007015322, 1.7373500889930762, -1.098035540310917, -2.038920406687664, -1.1998959009169337, 0.7845049308765722, -0.4463386374428228, 0.2044046706629236, 0.18324758025390803, 1.5325986380806553, -1.7280559610254576, -0.30659003047325123, -1.0363893390535373, 0.7283536498858799, 0.23918820463502033, 0.5275382270797787, 2.767588222967513, -0.5563007718891504, 0.34406528974729716, -0.08450251427040932, -0.2169792145806626, -0.2813670297706216, -0.14627773679293338, 0.03143440181309069, 0.012652654541882703, 0.7811568339095402, -1.187048810957585, 0.501918097669479, -0.3745190221967143, 1.6944026609625933, 0.05496150617198195, -1.4422352221191694, -1.3264775150114048, 0.765979444061249, 0.1207973092381799, -1.9637753347841196, 1.5465712496180903, -1.5159019788693484, 0.10708690124192977, -1.0701466997047868, 0.6125660931785423, 1.227386829001625, -0.912622326230929, -0.3780998991080005, 0.08545031309770733, 1.192030241235069, -0.3587482941005916, -0.27124105512166713, -1.3461658933945546, 1.9965322465116782, -0.008557092459685502, -1.014342145211345, -2.0911115103756956, -0.14043687908571126, -0.21034579501086145, -3.2843299386656724, -1.0068016638422814, -1.5847848113107388, -2.3212839060541497, 0.6315697307251844, 0.025068608849825848, 1.6902051049326574, -1.5638815846824679, -0.8067480956256934, 0.6423316572339416, 0.5316752388161382, 0.8191353945387334, 0.5153514119970624, 0.11281082944881442, -0.08301077394477077, -1.6319492340543076, 0.7943258258339702, 2.727645309307901, 0.9021253123297411, -0.1813223243167893, 0.3960219140401184, -0.09684319950193628, -0.06796239340525473, 0.6723202506194467, 0.816701728644116, -0.8146010627164839, -0.78897438636674, -2.017877538465529, -1.3488034814307146, -2.8071012119850867, -1.2155687321987019, 0.2214424331064982, -0.44223768050769297, 0.017904086465612878, 2.1262352185486293, 1.1111367588580001, 0.3028501201377208, -0.869107712051151, -0.42491883646927453, -0.1665626101920568, 0.7988518699558609, -2.7215530034247655, -1.0022360304797797, 0.2955750258834338, -1.1466917856018624, 0.23409355297789053, 0.07786788678947401, 1.1962244646909115, 0.13036176111328723, 1.715857352954545, 0.31370444462161856, -0.7398234388518472, -0.33430009571535896, -0.6948989308383071, 0.39420823222224266, -0.0029573492573474734, 2.21657947921833, 0.12253661384159316, -1.560190808637819, 0.2650892553830008, -0.19738902233932232, -0.29298662379423424, 1.1319715311239957, 0.01594588126973303, -1.2160346034497447, 0.10626523218065084, 0.697508962669512, 0.5603005231755785, -1.984132162387883, -2.442118351968918, -1.1437713103268494, -1.5076093106329032, -0.6633388312151451, -0.7845326773844781, 0.3702948487090919, -0.43958493126752435, 0.615137485387371, -1.9456926460219635, 1.0995342413579305, 1.2680801258390249, 1.6395980385527988, 1.0403763326154047, 0.6951270617990433, -1.2456887349814536, -0.5759628420848615, -0.3654383875217845, -0.9929895718961426, -1.315423825919386, -1.4595332814612487, 0.1739640480154743, 0.535399445451542, 0.4461556557014082, -0.9910567756409768, 0.19670334508136156, 0.2990160649775864, -1.0744463996826141, -1.0194951798567773, -0.542746210493783, 1.5185605419709827, 0.6935138697601483, -0.9922814317693325, -0.5351231514790626, 0.9395079518827807, -0.315546876846222, 0.49071228750353435, -0.644240688391366, 0.48158000638327, -0.9750920228930133, 0.39118942904909654, -0.8012747282963291, 0.8350391148280739, -0.28284601715532137, -0.4828863945665143, -0.20857315008422792, 2.224005470945146, 0.15142088025443803, -0.6521854874859324, -0.11806972212673628, 0.7151642984769568, 0.5983299367737333, 0.304885394676598, 0.9295963338711603, 0.5678219112970971, 0.2980185625761023, 0.3732560848173236, 1.0928929124160407, 0.1394707505226248, -1.5219219585885786, -0.7309291817510962, -0.6612793218389054, -0.1997460978579359, 0.9069560708421442, 1.291418752870987, -1.448635655727459, -0.5728247071376291, -0.1349182486313145, -0.2295756795394763, 0.03656584297979995, -0.21390621312690458, -0.9346590510443535, -1.5239700667276337, 0.29997581080044133, -0.6578090277042301, 0.32964673114463705, -1.9192906472636782, -0.1148815045895334, 0.18655991388424703, 0.98844055288459, -0.7253735688832075, -0.5175094856059668, -0.11081823366356333, -0.42685834082443486, 1.1940197340680536, -0.22592267209467617, 1.0594784905950057, 0.6620429049222191, -0.5021003594173694, -0.6998532497448761, -3.0787176943399617, -1.0610253559808358, -0.19352088067676973, 0.5024162724764861, -0.46517839431083996, -0.3671238263110301, -0.12096321906329437, -1.2133435281657803, -0.9461452568555647, 0.3177524644378828, 2.6734672994020743, -0.9371516015663105, 1.5322097483494328, 0.6156560329641632, 2.0259634953342136, -2.3746941631473564, -0.30644914452051886, 1.3335482523498319, 2.3860476527408996, 0.574675239905857, 0.2142572529973186, 2.0249847672234003, -1.5658262879849087, -1.2764514212046125, 2.032108998731591, -1.1448220252327026, -1.4335862225926905, 0.749438993590222, 1.1234950071897047, -0.2120749778771968, -0.41345509480710396, -0.2146058102566746, -0.12433972996841855, 0.9449910343521511, -2.1105121251001657, 0.5859327274843362, 0.30998561331708974, -1.5754223231658975, 0.030905255358029213, -0.5855950388610559, 1.4982305924293062, -0.5050504560443922, -0.4576600454289302, 0.17477609409895542, -1.4503431471140873, -0.12785024974905884, -1.2291069229053777, -0.4832444963849887, -1.7137896764107585, -0.8348879168877978, -1.159398699225897, -0.8368484275616003, 0.5655401990985073, 1.421852824415034, 0.2890299862920357, 0.4097494965290869, 0.3692637712636604, 0.8458074170647177, 0.3793045986387691, 0.22684615839057332, 0.6520036321534258, 0.06592322912309012, -0.13349230288371786, 0.9126895716427392, -0.3491951364675432, 0.4151153337925297, -0.08229862109398152, -0.968646665323104, 0.37671642460202964, -0.014824679616724177, 0.24548401279090779, 1.5067606589755975, 1.442477859445947, -0.8911191374475186, 0.22614209661075274, 0.3746409340097879, 1.739359389258776, -0.281038879965108, -0.6599331972462256, -0.16538261327541828, 0.11903957581827943, -0.02370157315387753, -1.3161268908071926, -0.07517550557293204, -0.16178349873491654, 0.7916645450929308, -0.6582994131787155, -1.2937481309610612, -0.4651594210178027, 1.555766031561252, 0.6585002053820421, -0.3254008649960198, -0.06798060684341074, 1.0893591445185637, -1.5200122255283068, -0.34018077422064175, 0.3455978071735098, 0.34741912482971793, 0.988578280506881, 0.8442467342693536, -2.718542803724521, -0.7161862432055678, -0.282322038749341, -1.012938770046284, -0.9233767290112875, -0.18584455867515118, 0.2832836911909258, 0.146264210954756, 0.9840630629169705, 1.0381474635744246, -0.7134137843583259, -0.8863981313684856, -0.8201972067022613, 0.5409930119287858, 0.7174929651212464, -0.37226262254659137], [0.14312342741586717, 0.6061513952386675, -2.1168521179801143, -0.25474108091543984, 0.6278419872247217, 2.4520124594811654, -0.4506102379820928, -1.615997007475479, 1.144149715647526, 0.27340645872087715, -0.09727429809864925, -1.5010576678445844, 1.3877374334378296, -1.5826157809394124, 1.4813690404082387, 1.0425731302679644, -0.12942248105784013, 0.03025451196133313, -0.7637672165302809, 0.010094961601020304, -2.1244571819054574, -0.3030438923339309, 0.21704981791882463, 0.29709484822191967, 0.1112741089365779, 0.7427090787502653, 0.16422159315906934, 0.007763885403704744, 0.11134742695933877, 0.374180526096359, -0.21569541040212314, 1.8800562582894085, -1.2194048040032686, 0.2943481435793472, -2.198875942113136, -0.8683833823207349, -1.3701141165253012, 0.046032176865795346, -0.917722890084484, -1.4033496225299822, -0.25558933014769214, 1.344233743263551, 0.03435842709943922, -0.223927263027723, -1.3125892540859627, 0.28560462261030123, 0.3647324569470919, 0.5324344573500822, -0.8899787559237098, -0.48849377330258, 1.4599177083024653, -0.1956032170371831, -0.056365713743437705, 1.6373278791763528, 0.5975233069559561, 0.5458623679292024, 0.03341178063293098, -0.8809010603588611, 0.062414209519999105, -0.20043428147062442, 0.035977864659341434, -0.4881269853127095, 0.6316108619640266, 0.09465364910710186, -0.25954204312162255, -0.7401376295337894, 1.4299754444402375, 1.1044903412520601, -0.41506149846388907, -0.2588168745141335, 0.2727158685805934, -1.2035925228942659, -0.5123409900230669, 0.709046897278074, 0.8666968988017859, 0.21979825723064392, 0.7219482201203201, 1.3797583659242987, -0.39054377413065083, 1.1143891375074513, 0.49510643057955317, -0.6356416945625574, 0.7164157782525822, 0.3594058931224407, 0.36571040382766196, -0.21937862757317933, 0.2504568450507734, -0.9150058040478807, -0.412377981748056, 0.7748410871517355, -0.6636145366394864, 0.029157326211576927, 1.0922965759263041, -0.4817299794114403, 0.45926809758174564, -1.3417407675304285, -0.28797098163192475, 0.21617821591239555, -0.22258874188752903, -0.9505080005728008, -0.5644155075149446, -1.2667162370377418, 1.003788868101143, -0.0012196466546791067, -0.8744897044731187, 0.28466201917088274, -0.3025919250861257, 0.9701410273008262, -1.4292255987596907, -1.4192890853891762, -1.4203026123786031, 0.33733981404306007, 1.7589589628201299, -1.4425440136520726, -1.3310885707420799, 0.5693761762652993, -0.4557615072089597, -1.8548886675730116, 0.07950916608221646, 1.3387152497990313, -0.78248069046499, -0.1440021544206041, -2.697564883026398, 0.4347568187084128, -1.3355355323836473, 1.2116621183247855, -0.13280992218564275, -1.6353695565626605, 0.2075431954898566, -1.603836909684359, 0.446198977526786, -0.16938301702151218, 1.072051567109548, -0.3289344327178373, 0.16645054193742279, 1.318023166703181, 0.7150368503981603, 0.020789493844631246, 0.6446230591630092, 0.40346391594468184, 0.37870780377740887, 0.8549464571271435, 1.5601342053388954, 0.867261703159343, -1.282570367455382, -0.49946078889912, 1.8664802069805204, -1.2562926980901579, -0.3017308045507916, -0.8137921173514155, 0.4425397711637133, -0.5021302150743535, -1.4834111892535868, 0.4409026626108163, -1.1973025235661559, 0.11798459770944408, 0.1700755596745369, -2.894057918879645, -0.4745847604485932, -0.4714127528026643, -1.245183833367107, 0.24025336036261322, -0.11021416010098412, 0.13222302595634078, 0.4314762419441244, -0.7714618811203428, -1.2325457592345304, -0.7948755558892957, 0.7661392802994071, 0.546877456732996, 1.1902708776382769, -0.5922966101552888, -1.4897082338087706, 1.5093021372473119, 0.4170115136514987, -0.4358549178981731, 0.017995520617294196, -0.8975599381935991, -0.4139843327094333, -1.055344787968431, -0.18047238548075936, -1.697367271177943, 0.19435545667315837, 0.06039349274630731, 0.8913109724930364, -1.7417128383801805, -0.7586960609115774, -0.653827358171748, -0.9714351908311274, 0.45609276912581026, -1.6794791753279337, -0.5425336721724981, -2.458617485536289, -0.42598881408185413, -0.41494954521955013, -0.1540016991302163, -1.9706684759181416, 0.14150003731610836, 1.9764762538221685, -0.7094412519803353, 0.029801983901684835, 4.144479428436056, -0.9006996685087915, 3.2800943573968255, -0.8666605022593741, 0.9284118247262562, -0.22609709067440723, -2.079914154966788, 0.1169671672262515, -1.4861815378790555, 1.240711570783037, 0.925086696759038, 0.335987437304139, 2.113117771975036, -0.4650891229001379, 0.6066472679785281, -0.633851092650203, -0.9207370924565899, -0.6835712571519019, -0.5355448025786831, 0.0954898991670135, 1.1935870703189753, -0.9615210792353763, 0.6828726921517625, -1.5167366618976408, 0.42393906175347756, 2.625198876666506, -0.5416809341170217, -0.15035629279968307, 0.090324529259453, 0.8884756908222893, -0.08459346800758771, 0.5972062713144278, -1.7429211734227747, -0.3833364565881096, -2.6318518316614234, 0.21072571241964336, 0.13070482944771597, 0.48308846216123447, -0.599574708909399, -0.05282143132395248, -1.0438020567319308, -1.1232403189492581, 0.9217974075866564, 0.5256313707044977, -0.04572793774449463, -0.6684330720081333, 0.26393870893887034, -0.5141738512526681, 0.6277230194573437, 0.5909294700397576, 1.586321688983106, 0.17033760828887903, 1.317670383034806, -1.2731274461891817, 0.0024739308225523488, 0.21399981317083275, 0.2685387495084328, 1.2555705328114108, 0.189171649263778, -2.756436567903427, -0.9320503163439559, 0.20908927396642443, -0.9405283497093533, 0.009067098326385673, 0.5944086836276942, 1.5572080172541933, 0.33009897771761365, -0.5905498674553715, 0.24903323586696777, 0.39673755223730145, 1.1753221029082466, -1.3046836171214893, -2.244541217336275, 0.004165590578719436, 1.1809794329272778, -0.574600769885475, -0.006203834824523861, 0.5754625089152493, -0.07353211304132463, -2.0360854722381636, -0.6013803087140501, -1.2828589510557569, -0.5169412930467508, 0.4193160225082142, 0.16185330868065734, 1.9250217804215504, -0.8894314228642606, 1.4530429175724968, 0.08122280982460028, 1.2358739602958675, 0.4029497194217998, 2.0640945593164406, -1.0571134809891714, -1.725585640144263, -2.104998586069048, -0.23767007204344065, -0.8150500628587244, -1.743067750121697, 0.6933477395280597, 0.07368559727951933, 0.6262162028413012, 0.06508187828606506, -0.8556030593379943, 1.8613055845794395, -0.5921409321198685, -0.7772823292327384, -0.38172928795413064, 0.7979114410224089, 0.06625638407665704, -1.0874509784996025, -1.0707979649383437, -0.9206091236082811, 1.0277713940593403, 0.15272951426159875, 0.5634578687747414, 1.292540618805361, -0.81102057555091, 0.006346486102555952, -1.8551904127804801, 0.4586213015164389, -0.16174156278685808, -1.9208828817643586, -2.168746467472905, 0.33772247110931347, 0.1059819258191407, -0.1899012154393894, 0.46034820679380073, 0.37505226102592276, -1.1533563470286006, 1.2430626016983923, 0.13566140889885145, 0.22199706367477676, 1.4898040245708468, -0.14884864257601035, 0.07870920662309355, 0.5633191193582312, 0.6384186387059345, 0.6115821518586846, 1.3119012140150264, -0.20629817835846528, 0.13041214407079393, -0.011450424055159357, 0.37278878364595197, 0.8859977024340607, -0.9064310794019553, -1.7405475128486187, 0.43666692183213623, -0.33043317742132067, 0.035374049524966436, -0.9869491784209425, -0.61405274109551, -0.8907161476674773, -1.0816040802891893, -1.3235416513193003, -0.9443578386363649, 0.21046179408231594, 0.3740957120248018, -0.2348803037450837, 0.7786823788827592, -0.012706297800505955, 1.5143412716152205, -1.9241221267216269, -1.4287869947007896, 0.6989636496484173, -0.7073998146375469, -1.450613962056795, -0.6446213197663918, -0.4895069953107479, -0.3874662132564495, 0.07517553794627795, 0.7382951674479876, -2.0210113079392356, 0.7683082842296952, 0.5533874843558466, 0.20398840960373146, -0.9235942071415024, 0.4862073287465547, 0.041809611845815144, 1.127984526609775, -0.5880311757497281, -1.5507574287029338, -0.9792264090586094, 1.3716902387434007, -1.007575200858576, 2.3837495344106845, -0.3371177297852611, -0.4311146952875695, 0.4423845854223961, 1.004748261930022, -0.9000538959076599, -0.2592302298638651, 1.2387780855397619, 0.6626225525623939, 1.1022344922912806, 0.14312214965900896, -1.0400233836949975, 0.7801503268517633, -0.8336378668965222, 0.3199718210502038, 0.35461122025212777, 0.8577502035718032, -0.03718909160854943, -1.6844538046399593, -0.27022054060767287, -1.4844368439814595, -1.2486456231126997, -1.149503907997572, -0.46048385920820495, 0.25097462592278974, 0.4371665553954051, -0.0001816571350198826, 1.3048109758841864, -0.2600737134055847, -1.1431136174582344, -0.6897968431234791, 0.12744885224869285, 1.2501857680257695, -0.7399888611723066, 0.6213359490519414, -0.4496867272301603, -1.5978190788099058, -1.5681488644132353, -0.21908936797327325, 0.2628084558790925, -0.957723596126983, 0.7893960793562921, -0.06768359325137525, 0.3168940023421731, -1.107120009924385, 0.24801795870445364, -0.3773769460787609, 0.3806187608512394, 0.2860047575602966, 0.27813415762531474, -0.7197574279175435, 0.03550941486088013, -0.13041376449440464, -1.0967100146166848, 0.6122684953320648, 0.6998129144965956, -0.5452090816241129, -2.292656183792035, -0.5765161462475126, 0.8445975218337781, -0.36909687557452064, -1.513976350659829, -0.7863440941078985, 0.5810336277219541, 0.3721654647161198, -1.7111556691965246, -0.0720333699940854, -1.6937221670186855, -0.5002777302959308, -0.4472378157660422, 0.4669541876306931, 0.6462258678199111, 0.8877361698119586, -1.7331830589866752, 1.6513251487257894, -0.389174138633503, 1.0180480496167421, -0.49168053036618303, 0.49568376771135403, 0.4869714856372573, -0.2550312026509816, -1.3700046076424917, 0.27073140669793766, 0.2745359243078028, -0.42199627329574757, 1.2387566556374405, -0.7320081543401089, -1.6403783218094032, -0.9961182066125186, -0.36471635967501653, 0.9306859585554488, 0.19954578779818447, 0.6283127755941643, -0.5751860383991606, -0.8627075609997995, 0.48510330461575796, 0.5655604741583304, -0.7516048975211246, 0.25382575667425394, 0.19959188056199054, 1.2905469788189659, 0.06916345904533398, 1.5423490148776497, 0.2635478895409885, 0.5343618090285835, 0.7915800864034475, -1.8209028964215699, -0.5172476752618118, 0.4997261212975539, -2.3267000546209595, 0.4754255360314718, -1.2891047744165505, -0.03443221577899929, 0.1205653007550366, 0.3639253039977817, 1.4445945852051778, 0.1688021031540461, -1.6878495684419486, -1.0312865085450353, -0.10219422928092436, -1.6683009174686436, -0.014265748432963644, -1.5367293971058258, -1.6381545502935781, 0.5578582845147566, -0.7879584616627912, -0.9149205317057607, -0.3846122511107961, 0.5252632502171197, -1.660185869173997, 0.7161838770872792, 0.9289021834445169, -2.046631177160535, 1.2515346792975295, -0.5067337988836823, -0.1477963760627456, 0.29574773362053935, -2.201668966935343, 0.952194886720246, -0.7674678183526052, -0.3989557867721074, -0.6658276526466655, -0.6448832859543294, -0.07369439172638267, -0.3252786455330533, 2.567458929038056, 0.31192736444182856, 0.14191882350527754, 0.3346367264164656, 0.16053488017852124, -0.9361948721755435, 0.4737909142098776, -0.6066088717115284, 0.6827914263201682, 0.5790525798137917, -0.908777796376055, -0.8316961987492134, 1.1358826889756732, -0.6136218703695295, -0.15886359712325507, 1.3814575499808015, 0.7792529443482743, 0.24788865414671998, -0.30346312149817856, -0.3258309880633591, 2.090757620111209, 0.7008069155484427, -1.7311751641074473, -2.159109751796918, 0.7049504548997724, -0.6439131795643995, -0.51878768806894, 0.2340605524292638, 0.8960482942170487, -1.2063315800062564, 0.14880864241626166, -0.44671184561875976, 1.147891248889612, -0.06148285239670346, 0.7289889255438449, 1.1901384271238717, 0.3458186036845795, 1.4836877046194408, -1.6976034061443102, -1.6362336069098196, 1.050427104888035, -0.21320671607603853, -0.5966963926031372, -0.21595014813727922, 0.3187074193428397, -0.44585682639620444, 1.1172021761321154, -0.20913659060615397, 1.3769333910327566, -2.0161808095958036, -1.5088403358834268, -1.0888513823902966, 1.3652596275260798, 1.006364010150753, 0.9360651713987421, 0.6018483607793701, 1.9450750296183161, -1.079522887635503, 1.4035573267695138, 0.25135388949490706, -0.33116503059214997, 0.12636648289032237, 0.9719102572745101, 1.5587490144572436, -1.5911798838624458, -0.3524561348298492, -0.1981865777182332, -0.09406461095692671, -0.9325640622144785, -0.2127533809359809, 0.3785152617428685, -1.0055812417444516, 0.4519763554048916, -1.6977052496775558, -1.5301903001907895, -1.8005096724212144, 0.44007564969589935, 0.1607137930667415, -0.8478522666126804, -0.19510308579551403, -0.38963599227427675, -0.680173177690475, 0.8019742194572764, -0.083814461447957, 0.40398525606868985, -0.8538193442519516, -1.4885678216762612, 0.000538340497273486, -0.9879721084214008, -0.7124031587146561, 1.2444454866076726, -0.6548273974371895, 0.6420858671270012, -0.2564872859406026, 0.9490153336249, 0.0859792112861752, 0.5720813359418049, -0.2265040254087782, 0.46962723178126015, 1.8456000158485644, -1.3182174168478207, -0.2807104196120683, 0.5395335424040066, 0.41277441698449047, -1.105055488823212, 0.6155138925114414, 0.5579614960458624, 0.8390418176541303, 1.0503936230187225, -0.4141824767642668, -0.6982193151832714, -0.7361554266078193, -1.6217990896146013, 1.5884997164369354, -1.3437811114048617, 0.5464643204424529, -0.7233424673738279, -0.0708023967972943, 0.3556374035242946, 0.9269333637919853, -0.6378721017306702, -0.7692996216841308, -0.921773823125538, 0.5779156794333966, 0.6196431228973701, 0.5387159513770727, 0.8586091925647339, 2.305160972776861, -0.6233543584421152, 1.648602834608136, -1.416757304310329, 0.30530031346086733, -0.07941317415654718, 0.3626427645025892, 0.8572834004473716, 0.4853488993786854, -0.6622968175182326, 0.3911680946710556, -2.317271322087303, 0.6845212776298156, -0.8476631638494676, 2.5257026970601353, 0.21065568430180295, 0.3849829364943035, -0.8279359904234168, -1.7153282863173174, 0.022454744032658524, 0.4582074694716103, -0.2517236868938626, -0.2245448285703773, 2.111739073448336, -0.6422000198539175, 0.3313195135601498, 0.5405368987417435, -0.3988926241055941, 3.717220811727258, 0.8082923551844075, -1.184220225411916, -0.13052447301169756, 0.8707035731073232, 0.9338410874813868, -0.8863649186628867, -0.09771552012247324, -0.32827334706475125, -0.3226391727341014, -1.34680537558451, 1.480050398426208, -0.8943119270861355, 1.343873802574544, -0.540605434591244, -1.016658141967554, 0.7518399859066376, 0.9905401867775274, -1.4326322914873053, 0.8706414707270773, -0.9615919427256909, -1.022008867392351, 0.9411126408499189, 0.7816927980979798, -2.013724367846396, -0.36288726569519253, -1.2666497704065305, 0.3255943789571073, 1.6910161359996347, -0.9665597227889781, 0.7972420051160661, -1.4651532888021233, -0.8311432469576295, -0.7355899473817361, -0.23681537476137654, 0.49242492485965667, -0.4323191585444589, 0.32166381250339093, 1.6368813148298313, -0.580519223682476, -0.34504307738324663, 1.0185795523899202, -2.2177996009536067, -1.0641313505263916, -1.1591976978115586, 1.153867336669212, -1.1111563513519271, -0.31482333670383494, 0.04969992071780739, -0.483518787718913, -1.2263862719986391, 0.47446603194489245, -0.16385727389166585, -0.18667289149695068, -0.3158028065833983, 1.0576147902795188, 0.6074563885077108, -0.12216579429539186, -1.775172480858725, -0.6380191196721627, -1.558981398062404, -1.0495792364021799, -0.5742030606888471, 0.6760172579033469, -0.09043540606640409, 0.595939941879391, -0.9124451224781364, -2.047593068208005, 0.5814935565065618, -0.5399370758815065, 0.794529055160081, -2.424475696726396, 1.0181957319967203, -0.0035399623451966267, -0.5684819790954351, 0.0666445623220561, 1.0265713210300487, -0.13263530721234384, -1.36933963473316, -1.1197067416931996, -2.1801477001943055, -0.5846799524022581, 1.3523701050306265, -0.7823741604424074, -0.6702985392248486, 1.0302657195757334, 0.5578860710859317, 0.01800409564273259, 0.7717237633445496, -0.07238626307326732, -1.453907881203807, 0.6331103566990003, 0.9534594680762476, 0.7392224055181108, 0.4868479420106524, 1.9127989501366487, 0.08763887372121117, -0.2662696778721259, 0.5137383585126092], [1.5998147042999882, 0.5229721444765691, 1.544576761628705, 0.4511829663247062, 0.2959372500649543, 2.0683287006949445, 1.2588997678560812, -0.9521778281887258, 0.7354066192995814, 0.34254282233980854, 1.2360653172530724, -0.36113412773819753, 0.09341659494089118, 0.12170840138306648, 0.7031633323770055, -0.017872482795436875, -2.5689123679884296, 0.4909823978073439, 0.8139479350532135, 1.7574448289732763, -0.937438846016085, -1.031701373809093, -0.8453252976936606, -0.34458628060266305, -1.9360994150847177, -2.457538925517342, 0.07259644603750383, 0.492608896257798, -0.7327105014698522, 0.3389774333037035, 0.5216501016376509, -1.0336653900225006, -0.16985401962220237, -0.855932887342099, -1.3319382414216419, 0.24883603363780374, 0.620086662369171, 2.2361205966512894, -0.6639754945734524, -0.32653819510721166, -0.10926804564602792, 1.649968443200871, 1.3332297604541283, -1.4103364122010043, -1.4384686029176044, 1.1877338419318209, -0.06438646080278708, 0.5840955043549065, 1.2526072311655805, -0.3283777543020726, 0.5293253269413907, 0.4837236587874516, 1.9269939294578642, -0.5128908928998336, -0.8999055086663695, -0.65323973344729, 1.2525025352169565, -0.7640746477574668, -0.8605408571066229, -0.7382193378870596, -0.031554865903301824, 1.4691023947461797, -1.0242369658780452, 0.7092582051421891, -0.05329662287124599, -1.0182858748003756, 0.6309741468907574, 0.12879919831103878, 1.2276682307232132, 0.8678647033492948, 1.4372972747642339, 1.1082245788206808, -1.3076509751779293, 0.8347061196244895, 1.3732396523571568, -1.1777290235033437, -0.5501622371758544, -0.09041918820568617, 0.8499480621558964, -1.2694793097182118, 1.4007895985679477, -0.6459957502659195, -0.16416507538678166, -1.8607116765255372, -0.9142411271557098, -0.7129499926021252, -0.1568252878651818, -1.9188926325618092, 1.9679129072338586, 1.212886176212625, -1.0066546864608947, 0.5289736795534363, -1.3011892042843631, 1.3841357199054494, -0.8549702966074334, 0.4687331471830643, -1.1263299040358463, 0.10004727054251207, -0.8455615272510625, -0.08389787597292835, -1.2083430560848558, -0.3229933056088173, -0.39195486211856456, 0.2924279773642043, 0.3238759314772082, -0.09061837349562803, -0.8942912268286869, 1.8896699613042378, 0.46022410865750507, 1.0672056493569337, -1.0619076174030164, 0.9401603726192891, 0.1906757061955439, -0.8617430217741262, 0.25457958807375614, -0.7584067236394708, -2.058472380416985, -1.3628935317080997, -0.9351354424634664, -1.1576141307987287, 0.3351850389409262, 0.10134084758349442, -0.18454281205127518, -1.468292803865229, 0.3022090139421693, -0.08217287796190613, -0.14203489242469416, 0.610189371803488, 0.8405705660873537, -0.5995094229579696, -2.1990360907032525, 0.6200841368404912, 0.45817953916065707, 0.5665900018325017, -0.7325229079046913, -1.7236242040137806, 1.0729787979603693, -1.3827409286268633, 2.812926549752804, -0.743576448121813, -1.2873115727299662, 0.6254941013478368, -0.884667345074681, 0.5015220423376074, 0.7816277242920162, -0.8768960138657633, -0.2595132180549604, -0.4833377996672518, 0.039968877993964515, -0.7497907730889244, 2.643673589639729, -0.14138203267899846, -0.017216155420921135, -0.6969577202871834, -0.14041833163491732, -0.5744519351939329, -2.223321702047003, 1.4451406217246734, -1.1922165998601721, 0.4229172037680554, 2.8234039544051415, -1.5068961371390848, -0.7985005229671118, 0.1100357368039584, 0.8519017752126945, -0.17959364383100546, 0.976277642498722, 0.16447826609555535, 0.6554235826746992, -0.7561633067254562, 0.8859435821202359, 1.2121335518549283, 1.2013742733764712, -0.8554390992161266, 0.7339758502131984, -1.201770190062039, 1.9587453883049601, -0.661348416758167, -1.7251307573724322, 0.04772968923650105, -0.26362158259806523, -0.2950783417128091, -0.5206749298709201, -0.14412867583946037, 0.4653712923533644, -0.09044068438670391, 0.2621615458333248, 0.844806463401161, -1.8059768996713816, -0.17329665472394115, 0.9046241465773097, -1.4451469996576591, -1.209784254161922, -0.7674147660400632, -1.2164767519553363, -0.5427598210095679, 0.1609271987068647, -0.1886350982148359, -0.05853643842580337, -0.7987633128317789, -1.7566287096452926, 0.3753596389865502, 1.3314309022581623, -1.1509735968290848, 1.2115661427706481, 0.8149787791848669, 0.08300616314663549, -0.17155910004849229, 0.8911183409968833, -0.3763373171221698, 0.7077276496291471, -0.08945607846175078, -0.7717320958969205, 1.016208249176368, 1.100984349953817, 0.6625614192368969, -0.01914287819904056, -0.363210096343112, -1.641935886245272, -0.6554874260330624, 0.8730963229563841, 0.20732264860443333, -0.5380323380742978, 0.37580519223910624, -0.09044025450529332, 1.4008806252357766, 0.8304438304839575, -0.10316967102249551, -0.2886872563180621, 0.3689111141002008, 1.698454648060772, -1.536375208182496, -0.9220303330400637, -0.5554592746833995, -0.786673130222693, -0.7471357809545316, 1.2516286789932816, 0.37765329126505853, 2.661306304987078, -0.9026307060638397, 0.4916859397394504, -0.4794200070074209, -0.07529801142083095, 2.2127281198539452, -1.6801118349346793, -1.4359807442454713, 0.03388524281989872, 1.2946163083232058, -2.109796594131579, -1.4086505524407003, -0.44038559959415685, -0.9707133390575461, 1.1518581824010699, -0.40761016924173704, 1.0515111438079128, -0.443856685942745, 0.28636122617611726, -1.3210434645826306, -0.35406914180489596, -0.16254549974127055, 1.3315841863343987, -1.7887020441876509, 0.5474055083090171, 0.8347807352984634, -0.8213888598912502, -1.7892493452397404, 0.04055111773044727, -0.6645713358993485, 1.6193391265758859, -0.46079033010708903, 0.22495650026691177, -1.1876378034842485, -1.0779130433275028, 2.305926763566659, 0.8179042329687777, -0.06288381724867914, -1.148667987032203, -0.40989690048792243, 1.279621984344243, 1.019511704226018, -0.9587692106928934, 0.22199741470139533, -0.385016813762523, -1.2833255795611302, -0.23507104111426677, 0.4704057597488946, 0.8548128955310942, 0.05803913574759019, -1.0501148295136287, 0.4164824801938905, -0.8134522080593921, -1.2099281748278963, -1.3754025573402882, 0.7282904796587354, -0.6337795740434443, 0.6137841834185673, 0.3486680499273843, 0.014663394760744153, -1.0063014081546877, -0.814023092538116, -1.943157718119345, 2.273744558249089, 1.2740946988233706, 0.7036565936882656, -0.5389507436193022, -2.204979570298598, 1.462502598834345, -0.24502648710708813, -0.41084614324040825, 0.6561178887190848, -0.8964708688829776, 1.349613650209558, 0.16434018011610552, -0.06353009510047229, -0.7286643459163785, -0.6483035962532571, 0.4070667950745123, 0.6848733839708878, 1.4514574355017176, 0.895640892851844, -2.8182068113513736, -0.2763996747714261, -0.5146728748501885, 1.2628092322290059, -0.6313818013166536, 0.250919569652761, 0.37145621192880457, -0.6542928024815868, -0.31768208103737305, -0.49494543487960385, -1.4311611602456056, 0.8872261215680836, -0.15542555957050996, 1.8724949051338486, 0.25968905636496953, -0.30992603558165643, -1.1857241808425025, -1.5898055479704354, 0.46081706253412846, -0.28658678920863484, -0.8613356204497633, 2.471878109256232, -0.20658648351713416, 0.3069652275201914, 1.2907300773006543, 0.3163453895300007, 0.3231564221712458, -1.5264375168617783, -1.445807159525205, 0.6562545588439611, -0.3124765896800423, -1.4853540428945526, -0.5278819057662872, -0.1574357209025724, -0.28661750462842267, 0.912400599770745, 0.2558524512695433, 1.7715342558664116, 0.20575731002921127, 0.846710491784389, -1.0925616953648558, 0.0056986577731252056, -0.7485984142297393, 0.25744173048639163, -1.0301428350345236, -2.920663826666171, -0.12444490324754924, -0.4835274817553979, -0.46309315826068037, -0.7498559191254747, 1.7195111014259281, 0.3479214351069883, 0.690918302139941, 0.402149429748902, -0.22772160932028002, 0.3787782987609243, -2.682998268360149, 1.4517833856290132, -1.4502339044956025, 0.14152339794659158, -0.04288168659601841, -0.5668797498067382, 0.4989329126056528, -1.229395884585404, -1.135800296478433, 0.1018651563765606, 1.7700866330525569, 1.3779503926388925, -2.285801967603189, 0.25918331492367863, -0.268833229871335, 0.46119014925742613, -0.26428633316867883, -0.21833809567940668, 1.0669605539833884, -0.4682271522817327, 0.5319654823863589, 0.7693819951127348, 0.9057768106808279, 2.904608094710123, -0.7593784009889643, 0.3203178674672026, -0.9194045876228341, -0.4458458214209952, -0.10216934497275852, -0.694574682786688, -1.3320162707876693, -0.37507959965673043, -0.39742708718364894, -0.2787606804007269, 1.4646499690630848, -2.205164110489543, 0.07553324126405461, 1.1394649762974016, -1.5085035447282011, -0.7053502377890811, 0.20687519965405127, 0.37237963262161045, -0.41073794411369713, 0.3625909714700718, 0.5001965787024862, -0.5573762971326522, 0.1394178636630745, 0.3829277325474957, 1.2255496252707025, 0.5374213326796967, -1.344203008417134, -1.03067385890046, 1.457598583648491, 0.3106900913498911, -0.035462348714092304, -1.5630397451647122, -0.31049806332789076, 0.08718211818003113, -0.3539076532813127, -0.5291781139114814, -0.6846414396455696, -0.33667597988162656, 1.090846133699101, 1.2866696326773017, 0.6264955939726655, -0.0020892828331385256, 0.5089790103362888, -0.8449379523655661, 0.7238465665593817, 1.65892335101233, -2.0034201382670225, -0.8347570917570047, -1.2553578256873834, 0.16575499544758626, -0.12239049946697286, 0.7234420689841522, 0.6402090134069861, -0.049116873782953194, -0.9155973758628655, 1.212924186429836, 0.3015697211816348, -0.6664930504561231, -2.4288706699601446, -0.8049199078321458, 0.6552627234589787, 0.8287552517518397, -1.2827751148482338, 0.6178460826414758, -0.8513528495682162, 0.8453897944037351, -1.6103343988809506, -0.2171773022993216, 0.1883686188157787, -1.3338831398760278, 0.893432010864086, 0.14910376736644362, -0.10947656509786548, 0.37349836410182674, -0.020958037629919875, 0.08131456078981482, 0.9680119392911338, -1.5491963867243945, -1.2681299838453413, -1.0205649048024323, 1.8426661626715009, -0.0741691921987727, 0.39260186053496116, 1.5192690224353738, -0.11076025834506227, -0.10844029633575336, -1.3981930260377118, 0.4132803978607266, 0.10350071317282848, 0.5872788268981098, -2.165165783508389, 0.5221914666441996, -1.0250265655580015, -0.48433981451874053, -0.38992763633266836, 0.23554530343812766, 0.07882015561743394, -0.45977626124234605, -1.4199928370539006, -0.6995408160324508, -1.8251326897216682, -1.1234844220712463, -0.5759236478205666, 0.2024892447876429, 0.07121363464085871, 0.7831622458707055, -1.0195708602484872, 1.7850721504621663, -0.6229545351887816, 0.8489448221277573, 0.968965639764747, 0.06139986724871979, -0.5519757687909991, 0.8113535854235918, 0.237910712576915, 0.05796092426461606, -0.8213523598181786, -1.0689893455964843, -0.9114638649433064, -1.384769537510491, -0.15125421080486262, -1.2888365055405562, 0.3477491745272464, 1.548819316678681, 0.267652149252839, -0.18153313067791968, 0.292263024750169, 0.7969152282547403, -0.9016775401578324, 2.486163292809925, -0.16483295262652803, 1.0313201811784503, 0.8683438161323916, -0.6659176928096684, 2.0968900090231593, 2.122760895625864, -0.6181635111184371, 1.1573448694107684, -0.4314346591350997, 1.3206412601399515, 0.2556369647888748, 0.49387827533413015, 0.0785877522848658, 0.43230957456248464, 0.668073952888822, 0.27850071014633027, 0.10658387318179847, 2.367234909274456, -0.9004326241477316, 0.8742580212612833, -2.2697012013986324, 2.2961574525033024, -0.061492503774138244, 0.033093361775442955, 0.6436593768391929, -1.7654088099206098, 0.9356453290055492, 2.1664340211801933, 0.044665696507084046, 1.6799371862316355, -1.270075190312973, 0.5730139324884851, 0.75006344389551, -0.2615504232159146, -1.0309579241898303, 0.6981795769541308, 0.24392643850848048, 0.5010940408659725, -0.1788867964695503, -1.9863845724743823, -1.1222803108649957, -0.7800245518355471, -0.4410332215475109, 1.4332142526464475, -0.40323931729319445, -0.5704938496968461, -0.3604260171848931, -0.6255588581157626, 0.6115961963195273, -0.5913631718373042, -0.34015883728557234, 0.42485353100807877, -0.2876038272526878, -1.6334417177325544, -0.49940254201994655, -0.1633094603133659, -0.7561856052875495, 0.2137975785860716, 0.44678560956524604, -1.0185510004145504, 0.5957640930587856, 0.33807195525770417, 0.7076561317324835, 0.7506228110286358, 0.6856039730835944, 1.985928156158451, 0.576446764659615, 0.8625332377926982, 0.4810433563095494, -0.08917969901144888, 0.9594430619488009, -0.9968866472051077, 0.624931967078759, -2.4601712424082423, 0.6943564528754104, -0.6040670275126857, -0.5588965741031632, -1.2597461787335178, -0.7629572923406948, -0.9016376737440982, 0.09020747940428285, 0.38033819212700715, -0.8531821643520987, -0.5171668111683699, 1.1650798519045478, -1.1794303617639605, 1.3669998583374743, -0.8438220195931397, -0.2742792182027211, 0.45596202021686827, 0.2479254821617129, -0.25552085526644, -1.2860397161202777, 0.5251949381540537, -0.26863484144152366, -0.14644721951310563, 0.6546621433750246, -0.10986894229006695, 1.2188286489247169, -2.018039800395473, -0.21983668624564462, 0.5173875122393357, -0.7200587164359419, 0.03872786128376308, -0.7961649150171175, 0.04162197010184592, -0.14733705212560363, 0.4474033186757854, 0.8171071782716661, 0.5802112711128559, 3.9826511005380048, 1.4038845136266127, 0.9944643583007416, 1.101076971095648, 0.7997157632184777, -0.0713547179673227, -1.4399204448237766, -0.8999421628157035, 0.19857890684818938, 0.5770166678876726, -0.18359635897438775, 1.2910340833354248, 0.028905663529273557, 0.8992304868745631, -1.2139073472038315, 0.5085587415987892, 1.7883336051889902, -0.005318543522638528, 0.9278313645590406, -0.21295308795529697, -0.8470397777951814, 1.8164031300030956, 0.20880150536352857, 0.49052512594510306, -0.6255855971141637, -1.3116321112571705, -1.082299136535067, -1.5671082492242054, -1.870599486221371, -1.4132437991718019, -1.2570201986451002, 0.7972967938380383, -0.7389350088427548, -0.5067479276005246, -0.09660433824638343, -0.5764171987144, -0.5519641144016515, 0.8554523619379736, -1.5196439368349635, -2.3826568638995003, -1.1547774059193836, 0.012277797917425042, 1.823302141601487, 0.5131102028138304, -0.04989954857655415, -0.33779815278469827, 0.25013729434160065, 0.46846276796095626, -1.0053977167145778, -0.1308554979695518, -1.1138586297118787, -0.814438773253624, 1.4700441423666246, -0.417509993868805, 0.8003951094607417, 0.567367247548964, 1.165947557751727, -1.0566546648191033, 0.38938520622438083, 1.7704740913703656, 0.5806380243262546, 0.7181537300150677, 0.16222801444301424, 0.9491006274769284, 0.044493070970883716, 1.6111285984431372, 1.6651467305822913, 0.020906599906463753, -0.44405989921085975, -0.0184667670407345, 0.7421570607858895, -0.037531900470245495, -0.029951679545475486, -0.4084729581000241, 0.1846692534324285, -1.2375248140433377, 1.4141246515378278, 0.582955942723341, 0.42800242199924665, -1.5515342293957717, -0.6363609759649722, -1.7335086869935035, 1.4906805733765252, 0.0439523282119488, -0.4909171947129028, -1.1707322128044684, 0.12298138514921968, -0.18735336879870315, 1.235708641657675, 0.9050286408233688, 2.0017013882499937, 1.0779515579432148, -0.4004046973760664, -0.4651012379728775, -0.7921444597642608, 1.7134063975487994, 0.37736476424013904, -0.4140913439953492, -0.8352141478297399, -0.16257511280227346, -0.6339840222558908, -0.056572259979079074, -1.7555848342248908, 1.0926362804834115, 0.7094948978378919, 0.7566464211758639, -0.5696860162694501, 0.7147969517222267, -0.6352416153648132, 0.5347234549439528, 1.3005594072872355, -0.4415508595954328, -0.15002063303188112, -0.10968990476114211, -0.6685861511947014, -0.07059436295672072, -0.883616700305108, -0.7388597695014953, 0.4929145230780792, -0.8728469346001866, -1.5379149948459685, -0.8780547305972005, -0.34318562597047636, 1.2573782412112646, -0.6716848998506387, 0.9146971856684348, -0.008420245721698076, -0.11796833897188841, 0.8131035700040667, 0.51317922531765, -1.2692555354392712, 0.6158857451886715, -1.6093986731301675, 1.1628077151890523, 0.8279058200400266, 1.7525919284566513, -0.5315459291943485, 0.2534000175068169, -0.5856392634509608, 1.1304984662573343, -0.42546248084713884, 0.16104882178204777, -1.5603591561441084, -0.8328739765221636], [-0.9187135768932092, 0.6168268538013904, 0.4821753358731213, -0.26470067281366927, 0.22121822191510548, 1.0194148246270283, 0.02390630910119874, 0.6074964217952893, 0.6128250373426753, -0.17943368301068827, -1.4990546990754368, 0.1326729446390951, 0.09906238989520334, -0.765404887331505, 0.549623460894704, -0.3593019663531714, 0.4122826801897319, -0.0016012622387199078, 0.4018074570427197, 1.0089497155522602, 1.3096950779354108, 0.9722933687859161, 0.2505718437937821, 2.7033922676717452, -0.876052947400637, -0.2026545021700462, 0.7891128182501265, 0.09278017610344046, -0.8732926963278671, 0.8603000614349562, -0.6629428310691191, -0.2967861869799064, -1.380451825184956, -0.40843634777542176, -0.4636098604783207, -0.8350303600028354, -0.45034295151876685, -0.43058455076713337, -1.8715606960893627, 0.4220244888937686, -0.12101519613753224, 0.7424451309037494, 1.7921401113130662, -0.32317867229679625, -0.7065164430935092, -1.5818514260536205, -0.06436516225866035, 0.24371794197211616, -0.5708034355961632, 0.4592573020122007, 2.425344058420198, -0.9203923435852646, -3.09365447426736, 1.3163238091878806, 1.1123575081791104, 2.6004019384599735, -1.2618406863395397, 0.4199200370066066, 1.6999616392219699, -1.0034247749611993, -1.0595959553251142, 1.471664966836775, 0.8337415127967543, -0.9440211426082771, 0.1876299707021556, -1.6030665538068318, 0.0667434933278596, -0.8949916854782743, 0.5848834175973472, -1.4280272313229032, 0.18103786330680569, 1.0598849159533517, 0.10357240263569334, -1.4846711872710159, -0.7572704889324772, 0.07836709829183655, 0.4794899527655309, -0.3799008230372359, -0.3603434571335958, 0.12557159083341546, -0.003961260945466289, 1.7586245664430062, -1.1301628150532137, 0.5498746479321419, 0.19797783602899136, 1.388003608898754, 1.5531887335713255, -2.7722282029871157, -1.2640775692678345, 0.36772894550973423, 0.06801835686716129, -0.47980317079628737, 0.6561439736147366, 0.7474370757987658, 0.930695636036286, -0.520151070392576, 1.7613047173053533, 0.9893943976565651, -0.6327167641274386, 1.5231921180221228, 1.4080298515139973, -0.29298717004257907, 0.7876236532515251, 0.9791378388524877, 0.5172934233056367, 0.967165771859791, -1.1792149299687518, -1.3029684730172337, -0.30592605320640376, -1.0476170161536986, 0.38262231838636684, 0.11610731575153795, 1.6729289502141127, -0.3197534539180885, 1.826446757124448, 0.6835178106761758, 1.0128003033258464, -1.2441463968004938, 0.8153413231905455, 0.16786729856469826, 1.8434942622021488, -0.11761686347715153, 0.006014652161111571, -1.2048669769051799, -0.9980390728908768, -0.005006783135813718, -1.1891484379313795, -0.7530897127891083, 2.617593396866024, -0.49188209342798933, 0.9219393022255169, 1.4760740765416567, -0.6804543768527546, 0.4750190877416478, -1.544609822839374, 0.43399886868937554, 1.163675168459431, 0.4230978467551781, 0.05213168107927856, 1.104191810425525, 1.4983653706274025, 0.477663638790687, -0.10355516762337626, 0.6397401028559705, -0.7937446343219777, -0.689783913186535, -1.2073248964292034, 2.219578583024508, -0.7992074149486219, -0.9258553024326753, 1.2469432660106814, -1.2351413123452661, -0.4111045973793844, 0.03738449536384359, 1.2354975818742207, 1.6239019649203683, 1.2942216374631064, -1.770477616961017, 0.11182120150222312, -0.0762111214751246, -0.6683282407130426, 1.5937782191197554, -1.192621681690574, 0.5653775676032303, 0.6319824433342681, 1.9475718409562996, -0.5675120443574168, -0.6447118895450599, 0.32166078877380566, -0.41077298682973173, 0.36298661888935174, -0.8797079158099852, -0.4116286918095627, 0.5616393113399458, 1.6561702166115442, 0.892107853264069, 0.23088873408404317, 1.5374807674273085, 0.10002266340259121, 0.7701912870763177, 0.4188264953565672, 0.8854939099615963, 0.15529810579009107, -0.36010444495223126, 0.31909164620540537, -1.0224362268219225, 0.005542251471252707, -1.020579714408766, -0.21433933446782077, -1.4807347703414016, 0.7791934927340238, 0.28008028609548924, 0.5180166641982766, -0.2990624571091951, 1.0801948726631834, 0.21360520805660105, 1.4334773059069403, -0.13443541692539832, 2.304768087972438, 1.4513199325597341, 0.3196478192144104, -0.8213506472530913, -0.61408750529873, 0.7543662286543464, -0.2819004871936416, 0.8932207494220282, 0.5942129650856209, 0.948475290223114, 1.2523679778263348, -1.0243337302459028, 0.25674151755732333, -2.8981595675988756, -0.4754456532459381, -1.742912116883438, 0.557668523597547, -1.1616467925950609, -0.2523668938774749, -1.0138170090344107, 0.985345376357129, 0.5922103562276352, 0.749015134208623, -0.7301670254664115, -0.07043678450509852, 2.1641620862348145, 0.5314736098919908, -0.797637339830238, -0.5292688785557421, 0.2062658031553858, 1.2216359238575896, -0.8835069118563049, 1.5889885303437434, 1.213075494738459, 0.1443096015168882, -0.4664059222219004, 0.3642263600585145, -1.595781997149854, -0.6193269005527101, 0.06167883109688788, -1.1380350470192167, -1.5128321644764204, -0.08184353287128376, 0.5899783755118747, 0.3250598324197474, -0.23439046271950487, -1.0039788626503878, 0.6467688296891406, -1.552535357215986, 0.8181556681123195, 0.07245823070623619, 0.9743356131791117, -0.48069155470935404, -1.5695177969888685, 0.45187644431468005, -0.6460567405019837, 0.12418101056475365, -1.0450256956187831, 0.2726633214978535, 1.2760946102764263, 0.46037529151018675, -1.431312930181148, 1.7743865074363083, -1.8933123849128863, -0.4631864832416028, -1.6706719981887803, 1.3344370536610004, -0.3626987944423543, 1.278971463774343, -0.8672481786667643, -0.35542769174522426, 0.5720725461414241, -0.20363115734749826, 1.7282678348391796, 0.12617830871950786, 0.9191510520975321, 2.0376466524043706, -0.5069414303236877, -0.2822975774136904, 0.4209954053862282, -2.154953864045928, 0.35158299414478134, 0.3527445728483298, 0.12054876964084564, -0.633004455715313, 0.9266766962345652, -0.12776050253436624, -0.4329377802095017, -0.2347990253034118, -1.1310770337959208, -0.9022696768008687, 0.806754537402661, -0.060953360847030895, -1.0010925308696328, -0.8526186384372934, 1.4146954970986119, 0.07938014635575291, 0.31441919238294874, -0.3640939714716592, -0.7903305513604811, -0.5895864711821082, -0.0037894250009259476, -0.0060719777799913156, 0.05347946662918735, -1.7760547606203552, -0.37879278646128606, 0.3964525030962455, 0.9165592105876994, 0.8479123227230637, 0.08041230022601815, 0.8034267719321814, 1.1326195957071545, 0.9545085768917349, -0.17473340401732626, -0.5321753555353398, -1.031170821341067, -0.48832330345524033, -0.32705300615348926, -2.0265292192168425, 0.5559927922388699, -0.003002023080553407, -0.924828647038221, 0.0029380286940800544, -1.5694625022320552, 1.734493830526422, -0.08252739470948475, 0.36333778218331203, 0.1766130733867767, -0.9827437000543573, -1.6366131417242713, 0.9907106549154605, 0.004866219996385926, 0.19417255312747694, 0.668849163380273, 0.8337206415232348, 1.1833774634714678, 1.8211353714644714, 0.14208109683817075, 0.3808128310645648, 0.15972117970441385, -1.5229985659040006, 1.186850800922015, 0.28851052093147217, -0.888467765436164, 1.5729591713540645, -0.26875603304291623, 1.5607824332380718, -0.24368352691588954, 0.9484578610181754, -2.0076415896683613, -0.6365876191690982, -1.3273678777960665, 0.2762662114125775, 1.6388683254102596, 0.45593534117154166, -0.666101339829268, 0.721679945999301, -0.49165747817251937, -1.3839820237241298, -0.5606374840226218, -1.6466285068109245, 1.5224452023141843, 0.8675001031490721, -0.3663293921157875, 0.24295028050538348, 0.17486511772446084, -1.2141099202246954, -0.5577702182414594, 1.2667196138976629, -0.2760355059239504, -1.408155665063215, 0.7881085015664734, 0.8450229526440456, -0.08696230428411168, 2.4034384152086874, -0.14041921038453173, -1.0676867880153353, 1.711072778705639, -0.7510564900097543, 0.24791692146718056, -1.0053061997637274, -0.5820940922421622, -0.6859124827316013, 0.44316381620391304, -3.267901343843081, 0.5368261953622641, 0.4914314446678483, -1.317830811116189, -0.5098371027026855, -0.3326518639937027, -0.580720486547996, -0.6755803819779129, 1.7389508289022357, 0.09142231962119024, 0.3577678720563202, -0.588644091033898, 1.0015382615163333, -0.44460756494974124, -0.8086569668278626, 0.11507045848724033, 0.5357899617826447, 1.2758629125746763, -0.10808526432472675, -0.24485431752721237, -2.0459867828959037, 0.41287651182220436, 1.9455377902339208, -1.426247303649554, 0.8257189473607629, 0.8051836382291908, 1.253432528383282, -0.4707468616801973, -1.5681315593435843, 1.2583148166837286, 1.6600645552731432, 0.2715879387009668, -1.496819688640294, 1.4028274876197477, 0.5273447979888966, 0.7663712611303884, 0.5287495534792028, 1.3639960264982087, -1.434055259044882, -1.3451897834760551, 1.5057165166969457, -0.051555965564317484, -1.2040470246595998, 1.2619657843851215, -0.22928413826527436, -0.9078089139412557, -1.4656676044965296, 2.1645563611873153, -0.26472751218957935, -1.504415176036048, 0.7391876339785922, -0.5845844149450531, 2.125232572354712, 0.9356394850349133, 0.018860315580951432, -0.15813473209707643, 0.07464537891227371, -0.16775216994321343, -0.020482592854000642, -1.0008035624300575, 0.7811940110708945, 0.05989969867557005, 0.3822432397872556, -0.4684172601399473, 0.7346937134492738, -0.12374629909103259, -1.0062778886193928, -0.23061914772136316, 1.4321261395281968, 0.20787975563649322, -1.219239950327774, 0.19774543449405754, 0.9304816385058561, 1.2193793302786293, 1.0131624939117756, -1.174415984390138, -0.4412295944623143, 0.8664388871677084, 0.43329477014735, 1.6447417031521518, 0.27044680305011004, 0.3101784007081786, -0.8798146653969343, -0.6016556951062925, 0.060978196021627094, -0.01723792829684299, -1.7717447389737868, 1.5549861585103737, -0.15656421934144213, 0.44300156890314213, -0.21501439197000455, -0.1717061800872382, 1.0548102294966466, 0.4817264652096274, -0.07338801830529601, -0.549776110305796, 1.0021882590724522, -0.525209957678968, -0.44059250284360235, -1.2511257437669692, -0.2200004959934622, -0.7951190356080394, -0.951966643216228, 0.5260126320023549, -1.4459794069960332, 0.7525917728447689, 0.23863168045313463, -0.6790912551745546, 0.9835324813042878, 0.7726253428449165, 0.7922271868782792, -0.9282806817539593, -0.35001425496522964, -0.22645849222559136, 0.4359211926383209, -0.32945699852449145, 0.10770182201470202, -0.7203506959064679, -0.9623242719772215, -0.16408989540784666, 0.5595386384744058, -0.26774415495324155, 0.6752021186202007, 0.04618789988692846, 0.8809384698778164, -0.6590907152911075, 0.44378158175993637, -1.2051926660976109, 0.33575938100473035, 0.025687939447135315, 0.10830761878134833, 0.5476410090237648, 0.8144221214643521, -1.2087996971792088, 2.005920656930539, -0.291205545511165, 1.2170241238623534, 1.7809139429783196, -0.25898398978936377, -0.370442659859285, 0.22802335656676692, -0.47775822542386653, -0.5554973967576791, -0.009582288061430124, 0.6657384140277232, -0.8293925839786712, -1.624008369406795, -0.9035961839333759, -0.20065897633540694, 0.20102975303107243, 0.39473441854232216, -0.940110051901857, -0.10982780980311022, 1.2815338859452525, 0.949201829225053, -0.2029617098470989, -1.5811637795923543, 1.8480021810888743, -0.5195664197585061, 1.6753088463818084, 0.6446752102804688, 0.7379491602670102, 0.7706858139418552, 0.8557246850658843, 1.309251249914845, 0.9481009831937576, 0.5850977210754531, 0.3025310362987744, 0.03276268105044803, -0.1222274579753246, 0.9360554101346534, -0.5562952953200782, 0.6101147597537498, 1.9619101211953687, -0.03253397568557826, -0.16109236068404378, -0.25931453777104674, 1.0800389353075786, -0.657173019480429, -1.9032340328304524, 0.9603980505448841, -1.4146097826717663, 0.02062897015556148, -0.7989420749380326, 0.09425899763781302, 1.2596261123374317, -0.9080427986823899, -1.4519947972326548, 0.6888381084362836, 0.22383933456462904, -0.08339631165629807, 2.1234925345315885, -1.1020557859328912, 0.37491519538937995, -0.501348262712183, 1.3443078769872674, -0.6095788619790291, 1.0045989550504737, -1.3745029910625457, -0.8851148316389205, 0.484076872701837, 1.2804756303302143, -0.5007508333346202, 0.42960824852447216, -1.4107411895345985, 2.193004288448448, 2.1288824216989983, 1.1043926043216417, 0.09167625923173951, -0.1371485484294099, -0.22937746717863736, -0.036239994518913084, -1.1852170212519124, -0.5952767620971775, 0.5649756023473005, -0.10864949905204695, 1.5113623335398654, 0.2474758850300419, 0.9817428356698236, 0.8596645548692352, -0.009546382523991226, -0.9738470880595722, -0.5247348209600636, -1.2031913500751297, -1.4425589316972045, 0.06481423570922988, 1.7174141295678766, 0.6419483898811364, 0.7550574969349783, -1.5909951330431462, -1.0550561082357142, -1.0869973080415027, 1.0420668240595337, 1.3309811259142759, 0.16083702623905355, 0.3616669477691313, 0.4133092890188489, -0.036397565348200135, -1.2648995058148431, 1.372721322726681, 0.024128444519200435, -0.5237430235777982, -1.348755292145873, -1.083641883309253, -2.1801450407685286, -1.1786993924815101, -0.11756739379806953, 0.3647795380437582, -1.526155088771482, -0.6448989701287063, -0.8219015207878206, -0.9152103675545833, 0.6611529379775464, 0.5873220351323403, -1.666745698604597, 2.2645531346001597, 0.31518621886572795, -1.366908520760982, 0.25732515777770376, -0.5764747377916356, -0.6199401205812284, 1.021295004641243, 0.8731934157998513, 0.050497134396985464, 0.46127821245499895, -0.19302819019068093, -0.7334664721141501, 0.8836928211523412, -1.2639902201412445, 0.03979301118454051, 0.5366376101092073, 1.2535296462399137, -0.5443614706502092, -0.3902253142733289, -0.48214104745542213, -0.5420751296913356, 0.28868780224199037, -1.1974441934791216, 0.2633277194268513, -1.1721832737881692, -1.677415727033351, -0.8508125108506208, 0.4097758245220305, -1.4014937993719752, 0.3813472771184899, -0.049353504405868796, -0.18960664620638984, -0.10207009760230396, 1.5140872474366607, -0.5509192422633618, -1.3462083064547046, -0.838511151625094, 0.08191512525411576, 1.0451595096710933, 0.5758205028741561, -0.976700381856041, -0.09134874018417193, -0.32825048648096444, 0.5033626489870939, -0.743602718910215, -0.9782951036425004, -0.05836704397998072, -0.39486636778122236, -1.2835935271170413, -1.3574388574794316, -2.2108136177253153, -0.156357600078017, -0.8508295392228984, 0.4931370990085535, 0.17606479468673766, -0.9081468347997178, 2.1442937467589838, -0.753240706792957, 1.245331937738145, 0.20760726326728884, -0.4685009448845804, -1.7234936763404094, 0.6021671409954233, 1.1133972442677227, -1.2194017963853636, -0.12972782060826576, -1.8133763944000871, 1.763376700757015, -0.4729092210291344, -1.8282893547456611, -0.21879495864600032, -0.10556945120363835, -1.0927414618038311, -1.228072739894904, -0.5235212394969057, 1.6960629075493516, 0.33632995904996615, 0.23692283707711434, -0.31988685636789144, 0.07338784544709603, -0.4481960101102718, -0.3683106309439474, -1.092213630145319, -0.5563993022272745, 0.5701951486286533, 0.8667040339401575, -1.9090254739969064, -0.7582635957094256, -0.3964266611698517, 0.4769384358241284, -0.17808323544724908, -0.9688578421245672, -0.6562779638759589, -0.08895195147985098, 0.8236058736294782, 2.972222514448094, 0.5678710742583613, -1.1527727589297172, -0.3642696505282039, 2.260051454775736, 0.3827996591044136, 0.18383385033720442, 1.4905787774618968, 0.33586863167001535, 0.0025179528059564725, 1.0786369265975113, 0.42119542308939256, 0.2071280547375573, -0.8888307069673914, -1.780987748634629, -1.3772059152039868, -0.577366490922734, 0.24956106126889632, -0.9981194233906351, 0.11814450338022336, 1.2728096582737374, -0.129298296969324, -0.9140264510227167, -0.3349431798994165, -0.7906882033987719, 2.0999068710239617, -1.344579491458713, -0.350486572633279, 0.7113825193356685, 0.05581542964818555, -0.8047297576237654, 0.9077575328999791, -0.7987340019390122, -1.1339199519640255, 1.8665428654698584, 1.0206128758686606, 1.3298042861708956, 0.04489122245428258, 0.9480456791240616, 1.311460695409896, 0.36255635024634103, 0.1875248203113062, -0.17983212332618598, 0.10971512270318863, 0.46309563897096456, -0.021112663899687734, 1.5208772763636418, -0.043698733916609084, 0.5537502076167352, 1.3327935361990932, 0.9721263528763374, -0.8752798973209941], [-1.1162511121562848, -0.7367158347759895, -0.027326743567268733, -0.05147739570057417, -0.47373081093245517, 1.4452419691385694, -0.043090368191775356, 0.8034881635689175, 2.347482007821673, -1.0359373992265941, 1.0188642686836435, -1.0783343211067278, 1.5747458938049574, -0.3455115463554465, -0.3024354490895913, 0.2588594483436296, 1.3549194515898246, -1.8605685037638093, 0.3715545187354263, 1.1355542229488615, 0.9444558727394573, -1.5322232074620301, 2.1211234266326784, -0.6027833686572217, 0.6848965743598391, -0.6284782612240286, 0.749839895748207, -1.5790046936704962, -2.4627636070981294, -2.2026223701050984, -2.307235601945646, 1.6227278257534177, -0.3200287151847965, 0.9073891435650241, -0.5156353725363652, 0.9282832728782592, 1.0499066431128294, 0.6902862731910132, -0.1450613322056442, -1.0107527351113597, -0.1466082717162105, 0.0405534109680913, -0.3260801672169926, -0.518839533457301, 1.0153841864818989, 0.13291125980213558, 1.3361883325881756, -1.6387686880263013, 0.04730791810876928, 0.3575617180952552, -0.4265653263504401, 0.2662813573745581, -1.2019255412607934, 1.2962794708125032, 0.30105504827251234, 0.022888021426747004, 1.1114738275068419, 0.37391760003309343, -0.6672992535495221, -0.5471704668516283, 0.09917213031779745, 0.945712716914806, -1.4608012046759806, 0.4689504862916681, -0.9622982389524544, 0.45731493008277435, 0.8184992103689891, -0.7160002210464029, 1.3648258594289868, -0.8663965614644753, -0.47878750356566435, -2.096311158694899, -1.2480843736512333, 1.9421471885462391, 0.7047481634507162, -1.2612003189145746, 0.12802473611918422, 0.5034642168722955, 1.819756942766914, -0.9546946629963705, -1.0120739491321962, -1.1838518467570793, -0.5234210497380158, 0.7126191547829237, -0.8282731450415644, -1.0844362286877185, -0.8867050461578678, -1.2453619706694907, 1.7664158904742333, -0.7304210092381728, 0.7612224720074964, 0.9194445077652968, 0.7727663452527366, 0.7952972649862367, 1.5014199945456606, 0.9014005602811906, 0.18597582481440225, 0.26763884583419334, -0.7651014931273676, -0.620495605458793, -1.1047532615471989, -0.23515579175553397, -2.2154472974404773, 1.7943591718276815, 0.026884809844537613, -0.02355307647152397, -0.16772559533865114, -1.097942466162511, 0.1633585401169888, 0.05815434135654661, 0.9333650582215824, 1.404197800001965, 1.0501340349309176, 1.0858336523298504, -0.8044826936832707, -1.2636419038315028, 0.9468696665461342, 0.5893242880706104, 0.8771995893729903, -0.49631769468108106, 0.7677192482453074, -0.5381463919696812, -0.435014488560802, -0.9049569335366717, -0.2776261270296986, -1.2990938151579483, -0.05923014930621832, 1.6069002460168036, -1.2941971737311, 0.8098139315703416, -0.6942543183076926, 1.1604173611027047, 0.27111053178792255, 0.21141220759062015, -0.2642215734060294, -0.11146896841032806, -1.1217482468657238, 0.48299245793326906, 0.2937565141685671, 