[[[-0.5464804710938719], [0.017397220066626952], [0.5505469377059371], [-0.6946337956673135], [-0.20867383541039355], [-1.3799660692267595], [-0.41245427393651335], [-0.8087105520460832], [-0.7750359441505666], [-0.7432899591552597], [-0.4212095372864292], [-0.5959566609201158], [0.3948213380917967], [-0.14320760458508214], [-0.8644761101535628], [0.6245478359849743], [0.3188041644543502], [0.6649262660224904], [-0.03296837786543786], [0.8415058768358535], [-0.34106084241258494], [-0.06324472529676377], [1.78630642532049], [-0.2530095669416806], [-1.1023789142778824], [-1.4699166581927097], [0.05879333384504971], [1.1615710442725788], [-0.18494151387823168], [-0.3050634355097637], [-0.44934291906646295], [-0.6903855325550158], [-0.2501397973161936], [-0.06566418979080324], [-1.9421006897408888], [0.06033324201143747], [2.1116327864208584], [0.6926983653724371], [2.375663275959025], [-1.0526376801065054], [-1.6851220313987254], [0.9590722518301754], [-0.43890634522826044], [-0.8110037768632042], [0.7176401647938594], [2.649140280782086], [-1.2556405812294913], [0.6455554483529143], [2.3578555494762963], [1.2019246136081716], [0.30982802181111696], [0.39534315026814826], [-0.796080809274237], [0.5883543675392698], [1.5091340712486252], [-0.8608636471538064], [0.4175197737574977], [-0.36657107507664866], [1.309038140661], [-0.6611577268276307], [0.133592447432384], [-2.397307621457881], [0.1066770470871222], [-0.603978953394734], [1.669888387166868], [-0.4869588875763996], [1.5533251783202189], [-1.3793489680857922], [1.3784982800344843], [-0.6860129310934424], [0.12581442439755117], [0.03500325851886516], [-0.21322940792616507], [0.6652866862261674], [-1.7476297811128712], [-0.43018213096824615], [0.41758330723805365], [-0.5397567589685137], [-0.4787473885609877], [-1.2322916742541525], [-0.2573057534516014], [-0.22968301570295402], [-1.984008886355495], [0.5442306636621503], [-0.45780094684189504], [-0.37524115998819496], [0.25125129431668775], [2.660978357112626], [-0.540071471444658], [0.48043150189536077], [-0.6422262729734882], [-0.7838369645466983], [1.445153042659441], [-0.048270338076577185], [-0.7506859341431397], [-1.0538301678348228], [-0.3616134618228773], [1.1024114318783402], [0.7277338451603468], [-0.6967298416398502]], [[-1.9084297575989682], [1.1670497820718693], [0.5322330562756387], [-0.6299993841446566], [-0.16850554668396306], [0.6682707599611768], [0.9601135457367842], [0.07791394580313311], [0.7265738263151871], [0.36345305843556763], [-0.9521355830689749], [0.38769515905811475], [0.942395439888929], [-1.2973602989331745], [0.20703439159072348], [0.5823766955876748], [-0.8654648222976326], [-0.1159824102552265], [-0.872512868719291], [0.3997182608544769], [0.1819694097397187], [0.5772141449909458], [-0.4920959266319736], [-1.3443170744347277], [1.0178981026922098], [-1.060697873362143], [0.31149420786169096], [1.695022259691708], [-0.0906447432155365], [-1.3271541492362473], [0.5896688439614223], [-0.18652214770867043], [0.4804540879861897], [-1.0334699269760361], [-0.08970079244410302], [1.229815143635315], [-0.3097513973358853], [-2.610474662021852], [-1.1933656731472524], [-1.6812527184063115], [1.0370088368206258], [-1.310425167307746], [-1.3840508216685565], [0.42925512464748294], [-0.13855083327761694], [1.2601374128131932], [-0.5681865681828878], [-0.7272908685051542], [-1.6042449829604124], [0.08471667694923662], [-0.41013537510783865], [-0.8236021222064914], [1.3528167599733016], [0.3139280556366317], [-0.124204208420399], [-0.4930033708564901], [0.5465108491338894], [0.9333371488305499], [-0.9946719569758828], [1.2692896890762706], [0.9311964829043204], [-0.27930820895844044], [0.11396349532119143], [-0.9822063134487911], [-1.6927154250582122], [0.03104184331720008], [1.116963008363868], [0.05608440651555313], [1.840107838326048], [0.18316071147977617], [-1.2239196943822561], [-0.18908937524532937], [1.4808331307769063], [1.1612893790355137], [-1.1255862168257473], [1.2891360232704523], [-1.8265588275774851], [0.13666595380373864], [0.13003024221703594], [-0.13162390655530243], [-1.1414506896554935], [0.82931942042831], [-0.5099221100981511], [0.3693032964813834], [1.1916784264011586], [0.274250949473128], [-0.04595263841639549], [-1.3539513694489809], [0.8063102656961154], [-1.141724755114671], [1.1150235019355075], [-1.4393079989008128], [0.46911830936068283], [-0.05204382792223778], [-0.013462543422387917], [-0.7256437443234898], [-0.9207318359141706], [-1.7293080810901167], [0.6561983613164497], [1.5730386861217924]], [[1.432207222346603], [-0.6883286224334961], [-2.969224419460975], [-0.542806684183318], [-0.08454944044433435], [1.2494431733140516], [-0.8072945156614612], [0.8935377747375485], [-0.6425981787456109], [-0.28337641736105545]]]